svm_type c_svc
kernel_type rbf
gamma 0.01
nr_class 2
total_sv 278
rho -0.87098266026402749
label 0 1
nr_sv 167 111
SV
0.12820382313212508 0:7 1:0 2:0 3:7 4:6 5:0 6:0 7:0 8:0 9:0 10:2 11:8 12:2 13:1 14:1 15:0 16:7 17:0 18:3 19:38 20:3 21:1 22:0 23:1 24:4 25:31 26:36 27:0 28:4 29:0 30:15 31:1 32:1 33:0 34:3 35:2 36:0 37:0 38:1 39:1 40:0 41:0 42:0 43:0 44:0 
0.10248634846959599 0:3 1:0 2:0 3:0 4:0 5:0 6:0 7:0 8:2 9:0 10:1 11:3 12:0 13:1 14:0 15:0 16:3 17:1 18:0 19:18 20:0 21:0 22:0 23:1 24:1 25:6 26:7 27:0 28:0 29:13 30:0 31:0 32:0 33:0 34:11 35:0 36:0 37:0 38:0 39:0 40:0 41:0 42:0 43:0 44:0 
0.11998979266802624 0:15 1:2 2:0 3:1 4:0 5:0 6:0 7:0 8:0 9:0 10:1 11:0 12:3 13:0 14:0 15:0 16:1 17:0 18:1 19:26 20:0 21:0 22:0 23:0 24:0 25:12 26:20 27:0 28:0 29:7 30:2 31:0 32:0 33:0 34:1 35:5 36:2 37:0 38:0 39:0 40:0 41:0 42:0 43:0 44:0 
0.10323536805908008 0:10 1:1 2:0 3:1 4:0 5:0 6:0 7:1 8:1 9:4 10:0 11:6 12:3 13:1 14:1 15:0 16:2 17:1 18:0 19:20 20:0 21:0 22:0 23:3 24:5 25:10 26:13 27:1 28:1 29:3 30:0 31:1 32:6 33:2 34:2 35:0 36:0 37:0 38:0 39:0 40:0 41:0 42:0 43:0 44:0 
1 0:3 1:0 2:0 3:0 4:0 5:0 6:0 7:0 8:1 9:0 10:0 11:3 12:0 13:0 14:0 15:0 16:0 17:0 18:0 19:2 20:0 21:0 22:0 23:0 24:0 25:0 26:0 27:0 28:4 29:0 30:0 31:0 32:2 33:0 34:2 35:1 36:0 37:0 38:0 39:0 40:0 41:0 42:0 43:0 44:0 
0.0041529476139758846 0:10 1:0 2:0 3:0 4:0 5:0 6:0 7:0 8:0 9:5 10:0 11:12 12:0 13:2 14:0 15:0 16:1 17:0 18:1 19:4 20:0 21:0 22:0 23:0 24:1 25:1 26:1 27:0 28:0 29:0 30:0 31:0 32:0 33:0 34:4 35:0 36:2 37:0 38:0 39:0 40:0 41:0 42:0 43:3 44:0 
1 0:2 1:0 2:0 3:0 4:0 5:0 6:0 7:0 8:0 9:0 10:0 11:0 12:0 13:0 14:0 15:0 16:1 17:0 18:0 19:1 20:0 21:0 22:0 23:0 24:0 25:2 26:3 27:0 28:0 29:0 30:0 31:0 32:0 33:0 34:0 35:0 36:0 37:0 38:0 39:0 40:0 41:0 42:0 43:0 44:0 
0.11378772170353374 0:1 1:2 2:1 3:0 4:0 5:0 6:0 7:3 8:1 9:1 10:3 11:17 12:3 13:7 14:0 15:0 16:1 17:0 18:1 19:42 20:2 21:0 22:0 23:0 24:0 25:0 26:3 27:2 28:1 29:0 30:0 31:0 32:0 33:3 34:3 35:0 36:2 37:0 38:0 39:0 40:0 41:0 42:0 43:0 44:0 
0.051741503824510274 0:2 1:0 2:0 3:0 4:2 5:0 6:1 7:0 8:0 9:0 10:0 11:4 12:0 13:1 14:0 15:0 16:1 17:0 18:0 19:30 20:0 21:0 22:0 23:2 24:0 25:1 26:1 27:0 28:1 29:3 30:0 31:8 32:1 33:0 34:1 35:1 36:0 37:0 38:0 39:0 40:0 41:0 42:0 43:0 44:0 
0.084226970210852056 0:4 1:0 2:0 3:0 4:0 5:0 6:0 7:0 8:0 9:0 10:1 11:0 12:1 13:0 14:0 15:0 16:1 17:0 18:0 19:32 20:0 21:0 22:0 23:0 24:0 25:1 26:1 27:0 28:2 29:5 30:9 31:0 32:0 33:0 34:0 35:0 36:0 37:0 38:0 39:0 40:0 41:0 42:0 43:0 44:0 
0.12411107183855763 0:2 1:0 2:0 3:0 4:0 5:0 6:0 7:0 8:0 9:0 10:0 11:0 12:0 13:0 14:0 15:0 16:11 17:1 18:1 19:15 20:0 21:0 22:0 23:0 24:8 25:0 26:0 27:0 28:0 29:3 30:0 31:22 32:0 33:3 34:0 35:1 36:0 37:0 38:0 39:0 40:0 41:0 42:0 43:0 44:0 
0.072219999557854297 0:7 1:1 2:0 3:0 4:0 5:0 6:0 7:0 8:0 9:0 10:0 11:0 12:0 13:2 14:0 15:0 16:1 17:1 18:1 19:28 20:1 21:0 22:0 23:0 24:0 25:7 26:7 27:0 28:1 29:0 30:0 31:0 32:0 33:0 34:1 35:4 36:0 37:0 38:0 39:0 40:0 41:0 42:0 43:0 44:0 
0.12338241093752222 0:13 1:3 2:0 3:1 4:2 5:1 6:0 7:0 8:1 9:2 10:0 11:13 12:4 13:2 14:2 15:0 16:7 17:0 18:5 19:22 20:0 21:1 22:0 23:0 24:6 25:20 26:20 27:0 28:2 29:2 30:3 31:1 32:7 33:0 34:4 35:0 36:0 37:0 38:0 39:0 40:0 41:0 42:0 43:0 44:0 
0.12828792077866008 0:1 1:1 2:0 3:7 4:3 5:0 6:0 7:0 8:1 9:0 10:0 11:3 12:2 13:2 14:1 15:0 16:3 17:0 18:5 19:43 20:0 21:1 22:0 23:2 24:3 25:33 26:32 27:1 28:0 29:2 30:4 31:14 32:0 33:0 34:10 35:2 36:0 37:0 38:2 39:0 40:0 41:0 42:0 43:0 44:0 
0.11488401521930502 0:1 1:5 2:0 3:0 4:0 5:0 6:0 7:0 8:0 9:0 10:0 11:5 12:7 13:0 14:0 15:0 16:1 17:0 18:1 19:14 20:25 21:0 22:0 23:0 24:0 25:1 26:8 27:0 28:1 29:3 30:0 31:0 32:0 33:0 34:8 35:0 36:0 37:1 38:0 39:0 40:0 41:0 42:0 43:0 44:0 
0.0872061310556171 0:4 1:3 2:0 3:0 4:0 5:0 6:0 7:2 8:0 9:0 10:2 11:26 12:0 13:3 14:2 15:0 16:0 17:1 18:0 19:4 20:6 21:0 22:0 23:0 24:0 25:0 26:4 27:4 28:1 29:0 30:0 31:0 32:0 33:0 34:0 35:0 36:2 37:0 38:0 39:0 40:0 41:0 42:0 43:0 44:0 
0.1288926021585492 0:9 1:0 2:0 3:0 4:1 5:0 6:0 7:0 8:4 9:0 10:0 11:0 12:0 13:1 14:0 15:0 16:1 17:0 18:1 19:29 20:0 21:0 22:0 23:0 24:0 25:0 26:0 27:0 28:1 29:26 30:2 31:0 32:0 33:0 34:0 35:1 36:0 37:0 38:0 39:1 40:0 41:0 42:0 43:7 44:0 
0.014794844641094072 0:8 1:1 2:0 3:0 4:0 5:0 6:0 7:0 8:0 9:1 10:0 11:2 12:3 13:0 14:0 15:0 16:0 17:1 18:0 19:32 20:0 21:0 22:0 23:0 24:0 25:1 26:1 27:0 28:1 29:3 30:0 31:0 32:0 33:1 34:0 35:0 36:0 37:0 38:4 39:0 40:0 41:0 42:0 43:0 44:0 
0.12367469650487067 0:3 1:1 2:1 3:1 4:0 5:0 6:0 7:1 8:0 9:1 10:0 11:1 12:4 13:0 14:0 15:0 16:8 17:0 18:0 19:60 20:4 21:3 22:0 23:0 24:0 25:3 26:9 27:0 28:2 29:4 30:0 31:0 32:1 33:3 34:0 35:2 36:0 37:0 38:0 39:0 40:0 41:0 42:0 43:0 44:0 
1 0:1 1:0 2:0 3:1 4:0 5:0 6:0 7:0 8:1 9:0 10:0 11:1 12:0 13:0 14:0 15:0 16:2 17:0 18:0 19:0 20:0 21:0 22:0 23:0 24:0 25:2 26:1 27:0 28:0 29:0 30:0 31:0 32:0 33:0 34:0 35:5 36:0 37:0 38:0 39:0 40:0 41:0 42:0 43:0 44:0 
0.76663973576060496 0:1 1:1 2:0 3:0 4:0 5:0 6:0 7:4 8:0 9:0 10:0 11:0 12:0 13:1 14:0 15:0 16:0 17:0 18:0 19:5 20:0 21:0 22:0 23:1 24:0 25:0 26:0 27:0 28:0 29:0 30:1 31:0 32:0 33:0 34:1 35:0 36:0 37:0 38:0 39:0 40:0 41:0 42:0 43:0 44:0 
1 0:0 1:0 2:0 3:0 4:0 5:0 6:0 7:0 8:0 9:0 10:0 11:0 12:0 13:0 14:0 15:1 16:0 17:2 18:0 19:0 20:0 21:0 22:0 23:0 24:0 25:0 26:1 27:3 28:0 29:0 30:0 31:0 32:0 33:0 34:0 35:0 36:0 37:0 38:0 39:0 40:0 41:0 42:0 43:0 44:0 
0.11393706468910159 0:3 1:0 2:0 3:0 4:0 5:0 6:0 7:1 8:0 9:6 10:1 11:0 12:0 13:2 14:1 15:0 16:0 17:1 18:0 19:25 20:0 21:0 22:0 23:0 24:0 25:0 26:0 27:0 28:1 29:0 30:0 31:0 32:0 33:4 34:4 35:0 36:0 37:0 38:20 39:0 40:0 41:0 42:0 43:0 44:0 
1 0:0 1:0 2:0 3:0 4:0 5:0 6:0 7:0 8:0 9:0 10:0 11:0 12:0 13:2 14:1 15:0 16:0 17:0 18:0 19:0 20:0 21:0 22:0 23:0 24:1 25:0 26:1 27:0 28:0 29:0 30:0 31:0 32:0 33:0 34:3 35:1 36:1 37:0 38:0 39:0 40:0 41:0 42:0 43:0 44:0 
1 0:0 1:0 2:0 3:0 4:0 5:0 6:0 7:1 8:0 9:2 10:0 11:0 12:0 13:0 14:0 15:1 16:0 17:0 18:0 19:0 20:0 21:0 22:0 23:0 24:0 25:0 26:2 27:0 28:0 29:0 30:0 31:0 32:0 33:0 34:0 35:0 36:0 37:2 38:0 39:0 40:0 41:0 42:0 43:0 44:0 
0.81468563762590196 0:0 1:3 2:1 3:0 4:0 5:0 6:0 7:1 8:0 9:0 10:1 11:0 12:0 13:0 14:0 15:1 16:0 17:0 18:0 19:0 20:0 21:0 22:0 23:0 24:0 25:0 26:4 27:0 28:0 29:0 30:0 31:0 32:0 33:0 34:0 35:0 36:0 37:0 38:0 39:0 40:0 41:0 42:0 43:0 44:0 
0.38867092049816965 0:1 1:4 2:4 3:0 4:0 5:0 6:0 7:1 8:0 9:0 10:3 11:0 12:0 13:2 14:0 15:0 16:0 17:0 18:0 19:0 20:0 21:0 22:0 23:0 24:0 25:0 26:0 27:0 28:1 29:0 30:0 31:0 32:0 33:1 34:7 35:0 36:0 37:0 38:0 39:0 40:0 41:0 42:0 43:3 44:0 
0.091874408798660545 0:5 1:1 2:0 3:0 4:0 5:1 6:2 7:8 8:0 9:1 10:1 11:8 12:2 13:10 14:0 15:0 16:0 17:1 18:0 19:31 20:0 21:0 22:0 23:1 24:1 25:0 26:0 27:0 28:0 29:1 30:2 31:5 32:0 33:0 34:5 35:1 36:1 37:0 38:0 39:0 40:0 41:0 42:0 43:0 44:0 
0.0057060543920812523 0:2 1:0 2:1 3:0 4:1 5:0 6:0 7:4 8:1 9:0 10:6 11:18 12:2 13:2 14:0 15:0 16:0 17:0 18:0 19:4 20:12 21:0 22:0 23:0 24:0 25:2 26:2 27:1 28:2 29:2 30:0 31:0 32:0 33:0 34:2 35:1 36:0 37:0 38:0 39:0 40:0 41:0 42:0 43:0 44:0 
1 0:1 1:0 2:0 3:0 4:0 5:0 6:0 7:1 8:0 9:0 10:1 11:1 12:0 13:0 14:0 15:0 16:0 17:0 18:0 19:0 20:0 21:0 22:0 23:0 24:1 25:0 26:1 27:2 28:0 29:0 30:0 31:0 32:0 33:0 34:0 35:0 36:0 37:0 38:0 39:0 40:0 41:0 42:0 43:0 44:0 
0.46229751402877395 0:2 1:0 2:0 3:0 4:0 5:0 6:0 7:3 8:1 9:0 10:0 11:0 12:0 13:0 14:0 15:0 16:0 17:0 18:0 19:6 20:0 21:0 22:0 23:0 24:0 25:0 26:0 27:0 28:1 29:0 30:0 31:0 32:0 33:0 34:0 35:0 36:0 37:0 38:0 39:0 40:0 41:0 42:0 43:0 44:0 
1 0:0 1:0 2:1 3:0 4:0 5:0 6:0 7:4 8:0 9:0 10:0 11:0 12:0 13:1 14:0 15:0 16:0 17:1 18:0 19:5 20:0 21:0 22:0 23:0 24:0 25:0 26:0 27:0 28:0 29:0 30:0 31:0 32:0 33:1 34:0 35:0 36:1 37:0 38:0 39:0 40:0 41:0 42:0 43:0 44:0 
1 0:0 1:0 2:0 3:0 4:0 5:0 6:0 7:3 8:0 9:0 10:0 11:0 12:0 13:2 14:0 15:0 16:1 17:1 18:0 19:5 20:0 21:0 22:0 23:1 24:0 25:0 26:0 27:0 28:0 29:0 30:0 31:0 32:0 33:0 34:1 35:0 36:1 37:0 38:0 39:0 40:0 41:0 42:0 43:0 44:0 
0.035808679272611624 0:0 1:0 2:1 3:0 4:0 5:0 6:0 7:3 8:0 9:0 10:0 11:1 12:0 13:0 14:0 15:0 16:0 17:3 18:0 19:0 20:0 21:9 22:0 23:0 24:0 25:0 26:0 27:1 28:0 29:0 30:0 31:0 32:4 33:0 34:0 35:1 36:1 37:4 38:0 39:0 40:0 41:0 42:0 43:0 44:0 
1 0:0 1:0 2:0 3:0 4:1 5:0 6:0 7:1 8:0 9:0 10:0 11:3 12:0 13:0 14:0 15:0 16:0 17:0 18:0 19:2 20:0 21:1 22:0 23:0 24:0 25:0 26:1 27:0 28:0 29:0 30:0 31:0 32:0 33:0 34:0 35:0 36:0 37:0 38:0 39:0 40:0 41:0 42:0 43:0 44:0 
1 0:0 1:0 2:0 3:0 4:0 5:0 6:0 7:0 8:0 9:0 10:0 11:2 12:0 13:0 14:0 15:0 16:0 17:0 18:0 19:4 20:0 21:0 22:0 23:0 24:0 25:0 26:0 27:1 28:0 29:0 30:0 31:0 32:0 33:0 34:1 35:0 36:0 37:0 38:1 39:0 40:0 41:0 42:0 43:0 44:0 
1 0:1 1:0 2:0 3:1 4:0 5:0 6:0 7:0 8:0 9:0 10:1 11:0 12:0 13:0 14:0 15:0 16:0 17:0 18:0 19:0 20:0 21:1 22:0 23:0 24:0 25:1 26:1 27:0 28:0 29:0 30:0 31:0 32:0 33:0 34:0 35:0 36:0 37:0 38:0 39:0 40:0 41:0 42:0 43:0 44:0 
1 0:0 1:0 2:0 3:2 4:1 5:0 6:0 7:4 8:0 9:0 10:0 11:0 12:0 13:0 14:0 15:0 16:0 17:1 18:0 19:0 20:0 21:0 22:0 23:0 24:0 25:0 26:0 27:2 28:0 29:0 30:0 31:0 32:0 33:0 34:0 35:1 36:0 37:0 38:0 39:0 40:0 41:0 42:0 43:0 44:0 
1 0:0 1:0 2:0 3:0 4:0 5:0 6:0 7:1 8:0 9:0 10:2 11:3 12:1 13:0 14:0 15:0 16:0 17:0 18:0 19:0 20:8 21:0 22:0 23:0 24:0 25:0 26:0 27:0 28:0 29:0 30:0 31:0 32:0 33:0 34:0 35:0 36:0 37:0 38:0 39:0 40:0 41:0 42:0 43:0 44:0 
1 0:0 1:0 2:0 3:0 4:0 5:0 6:0 7:2 8:0 9:0 10:0 11:0 12:1 13:1 14:0 15:0 16:2 17:0 18:0 19:3 20:2 21:0 22:0 23:0 24:0 25:0 26:0 27:0 28:0 29:0 30:0 31:1 32:1 33:0 34:0 35:0 36:1 37:0 38:1 39:0 40:0 41:0 42:0 43:1 44:0 
0.063247027415011925 0:1 1:6 2:0 3:0 4:0 5:0 6:0 7:0 8:0 9:0 10:1 11:12 12:1 13:5 14:0 15:0 16:0 17:0 18:0 19:14 20:16 21:0 22:0 23:0 24:0 25:0 26:1 27:2 28:7 29:0 30:0 31:0 32:0 33:0 34:0 35:0 36:1 37:0 38:0 39:0 40:0 41:0 42:0 43:0 44:0 
0.20833544974975146 0:0 1:0 2:1 3:1 4:0 5:0 6:0 7:3 8:0 9:1 10:0 11:0 12:0 13:0 14:0 15:1 16:0 17:2 18:0 19:0 20:0 21:0 22:0 23:0 24:0 25:0 26:1 27:0 28:0 29:0 30:0 31:0 32:0 33:0 34:0 35:0 36:0 37:0 38:0 39:2 40:0 41:2 42:0 43:0 44:0 
0.61165953473700985 0:1 1:0 2:0 3:0 4:0 5:0 6:0 7:1 8:1 9:0 10:1 11:0 12:0 13:0 14:0 15:0 16:0 17:0 18:0 19:2 20:0 21:0 22:0 23:0 24:0 25:0 26:5 27:0 28:0 29:0 30:2 31:0 32:0 33:1 34:0 35:0 36:1 37:0 38:0 39:0 40:0 41:0 42:0 43:1 44:2 
0.91778609607526829 0:0 1:2 2:0 3:0 4:0 5:0 6:0 7:2 8:0 9:0 10:1 11:0 12:0 13:0 14:0 15:1 16:0 17:0 18:0 19:5 20:1 21:0 22:0 23:0 24:0 25:0 26:0 27:0 28:0 29:0 30:0 31:0 32:0 33:0 34:0 35:0 36:0 37:0 38:0 39:0 40:0 41:0 42:0 43:0 44:0 
0.36058651337370312 0:0 1:0 2:0 3:0 4:0 5:0 6:0 7:0 8:0 9:0 10:0 11:2 12:1 13:0 14:0 15:0 16:0 17:0 18:0 19:7 20:1 21:1 22:0 23:1 24:0 25:0 26:0 27:0 28:0 29:0 30:0 31:0 32:0 33:0 34:0 35:0 36:1 37:0 38:0 39:0 40:0 41:0 42:0 43:0 44:0 
1 0:0 1:0 2:2 3:0 4:0 5:1 6:0 7:0 8:0 9:0 10:0 11:0 12:0 13:0 14:0 15:3 16:0 17:0 18:0 19:0 20:0 21:0 22:0 23:0 24:0 25:0 26:0 27:0 28:0 29:0 30:0 31:0 32:0 33:0 34:0 35:0 36:4 37:0 38:0 39:0 40:0 41:0 42:0 43:0 44:0 
1 0:1 1:0 2:0 3:0 4:0 5:0 6:0 7:1 8:0 9:0 10:0 11:0 12:0 13:4 14:0 15:0 16:0 17:0 18:0 19:0 20:0 21:0 22:0 23:0 24:0 25:2 26:1 27:0 28:0 29:0 30:0 31:0 32:0 33:0 34:0 35:0 36:5 37:0 38:0 39:0 40:0 41:0 42:0 43:0 44:0 
1 0:0 1:1 2:0 3:0 4:0 5:0 6:0 7:1 8:0 9:0 10:0 11:0 12:0 13:0 14:0 15:0 16:0 17:2 18:0 19:3 20:0 21:0 22:0 23:1 24:0 25:0 26:3 27:0 28:0 29:0 30:0 31:0 32:0 33:0 34:1 35:0 36:0 37:0 38:0 39:0 40:0 41:0 42:0 43:0 44:0 
1 0:0 1:1 2:0 3:0 4:0 5:0 6:0 7:2 8:0 9:0 10:0 11:0 12:0 13:2 14:0 15:0 16:0 17:0 18:0 19:2 20:0 21:0 22:0 23:0 24:0 25:0 26:0 27:1 28:1 29:0 30:0 31:0 32:0 33:0 34:1 35:2 36:0 37:0 38:0 39:0 40:0 41:0 42:0 43:0 44:0 
0.050819412695835293 0:0 1:0 2:2 3:1 4:0 5:0 6:0 7:0 8:0 9:4 10:1 11:0 12:0 13:0 14:0 15:0 16:0 17:0 18:0 19:0 20:0 21:0 22:0 23:0 24:0 25:0 26:0 27:0 28:0 29:0 30:0 31:0 32:0 33:0 34:1 35:0 36:6 37:0 38:0 39:3 40:0 41:4 42:0 43:0 44:0 
0.076402564507002904 0:0 1:2 2:0 3:0 4:0 5:0 6:0 7:0 8:0 9:1 10:0 11:23 12:0 13:3 14:1 15:0 16:0 17:0 18:0 19:5 20:2 21:0 22:0 23:0 24:0 25:0 26:0 27:0 28:4 29:3 30:0 31:0 32:0 33:0 34:0 35:3 36:0 37:0 38:0 39:0 40:0 41:0 42:0 43:0 44:0 
1 0:0 1:0 2:0 3:0 4:0 5:0 6:0 7:0 8:0 9:0 10:0 11:0 12:0 13:0 14:0 15:0 16:0 17:3 18:0 19:1 20:0 21:0 22:0 23:0 24:0 25:0 26:0 27:1 28:0 29:0 30:6 31:0 32:0 33:0 34:1 35:0 36:0 37:0 38:0 39:0 40:0 41:0 42:0 43:0 44:0 
1 0:0 1:0 2:0 3:0 4:0 5:0 6:0 7:0 8:0 9:0 10:0 11:0 12:0 13:0 14:0 15:0 16:0 17:1 18:0 19:4 20:2 21:0 22:0 23:1 24:0 25:0 26:1 27:0 28:0 29:0 30:3 31:0 32:0 33:0 34:2 35:0 36:0 37:0 38:0 39:0 40:0 41:0 42:0 43:0 44:0 
1 0:0 1:0 2:0 3:0 4:0 5:0 6:0 7:0 8:0 9:0 10:0 11:0 12:0 13:1 14:0 15:0 16:0 17:1 18:0 19:2 20:0 21:0 22:0 23:0 24:0 25:0 26:0 27:1 28:0 29:0 30:0 31:2 32:0 33:0 34:4 35:0 36:0 37:0 38:0 39:0 40:0 41:0 42:0 43:0 44:0 
0.64110491429568872 0:1 1:0 2:0 3:2 4:0 5:0 6:0 7:0 8:0 9:0 10:0 11:0 12:0 13:0 14:0 15:0 16:8 17:0 18:0 19:6 20:1 21:0 22:0 23:0 24:0 25:0 26:0 27:0 28:1 29:0 30:0 31:0 32:0 33:0 34:0 35:1 36:0 37:0 38:0 39:0 40:0 41:0 42:0 43:0 44:0 
1 0:0 1:0 2:0 3:0 4:0 5:0 6:0 7:1 8:0 9:0 10:0 11:8 12:0 13:0 14:2 15:0 16:0 17:0 18:0 19:2 20:2 21:0 22:0 23:0 24:0 25:0 26:0 27:0 28:1 29:0 30:0 31:0 32:0 33:0 34:0 35:0 36:0 37:0 38:0 39:0 40:0 41:0 42:0 43:0 44:0 
0.11246996548169341 0:0 1:0 2:1 3:0 4:0 5:1 6:0 7:3 8:0 9:0 10:3 11:22 12:1 13:10 14:1 15:0 16:0 17:0 18:0 19:14 20:13 21:0 22:0 23:0 24:0 25:0 26:2 27:1 28:11 29:7 30:0 31:0 32:0 33:0 34:0 35:0 36:0 37:0 38:0 39:0 40:0 41:0 42:0 43:0 44:0 
0.11010634091514207 0:0 1:0 2:0 3:0 4:2 5:3 6:0 7:3 8:0 9:0 10:2 11:10 12:1 13:2 14:1 15:0 16:0 17:1 18:0 19:8 20:28 21:0 22:0 23:0 24:0 25:0 26:1 27:1 28:0 29:0 30:0 31:0 32:1 33:0 34:4 35:0 36:0 37:0 38:0 39:0 40:0 41:0 42:0 43:0 44:0 
1 0:0 1:1 2:1 3:0 4:0 5:0 6:0 7:1 8:0 9:0 10:3 11:0 12:0 13:0 14:0 15:0 16:0 17:1 18:0 19:4 20:4 21:0 22:0 23:0 24:0 25:0 26:0 27:0 28:0 29:0 30:0 31:0 32:0 33:0 34:0 35:0 36:0 37:0 38:0 39:0 40:0 41:0 42:0 43:0 44:0 
0.045181197770956485 0:0 1:0 2:1 3:0 4:0 5:0 6:0 7:0 8:3 9:0 10:2 11:0 12:2 13:1 14:0 15:0 16:0 17:1 18:0 19:1 20:0 21:0 22:0 23:0 24:0 25:0 26:0 27:0 28:0 29:0 30:0 31:4 32:2 33:0 34:0 35:0 36:0 37:0 38:0 39:0 40:0 41:0 42:0 43:0 44:0 
0.30732964642019733 0:2 1:0 2:0 3:0 4:0 5:0 6:0 7:1 8:0 9:0 10:0 11:0 12:0 13:0 14:2 15:0 16:0 17:0 18:0 19:2 20:3 21:0 22:0 23:0 24:0 25:0 26:0 27:0 28:1 29:0 30:0 31:3 32:0 33:0 34:0 35:0 36:0 37:1 38:0 39:0 40:0 41:0 42:0 43:0 44:0 
1 0:0 1:0 2:0 3:0 4:0 5:0 6:0 7:1 8:0 9:0 10:1 11:0 12:1 13:0 14:0 15:0 16:0 17:1 18:0 19:2 20:1 21:0 22:0 23:0 24:0 25:0 26:0 27:0 28:0 29:0 30:0 31:3 32:1 33:0 34:3 35:0 36:3 37:2 38:0 39:0 40:0 41:0 42:0 43:0 44:1 
1 0:0 1:0 2:0 3:0 4:0 5:0 6:0 7:1 8:0 9:0 10:0 11:0 12:0 13:0 14:0 15:1 16:0 17:0 18:0 19:0 20:0 21:0 22:0 23:0 24:0 25:0 26:0 27:0 28:0 29:0 30:0 31:0 32:0 33:0 34:0 35:0 36:1 37:0 38:0 39:0 40:0 41:0 42:0 43:0 44:0 
0.94512722576554575 0:1 1:0 2:0 3:0 4:0 5:2 6:0 7:0 8:0 9:0 10:0 11:0 12:0 13:0 14:0 15:0 16:0 17:1 18:0 19:6 20:1 21:0 22:0 23:4 24:0 25:0 26:0 27:0 28:0 29:0 30:0 31:0 32:0 33:0 34:0 35:0 36:4 37:0 38:0 39:0 40:0 41:0 42:0 43:0 44:0 
0.071880606138629857 0:2 1:0 2:1 3:0 4:0 5:0 6:0 7:1 8:0 9:0 10:3 11:13 12:0 13:4 14:0 15:0 16:2 17:0 18:0 19:23 20:5 21:1 22:0 23:0 24:0 25:0 26:0 27:2 28:6 29:0 30:0 31:0 32:0 33:0 34:0 35:0 36:0 37:0 38:0 39:0 40:0 41:0 42:0 43:0 44:0 
0.017979754032707435 0:0 1:0 2:0 3:0 4:0 5:0 6:0 7:4 8:1 9:1 10:2 11:17 12:0 13:2 14:1 15:0 16:8 17:0 18:0 19:7 20:10 21:0 22:0 23:1 24:0 25:0 26:0 27:0 28:1 29:2 30:0 31:0 32:0 33:0 34:3 35:0 36:1 37:1 38:0 39:0 40:0 41:0 42:0 43:0 44:0 
0.39714437229460597 0:0 1:0 2:1 3:1 4:0 5:1 6:0 7:1 8:0 9:1 10:0 11:0 12:0 13:0 14:0 15:0 16:0 17:8 18:1 19:0 20:0 21:0 22:0 23:0 24:0 25:0 26:2 27:1 28:0 29:0 30:0 31:0 32:0 33:0 34:0 35:1 36:4 37:0 38:0 39:0 40:0 41:0 42:0 43:0 44:0 
0.10718981761393798 0:0 1:0 2:0 3:1 4:0 5:0 6:1 7:2 8:6 9:0 10:0 11:0 12:0 13:0 14:0 15:0 16:0 17:0 18:0 19:2 20:0 21:0 22:0 23:0 24:4 25:0 26:0 27:1 28:0 29:0 30:0 31:0 32:0 33:0 34:0 35:0 36:0 37:0 38:0 39:0 40:0 41:0 42:0 43:0 44:0 
1 0:1 1:0 2:0 3:0 4:0 5:0 6:0 7:2 8:0 9:0 10:0 11:0 12:0 13:0 14:0 15:0 16:0 17:0 18:0 19:0 20:0 21:0 22:0 23:0 24:5 25:0 26:2 27:0 28:0 29:0 30:0 31:0 32:0 33:0 34:0 35:1 36:1 37:0 38:0 39:0 40:0 41:0 42:0 43:0 44:0 
1 0:1 1:0 2:1 3:0 4:0 5:0 6:0 7:3 8:0 9:0 10:0 11:0 12:0 13:0 14:0 15:1 16:0 17:1 18:0 19:0 20:0 21:0 22:0 23:0 24:0 25:0 26:2 27:0 28:0 29:0 30:0 31:0 32:0 33:0 34:0 35:0 36:0 37:0 38:0 39:2 40:0 41:0 42:0 43:0 44:0 
1 0:0 1:0 2:0 3:0 4:0 5:1 6:0 7:1 8:0 9:0 10:0 11:0 12:0 13:0 14:0 15:1 16:0 17:1 18:0 19:0 20:0 21:0 22:0 23:0 24:0 25:0 26:0 27:0 28:0 29:0 30:0 31:0 32:0 33:0 34:0 35:0 36:3 37:0 38:0 39:4 40:0 41:1 42:0 43:0 44:0 
1 0:1 1:0 2:0 3:0 4:0 5:0 6:0 7:0 8:0 9:0 10:0 11:0 12:0 13:0 14:0 15:0 16:0 17:0 18:0 19:3 20:0 21:0 22:0 23:0 24:0 25:0 26:2 27:0 28:0 29:1 30:0 31:2 32:0 33:0 34:0 35:0 36:0 37:0 38:0 39:0 40:0 41:0 42:0 43:0 44:0 
1 0:0 1:0 2:0 3:0 4:0 5:1 6:0 7:1 8:6 9:1 10:0 11:1 12:0 13:1 14:1 15:0 16:0 17:1 18:0 19:3 20:0 21:0 22:0 23:0 24:2 25:0 26:0 27:0 28:0 29:0 30:0 31:0 32:0 33:0 34:0 35:0 36:1 37:0 38:0 39:0 40:0 41:0 42:0 43:0 44:0 
0.32769417897126363 0:0 1:0 2:0 3:1 4:0 5:0 6:1 7:1 8:9 9:0 10:0 11:0 12:0 13:0 14:1 15:0 16:0 17:1 18:0 19:3 20:0 21:0 22:0 23:0 24:0 25:0 26:0 27:0 28:0 29:0 30:0 31:0 32:0 33:0 34:0 35:0 36:2 37:0 38:0 39:0 40:0 41:0 42:0 43:0 44:0 
1 0:0 1:0 2:0 3:0 4:1 5:1 6:0 7:0 8:0 9:1 10:0 11:0 12:0 13:0 14:0 15:0 16:0 17:0 18:0 19:0 20:0 21:0 22:0 23:0 24:0 25:0 26:0 27:0 28:0 29:0 30:0 31:0 32:0 33:0 34:0 35:0 36:3 37:0 38:0 39:2 40:0 41:5 42:0 43:0 44:0 
1 0:0 1:0 2:0 3:0 4:0 5:0 6:0 7:0 8:0 9:3 10:1 11:0 12:0 13:0 14:0 15:0 16:0 17:0 18:0 19:0 20:0 21:0 22:0 23:0 24:0 25:0 26:0 27:0 28:0 29:0 30:0 31:0 32:0 33:0 34:0 35:0 36:1 37:0 38:0 39:4 40:0 41:2 42:0 43:0 44:0 
0.13686670140815763 0:2 1:0 2:0 3:0 4:0 5:0 6:1 7:0 8:3 9:0 10:3 11:2 12:0 13:0 14:0 15:0 16:0 17:0 18:0 19:0 20:0 21:0 22:0 23:0 24:0 25:0 26:2 27:2 28:0 29:0 30:0 31:0 32:0 33:1 34:0 35:0 36:1 37:0 38:0 39:0 40:0 41:0 42:0 43:0 44:0 
0.89703488336224968 0:0 1:0 2:0 3:0 4:0 5:0 6:0 7:0 8:0 9:0 10:0 11:0 12:0 13:0 14:0 15:4 16:0 17:0 18:0 19:0 20:0 21:0 22:0 23:0 24:0 25:0 26:0 27:0 28:0 29:0 30:0 31:0 32:0 33:0 34:0 35:0 36:0 37:0 38:0 39:0 40:0 41:0 42:0 43:0 44:0 
0.61378179118124587 0:1 1:0 2:0 3:0 4:0 5:0 6:1 7:3 8:0 9:0 10:0 11:1 12:0 13:0 14:1 15:1 16:0 17:0 18:0 19:3 20:0 21:0 22:0 23:0 24:0 25:0 26:0 27:0 28:0 29:0 30:3 31:0 32:0 33:0 34:2 35:0 36:2 37:0 38:0 39:0 40:0 41:0 42:0 43:0 44:0 
1 0:0 1:0 2:0 3:0 4:0 5:0 6:0 7:0 8:0 9:0 10:0 11:0 12:0 13:0 14:0 15:1 16:0 17:0 18:0 19:0 20:0 21:0 22:0 23:0 24:0 25:0 26:0 27:0 28:0 29:0 30:0 31:0 32:0 33:0 34:0 35:0 36:0 37:0 38:0 39:0 40:0 41:0 42:0 43:0 44:0 
0.72841117300300895 0:0 1:3 2:1 3:0 4:0 5:0 6:0 7:1 8:0 9:0 10:1 11:3 12:0 13:0 14:0 15:3 16:0 17:0 18:0 19:0 20:0 21:0 22:0 23:0 24:0 25:0 26:0 27:0 28:0 29:0 30:0 31:0 32:0 33:0 34:0 35:0 36:2 37:0 38:0 39:0 40:0 41:0 42:0 43:0 44:0 
1 0:0 1:0 2:0 3:0 4:0 5:0 6:0 7:0 8:0 9:0 10:0 11:0 12:0 13:0 14:0 15:3 16:0 17:0 18:0 19:0 20:0 21:0 22:0 23:0 24:0 25:0 26:0 27:0 28:0 29:0 30:0 31:0 32:0 33:0 34:0 35:0 36:0 37:0 38:0 39:0 40:0 41:0 42:0 43:0 44:0 
1 0:1 1:0 2:0 3:0 4:0 5:0 6:0 7:0 8:0 9:0 10:0 11:0 12:0 13:0 14:0 15:0 16:0 17:0 18:0 19:0 20:2 21:0 22:0 23:0 24:0 25:0 26:0 27:0 28:0 29:0 30:0 31:0 32:0 33:0 34:0 35:0 36:0 37:0 38:7 39:0 40:0 41:0 42:0 43:0 44:0 
1 0:0 1:0 2:1 3:0 4:0 5:0 6:0 7:0 8:0 9:0 10:1 11:0 12:0 13:0 14:0 15:3 16:0 17:0 18:0 19:0 20:0 21:0 22:0 23:0 24:0 25:0 26:0 27:0 28:0 29:0 30:0 31:0 32:0 33:0 34:0 35:0 36:1 37:0 38:0 39:0 40:0 41:0 42:0 43:0 44:0 
1 0:0 1:1 2:0 3:0 4:0 5:0 6:0 7:1 8:0 9:0 10:0 11:0 12:0 13:0 14:0 15:1 16:0 17:0 18:0 19:0 20:0 21:0 22:0 23:0 24:0 25:0 26:0 27:0 28:0 29:0 30:0 31:0 32:0 33:0 34:0 35:0 36:1 37:0 38:0 39:1 40:0 41:0 42:0 43:0 44:0 
1 0:0 1:2 2:0 3:0 4:0 5:2 6:2 7:1 8:0 9:0 10:1 11:1 12:0 13:0 14:0 15:0 16:0 17:0 18:0 19:0 20:0 21:0 22:0 23:0 24:0 25:0 26:1 27:0 28:0 29:0 30:0 31:0 32:0 33:1 34:7 35:0 36:0 37:0 38:0 39:0 40:0 41:0 42:0 43:2 44:0 
1 0:0 1:0 2:0 3:0 4:0 5:0 6:0 7:1 8:0 9:1 10:0 11:0 12:0 13:0 14:0 15:0 16:0 17:1 18:0 19:0 20:0 21:0 22:0 23:0 24:0 25:0 26:0 27:0 28:0 29:0 30:0 31:0 32:0 33:0 34:0 35:0 36:1 37:0 38:0 39:0 40:0 41:1 42:0 43:0 44:0 
1 0:0 1:0 2:0 3:0 4:0 5:0 6:0 7:0 8:0 9:1 10:0 11:0 12:0 13:0 14:0 15:1 16:0 17:1 18:0 19:0 20:0 21:0 22:0 23:0 24:0 25:0 26:0 27:0 28:0 29:0 30:0 31:0 32:0 33:0 34:0 35:0 36:6 37:0 38:0 39:0 40:0 41:0 42:0 43:0 44:0 
1 0:1 1:0 2:0 3:0 4:0 5:0 6:0 7:0 8:0 9:0 10:0 11:0 12:0 13:2 14:0 15:0 16:0 17:0 18:0 19:1 20:0 21:0 22:0 23:0 24:0 25:0 26:2 27:1 28:0 29:0 30:0 31:0 32:0 33:0 34:0 35:0 36:1 37:0 38:0 39:0 40:0 41:0 42:0 43:0 44:0 
1 0:2 1:0 2:0 3:0 4:0 5:0 6:0 7:0 8:0 9:0 10:0 11:1 12:0 13:0 14:0 15:0 16:0 17:0 18:0 19:1 20:0 21:0 22:0 23:0 24:2 25:0 26:0 27:0 28:1 29:0 30:0 31:0 32:5 33:0 34:0 35:0 36:0 37:0 38:0 39:0 40:0 41:0 42:0 43:0 44:0 
0.63060221874200739 0:2 1:0 2:0 3:0 4:0 5:0 6:0 7:0 8:0 9:0 10:0 11:2 12:2 13:0 14:0 15:0 16:0 17:0 18:0 19:1 20:7 21:0 22:0 23:0 24:0 25:0 26:1 27:0 28:0 29:0 30:0 31:0 32:0 33:0 34:1 35:0 36:0 37:0 38:0 39:0 40:0 41:0 42:0 43:0 44:0 
1 0:1 1:0 2:0 3:0 4:0 5:0 6:0 7:0 8:0 9:0 10:1 11:0 12:0 13:0 14:0 15:0 16:0 17:0 18:0 19:1 20:0 21:0 22:0 23:0 24:3 25:0 26:0 27:1 28:0 29:0 30:0 31:0 32:0 33:0 34:0 35:1 36:0 37:0 38:0 39:0 40:0 41:0 42:0 43:0 44:0 
1 0:0 1:1 2:1 3:0 4:0 5:0 6:0 7:0 8:0 9:0 10:2 11:0 12:0 13:0 14:1 15:0 16:0 17:0 18:0 19:1 20:0 21:0 22:0 23:0 24:0 25:0 26:0 27:3 28:0 29:0 30:0 31:0 32:0 33:0 34:0 35:0 36:0 37:0 38:1 39:0 40:0 41:0 42:0 43:0 44:0 
1 0:0 1:0 2:0 3:0 4:0 5:0 6:0 7:0 8:0 9:0 10:0 11:0 12:1 13:0 14:0 15:0 16:0 17:1 18:0 19:1 20:0 21:0 22:0 23:2 24:1 25:0 26:1 27:3 28:0 29:0 30:0 31:0 32:0 33:0 34:0 35:0 36:0 37:0 38:0 39:0 40:0 41:0 42:0 43:0 44:0 
1 0:1 1:0 2:0 3:0 4:0 5:0 6:0 7:0 8:0 9:0 10:0 11:0 12:0 13:0 14:0 15:0 16:0 17:1 18:1 19:1 20:0 21:4 22:0 23:0 24:0 25:0 26:0 27:2 28:0 29:0 30:0 31:0 32:0 33:0 34:0 35:0 36:1 37:0 38:0 39:0 40:0 41:0 42:0 43:0 44:0 
1 0:0 1:0 2:0 3:0 4:0 5:0 6:0 7:0 8:0 9:0 10:0 11:2 12:1 13:0 14:0 15:0 16:0 17:2 18:0 19:1 20:0 21:0 22:0 23:0 24:0 25:0 26:0 27:2 28:0 29:0 30:0 31:1 32:0 33:0 34:0 35:0 36:1 37:0 38:0 39:0 40:0 41:0 42:0 43:0 44:0 
1 0:0 1:0 2:0 3:0 4:0 5:0 6:0 7:0 8:0 9:0 10:1 11:3 12:1 13:0 14:0 15:0 16:0 17:0 18:0 19:2 20:0 21:0 22:0 23:0 24:0 25:1 26:2 27:0 28:0 29:0 30:0 31:2 32:0 33:1 34:0 35:0 36:0 37:0 38:0 39:0 40:0 41:0 42:0 43:0 44:0 
1 0:0 1:0 2:0 3:0 4:0 5:0 6:0 7:1 8:0 9:0 10:3 11:1 12:0 13:0 14:0 15:0 16:0 17:0 18:0 19:1 20:0 21:0 22:0 23:0 24:0 25:0 26:0 27:0 28:0 29:0 30:0 31:0 32:0 33:0 34:0 35:1 36:1 37:0 38:0 39:0 40:0 41:0 42:0 43:0 44:0 
1 0:0 1:0 2:0 3:0 4:0 5:0 6:0 7:0 8:0 9:0 10:1 11:0 12:0 13:0 14:0 15:0 16:3 17:0 18:0 19:5 20:0 21:0 22:0 23:0 24:0 25:1 26:1 27:0 28:0 29:1 30:0 31:0 32:0 33:0 34:0 35:1 36:2 37:0 38:0 39:0 40:0 41:0 42:0 43:0 44:0 
0.3176051097465904 0:0 1:0 2:0 3:0 4:0 5:0 6:0 7:0 8:0 9:0 10:0 11:0 12:0 13:0 14:0 15:0 16:0 17:0 18:0 19:1 20:0 21:7 22:0 23:0 24:3 25:1 26:1 27:0 28:0 29:0 30:0 31:0 32:0 33:0 34:0 35:0 36:0 37:0 38:0 39:0 40:0 41:0 42:0 43:0 44:0 
1 0:0 1:0 2:0 3:0 4:0 5:0 6:0 7:0 8:0 9:0 10:1 11:0 12:0 13:4 14:0 15:0 16:0 17:1 18:0 19:2 20:0 21:0 22:0 23:0 24:0 25:0 26:0 27:0 28:0 29:0 30:0 31:1 32:0 33:0 34:0 35:0 36:0 37:0 38:0 39:0 40:0 41:0 42:0 43:0 44:0 
0.045254472277862376 0:0 1:0 2:0 3:0 4:0 5:0 6:0 7:3 8:0 9:0 10:0 11:0 12:0 13:3 14:0 15:2 16:0 17:0 18:0 19:0 20:0 21:0 22:0 23:0 24:0 25:0 26:0 27:0 28:0 29:0 30:0 31:0 32:0 33:0 34:0 35:0 36:4 37:0 38:0 39:1 40:0 41:1 42:0 43:0 44:0 
0.54182225734940914 0:0 1:0 2:0 3:0 4:0 5:0 6:0 7:1 8:0 9:0 10:1 11:0 12:0 13:1 14:2 15:0 16:0 17:0 18:0 19:7 20:2 21:0 22:0 23:0 24:0 25:0 26:0 27:0 28:0 29:0 30:0 31:0 32:0 33:0 34:0 35:0 36:0 37:0 38:0 39:0 40:0 41:0 42:0 43:0 44:0 
1 0:0 1:0 2:0 3:0 4:0 5:0 6:0 7:0 8:0 9:0 10:1 11:2 12:0 13:0 14:0 15:0 16:3 17:0 18:0 19:4 20:0 21:0 22:0 23:0 24:0 25:0 26:0 27:0 28:0 29:0 30:0 31:2 32:5 33:0 34:0 35:0 36:0 37:0 38:0 39:0 40:0 41:0 42:0 43:0 44:0 
0.70746058438727488 0:0 1:0 2:0 3:2 4:0 5:0 6:0 7:0 8:0 9:0 10:0 11:0 12:1 13:0 14:0 15:0 16:0 17:0 18:0 19:1 20:0 21:0 22:0 23:3 24:2 25:0 26:3 27:0 28:0 29:0 30:0 31:1 32:0 33:0 34:0 35:0 36:0 37:0 38:0 39:0 40:0 41:0 42:0 43:0 44:0 
1 0:1 1:1 2:0 3:0 4:0 5:0 6:0 7:0 8:0 9:0 10:0 11:0 12:0 13:0 14:0 15:1 16:0 17:0 18:0 19:0 20:0 21:0 22:0 23:0 24:0 25:0 26:0 27:0 28:0 29:0 30:0 31:0 32:0 33:0 34:0 35:0 36:0 37:0 38:0 39:0 40:0 41:0 42:0 43:0 44:0 
1 0:0 1:0 2:0 3:1 4:0 5:0 6:0 7:0 8:0 9:0 10:1 11:0 12:0 13:3 14:0 15:0 16:0 17:0 18:0 19:2 20:0 21:0 22:0 23:0 24:0 25:0 26:0 27:1 28:0 29:0 30:0 31:2 32:0 33:0 34:1 35:0 36:0 37:0 38:0 39:0 40:0 41:0 42:0 43:0 44:0 
0.31551435251184745 0:1 1:0 2:0 3:0 4:0 5:0 6:0 7:1 8:0 9:0 10:0 11:0 12:0 13:3 14:0 15:0 16:0 17:2 18:0 19:6 20:0 21:0 22:0 23:0 24:0 25:0 26:0 27:0 28:0 29:0 30:0 31:0 32:0 33:0 34:1 35:0 36:0 37:0 38:0 39:0 40:0 41:0 42:0 43:0 44:0 
1 0:0 1:1 2:0 3:0 4:0 5:0 6:0 7:1 8:0 9:0 10:1 11:0 12:0 13:2 14:0 15:0 16:0 17:0 18:1 19:2 20:0 21:1 22:0 23:1 24:1 25:0 26:0 27:1 28:0 29:0 30:0 31:0 32:0 33:0 34:0 35:0 36:1 37:0 38:0 39:0 40:0 41:0 42:0 43:0 44:0 
1 0:3 1:0 2:3 3:0 4:0 5:0 6:0 7:0 8:0 9:0 10:0 11:0 12:0 13:0 14:0 15:2 16:0 17:1 18:0 19:0 20:0 21:0 22:0 23:0 24:0 25:0 26:0 27:0 28:0 29:0 30:0 31:0 32:0 33:0 34:0 35:0 36:3 37:0 38:0 39:0 40:0 41:0 42:0 43:0 44:0 
1 0:0 1:0 2:0 3:0 4:0 5:0 6:0 7:1 8:0 9:0 10:1 11:0 12:0 13:0 14:0 15:3 16:0 17:0 18:0 19:0 20:0 21:0 22:0 23:0 24:0 25:0 26:0 27:0 28:0 29:0 30:0 31:0 32:0 33:0 34:0 35:0 36:1 37:0 38:0 39:0 40:0 41:0 42:0 43:0 44:0 
0.72123602188107505 0:0 1:0 2:0 3:0 4:0 5:0 6:0 7:0 8:0 9:0 10:0 11:1 12:0 13:0 14:0 15:0 16:0 17:1 18:0 19:4 20:0 21:0 22:0 23:0 24:0 25:0 26:0 27:1 28:2 29:0 30:0 31:1 32:0 33:1 34:0 35:1 36:0 37:0 38:0 39:0 40:0 41:0 42:0 43:0 44:0 
1 0:0 1:0 2:0 3:0 4:0 5:0 6:0 7:0 8:0 9:0 10:0 11:0 12:2 13:0 14:0 15:0 16:0 17:0 18:0 19:4 20:0 21:0 22:0 23:0 24:1 25:0 26:1 27:0 28:0 29:0 30:0 31:2 32:0 33:0 34:0 35:0 36:0 37:0 38:0 39:0 40:0 41:0 42:0 43:0 44:0 
0.091216669252638896 0:2 1:1 2:1 3:0 4:0 5:0 6:0 7:5 8:0 9:0 10:2 11:1 12:0 13:1 14:0 15:0 16:2 17:2 18:0 19:41 20:2 21:0 22:0 23:1 24:0 25:0 26:3 27:0 28:0 29:0 30:0 31:1 32:0 33:1 34:7 35:0 36:1 37:0 38:0 39:0 40:0 41:0 42:0 43:0 44:1 
1 0:2 1:0 2:0 3:0 4:0 5:0 6:0 7:0 8:0 9:1 10:0 11:0 12:0 13:2 14:0 15:0 16:0 17:2 18:2 19:0 20:0 21:3 22:0 23:0 24:1 25:0 26:0 27:0 28:0 29:0 30:0 31:0 32:0 33:0 34:0 35:0 36:0 37:0 38:0 39:0 40:0 41:0 42:0 43:0 44:0 
1 0:0 1:0 2:0 3:0 4:0 5:0 6:0 7:0 8:0 9:0 10:0 11:0 12:0 13:0 14:0 15:0 16:0 17:0 18:1 19:0 20:0 21:1 22:0 23:1 24:4 25:0 26:1 27:0 28:0 29:0 30:0 31:0 32:0 33:0 34:0 35:0 36:1 37:0 38:0 39:0 40:0 41:0 42:0 43:0 44:0 
1 0:0 1:0 2:0 3:0 4:0 5:1 6:0 7:0 8:0 9:0 10:0 11:0 12:0 13:0 14:0 15:3 16:0 17:0 18:0 19:0 20:0 21:0 22:0 23:0 24:0 25:0 26:0 27:0 28:0 29:0 30:0 31:0 32:0 33:0 34:0 35:0 36:1 37:0 38:0 39:0 40:0 41:0 42:0 43:0 44:0 
1 0:1 1:0 2:0 3:0 4:0 5:0 6:0 7:0 8:0 9:0 10:1 11:0 12:0 13:0 14:0 15:0 16:0 17:0 18:0 19:0 20:0 21:0 22:0 23:0 24:4 25:0 26:2 27:0 28:0 29:0 30:0 31:0 32:1 33:0 34:0 35:2 36:3 37:0 38:0 39:0 40:0 41:0 42:0 43:0 44:0 
0.073483469269353049 0:0 1:0 2:0 3:1 4:0 5:0 6:2 7:5 8:21 9:0 10:4 11:0 12:1 13:0 14:0 15:0 16:0 17:3 18:0 19:17 20:1 21:0 22:0 23:0 24:0 25:0 26:0 27:0 28:0 29:0 30:0 31:0 32:0 33:0 34:1 35:0 36:5 37:0 38:0 39:0 40:0 41:0 42:0 43:0 44:0 
0.10269686536891437 0:2 1:0 2:0 3:1 4:0 5:0 6:1 7:0 8:0 9:0 10:0 11:0 12:0 13:0 14:0 15:0 16:0 17:0 18:0 19:3 20:1 21:0 22:0 23:0 24:0 25:0 26:1 27:0 28:0 29:0 30:0 31:0 32:0 33:0 34:0 35:0 36:2 37:0 38:26 39:1 40:0 41:0 42:0 43:0 44:0 
1 0:0 1:0 2:0 3:0 4:0 5:0 6:0 7:0 8:0 9:1 10:0 11:1 12:0 13:0 14:0 15:1 16:0 17:0 18:0 19:0 20:0 21:0 22:0 23:0 24:0 25:0 26:0 27:0 28:0 29:0 30:0 31:0 32:0 33:0 34:0 35:0 36:4 37:0 38:0 39:0 40:0 41:0 42:0 43:0 44:0 
1 0:0 1:0 2:3 3:0 4:0 5:0 6:0 7:0 8:1 9:0 10:4 11:0 12:0 13:0 14:0 15:0 16:0 17:0 18:0 19:1 20:0 21:0 22:0 23:0 24:1 25:0 26:0 27:0 28:0 29:0 30:0 31:3 32:2 33:0 34:0 35:0 36:0 37:0 38:0 39:0 40:0 41:0 42:0 43:0 44:0 
0.02159907838110153 0:0 1:0 2:1 3:0 4:1 5:0 6:1 7:0 8:0 9:2 10:0 11:2 12:0 13:0 14:0 15:0 16:0 17:0 18:0 19:1 20:0 21:0 22:0 23:0 24:14 25:0 26:0 27:1 28:1 29:0 30:0 31:0 32:0 33:0 34:0 35:1 36:9 37:0 38:0 39:0 40:0 41:0 42:0 43:0 44:0 
0.11266957030366263 0:2 1:0 2:2 3:1 4:0 5:1 6:0 7:4 8:0 9:7 10:1 11:0 12:0 13:0 14:0 15:3 16:0 17:1 18:0 19:0 20:0 21:0 22:0 23:0 24:0 25:0 26:0 27:0 28:0 29:0 30:1 31:0 32:0 33:0 34:5 35:0 36:25 37:0 38:0 39:30 40:0 41:9 42:0 43:0 44:0 
1 0:1 1:0 2:1 3:0 4:0 5:3 6:0 7:1 8:0 9:0 10:1 11:0 12:0 13:0 14:0 15:0 16:0 17:0 18:6 19:0 20:0 21:1 22:0 23:0 24:1 25:0 26:0 27:0 28:0 29:0 30:0 31:0 32:0 33:0 34:0 35:0 36:0 37:0 38:0 39:0 40:0 41:0 42:0 43:0 44:0 
0.099756484474150808 0:1 1:0 2:0 3:10 4:1 5:0 6:0 7:2 8:0 9:3 10:1 11:0 12:0 13:0 14:0 15:5 16:0 17:0 18:0 19:0 20:0 21:0 22:0 23:0 24:0 25:0 26:0 27:0 28:0 29:0 30:0 31:0 32:0 33:0 34:0 35:0 36:10 37:0 38:0 39:20 40:0 41:7 42:0 43:0 44:0 
0.084946629033517962 0:6 1:2 2:0 3:0 4:0 5:0 6:0 7:0 8:0 9:0 10:0 11:4 12:0 13:0 14:0 15:0 16:0 17:0 18:0 19:33 20:1 21:0 22:0 23:0 24:0 25:0 26:5 27:3 28:0 29:0 30:0 31:0 32:0 33:4 34:0 35:2 36:4 37:1 38:9 39:0 40:0 41:0 42:0 43:0 44:0 
0.12493036267277746 0:2 1:5 2:0 3:0 4:1 5:0 6:1 7:4 8:0 9:1 10:6 11:15 12:2 13:2 14:1 15:0 16:5 17:4 18:0 19:43 20:2 21:1 22:0 23:1 24:0 25:0 26:18 27:2 28:2 29:0 30:0 31:1 32:2 33:0 34:2 35:0 36:6 37:1 38:0 39:0 40:0 41:0 42:0 43:0 44:0 
0.12689036321294425 0:2 1:0 2:1 3:0 4:0 5:0 6:1 7:0 8:0 9:0 10:0 11:1 12:4 13:2 14:1 15:0 16:2 17:2 18:0 19:67 20:0 21:0 22:0 23:11 24:1 25:3 26:2 27:2 28:9 29:3 30:7 31:4 32:1 33:0 34:1 35:0 36:4 37:0 38:0 39:0 40:0 41:0 42:0 43:0 44:0 
0.053213082100631588 0:0 1:0 2:0 3:0 4:0 5:0 6:0 7:0 8:1 9:0 10:0 11:0 12:0 13:3 14:0 15:0 16:3 17:0 18:0 19:19 20:0 21:0 22:0 23:0 24:0 25:1 26:5 27:0 28:1 29:5 30:0 31:0 32:0 33:1 34:0 35:0 36:0 37:0 38:16 39:0 40:0 41:0 42:0 43:0 44:0 
1 0:1 1:0 2:0 3:1 4:0 5:0 6:1 7:0 8:0 9:1 10:0 11:0 12:0 13:0 14:0 15:0 16:0 17:0 18:0 19:0 20:0 21:0 22:0 23:0 24:0 25:0 26:0 27:0 28:0 29:0 30:0 31:0 32:0 33:0 34:0 35:0 36:3 37:0 38:0 39:2 40:0 41:0 42:0 43:0 44:0 
0.094527974784608337 0:1 1:0 2:0 3:0 4:0 5:0 6:0 7:10 8:20 9:0 10:4 11:1 12:1 13:0 14:0 15:0 16:0 17:0 18:0 19:20 20:1 21:0 22:0 23:0 24:0 25:0 26:1 27:0 28:0 29:0 30:0 31:0 32:0 33:0 34:5 35:0 36:0 37:1 38:0 39:0 40:0 41:0 42:0 43:0 44:0 
0.12498809608394457 0:3 1:1 2:3 3:0 4:0 5:0 6:2 7:1 8:6 9:7 10:5 11:5 12:6 13:4 14:0 15:0 16:10 17:5 18:0 19:67 20:2 21:0 22:0 23:0 24:0 25:0 26:0 27:0 28:1 29:0 30:1 31:0 32:0 33:0 34:4 35:1 36:0 37:0 38:0 39:0 40:0 41:0 42:0 43:0 44:1 
0.021133506946636779 0:0 1:2 2:1 3:0 4:0 5:0 6:0 7:3 8:0 9:0 10:2 11:11 12:2 13:0 14:0 15:0 16:3 17:0 18:0 19:24 20:1 21:0 22:0 23:0 24:0 25:0 26:2 27:0 28:0 29:0 30:0 31:0 32:0 33:0 34:2 35:0 36:0 37:0 38:0 39:0 40:0 41:0 42:0 43:0 44:0 
0.11780214661463791 0:8 1:0 2:0 3:0 4:0 5:0 6:0 7:0 8:0 9:4 10:1 11:1 12:0 13:0 14:0 15:2 16:0 17:2 18:0 19:0 20:1 21:0 22:0 23:0 24:0 25:0 26:0 27:0 28:0 29:0 30:0 31:0 32:0 33:0 34:1 35:0 36:23 37:0 38:0 39:20 40:0 41:16 42:0 43:0 44:0 
1 0:1 1:0 2:0 3:0 4:0 5:0 6:0 7:1 8:0 9:0 10:0 11:2 12:0 13:0 14:0 15:0 16:0 17:0 18:0 19:0 20:0 21:0 22:0 23:0 24:3 25:2 26:3 27:0 28:0 29:0 30:0 31:0 32:2 33:0 34:0 35:1 36:1 37:0 38:0 39:0 40:0 41:0 42:0 43:0 44:0 
1 0:3 1:0 2:0 3:0 4:0 5:0 6:0 7:1 8:0 9:0 10:0 11:0 12:0 13:0 14:0 15:0 16:6 17:0 18:0 19:2 20:0 21:0 22:0 23:0 24:1 25:0 26:0 27:0 28:1 29:3 30:0 31:0 32:0 33:0 34:0 35:0 36:0 37:0 38:0 39:0 40:0 41:0 42:0 43:0 44:0 
0.084641960636504476 0:5 1:0 2:0 3:0 4:1 5:0 6:0 7:1 8:0 9:0 10:0 11:3 12:0 13:0 14:0 15:0 16:2 17:0 18:0 19:17 20:0 21:0 22:0 23:0 24:0 25:2 26:9 27:0 28:1 29:11 30:0 31:0 32:0 33:0 34:0 35:2 36:0 37:0 38:14 39:0 40:0 41:0 42:0 43:0 44:0 
1 0:3 1:0 2:0 3:0 4:0 5:1 6:0 7:1 8:0 9:1 10:0 11:0 12:0 13:2 14:0 15:0 16:0 17:0 18:0 19:1 20:0 21:0 22:0 23:0 24:0 25:0 26:0 27:0 28:0 29:0 30:0 31:0 32:2 33:0 34:0 35:1 36:0 37:0 38:0 39:0 40:0 41:0 42:0 43:0 44:0 
1 0:0 1:0 2:1 3:0 4:0 5:0 6:0 7:1 8:0 9:0 10:0 11:0 12:0 13:0 14:0 15:0 16:2 17:0 18:0 19:1 20:0 21:0 22:0 23:0 24:0 25:1 26:1 27:0 28:0 29:0 30:0 31:0 32:0 33:0 34:0 35:0 36:0 37:0 38:0 39:0 40:0 41:0 42:0 43:0 44:0 
1 0:4 1:0 2:0 3:0 4:0 5:0 6:1 7:1 8:0 9:0 10:0 11:0 12:0 13:0 14:0 15:0 16:0 17:0 18:3 19:0 20:0 21:2 22:0 23:0 24:1 25:0 26:0 27:0 28:0 29:0 30:0 31:0 32:0 33:1 34:0 35:2 36:0 37:0 38:0 39:0 40:0 41:0 42:0 43:0 44:0 
1 0:1 1:0 2:0 3:0 4:2 5:0 6:0 7:1 8:0 9:0 10:0 11:0 12:0 13:0 14:0 15:0 16:0 17:0 18:0 19:0 20:0 21:0 22:0 23:0 24:4 25:0 26:1 27:1 28:0 29:0 30:0 31:0 32:0 33:0 34:0 35:1 36:2 37:0 38:0 39:0 40:0 41:0 42:0 43:0 44:0 
0.56472820040441196 0:4 1:0 2:0 3:1 4:1 5:0 6:0 7:1 8:0 9:0 10:0 11:0 12:0 13:0 14:0 15:0 16:0 17:0 18:0 19:0 20:0 21:0 22:0 23:0 24:2 25:1 26:2 27:0 28:0 29:1 30:0 31:0 32:0 33:1 34:0 35:1 36:0 37:0 38:0 39:0 40:0 41:0 42:0 43:0 44:0 
0.0852811647844057 0:3 1:1 2:2 3:1 4:1 5:1 6:3 7:1 8:0 9:0 10:0 11:5 12:0 13:0 14:0 15:0 16:0 17:3 18:0 19:3 20:0 21:1 22:0 23:1 24:1 25:0 26:0 27:0 28:1 29:1 30:0 31:5 32:0 33:0 34:2 35:0 36:1 37:0 38:0 39:0 40:0 41:0 42:3 43:2 44:18 
0.059975000765878 0:2 1:1 2:2 3:1 4:1 5:1 6:3 7:3 8:2 9:0 10:0 11:5 12:0 13:0 14:0 15:2 16:0 17:2 18:0 19:0 20:0 21:1 22:0 23:1 24:1 25:0 26:0 27:4 28:1 29:1 30:0 31:0 32:0 33:0 34:0 35:0 36:2 37:0 38:0 39:1 40:0 41:0 42:3 43:2 44:18 
0.027914878251208277 0:0 1:0 2:0 3:0 4:1 5:0 6:0 7:3 8:0 9:0 10:4 11:3 12:2 13:4 14:1 15:0 16:1 17:0 18:0 19:32 20:0 21:0 22:0 23:0 24:1 25:0 26:1 27:2 28:0 29:0 30:0 31:2 32:0 33:0 34:6 35:2 36:3 37:0 38:0 39:0 40:0 41:0 42:0 43:0 44:2 
0.36234383788537639 0:2 1:0 2:2 3:1 4:1 5:1 6:3 7:1 8:0 9:0 10:1 11:5 12:2 13:0 14:0 15:0 16:0 17:3 18:0 19:2 20:0 21:1 22:0 23:1 24:1 25:0 26:2 27:0 28:2 29:1 30:0 31:3 32:0 33:0 34:0 35:0 36:1 37:0 38:0 39:0 40:0 41:0 42:3 43:2 44:18 
1 0:0 1:1 2:0 3:0 4:0 5:0 6:0 7:2 8:0 9:0 10:1 11:2 12:0 13:0 14:0 15:0 16:1 17:2 18:0 19:5 20:0 21:0 22:0 23:0 24:0 25:0 26:1 27:0 28:0 29:0 30:0 31:0 32:0 33:0 34:0 35:0 36:0 37:0 38:0 39:0 40:0 41:0 42:0 43:0 44:0 
0.046667816157587728 0:1 1:0 2:3 3:0 4:0 5:0 6:0 7:1 8:7 9:0 10:0 11:0 12:0 13:2 14:1 15:0 16:0 17:0 18:0 19:3 20:0 21:0 22:0 23:14 24:0 25:0 26:0 27:0 28:0 29:0 30:4 31:1 32:0 33:0 34:6 35:0 36:0 37:0 38:0 39:0 40:0 41:0 42:0 43:0 44:0 
0.034704054618300874 0:0 1:0 2:0 3:0 4:0 5:0 6:0 7:2 8:0 9:0 10:1 11:24 12:1 13:6 14:0 15:0 16:0 17:0 18:0 19:6 20:6 21:0 22:0 23:0 24:0 25:0 26:0 27:3 28:7 29:0 30:0 31:0 32:0 33:0 34:0 35:0 36:1 37:0 38:0 39:0 40:0 41:0 42:0 43:0 44:0 
0.014244226933935743 0:3 1:0 2:2 3:1 4:1 5:1 6:3 7:2 8:0 9:0 10:1 11:5 12:0 13:0 14:0 15:1 16:0 17:4 18:0 19:0 20:0 21:1 22:0 23:1 24:1 25:0 26:0 27:2 28:1 29:1 30:0 31:0 32:0 33:0 34:0 35:0 36:1 37:0 38:0 39:1 40:0 41:0 42:3 43:2 44:18 
0.12759136734288248 0:2 1:1 2:0 3:0 4:2 5:0 6:0 7:0 8:0 9:1 10:0 11:2 12:7 13:0 14:0 15:0 16:7 17:1 18:0 19:51 20:0 21:5 22:0 23:3 24:2 25:0 26:0 27:0 28:0 29:0 30:0 31:4 32:0 33:2 34:4 35:0 36:0 37:0 38:16 39:0 40:0 41:0 42:0 43:0 44:0 
0.21046565212214702 0:1 1:0 2:2 3:1 4:1 5:1 6:3 7:1 8:0 9:5 10:0 11:5 12:0 13:0 14:1 15:2 16:0 17:2 18:0 19:0 20:0 21:1 22:0 23:1 24:1 25:0 26:0 27:0 28:1 29:1 30:0 31:0 32:0 33:0 34:0 35:1 36:3 37:0 38:0 39:1 40:0 41:0 42:3 43:2 44:18 
0.12383796457633883 0:3 1:2 2:0 3:2 4:1 5:0 6:0 7:9 8:0 9:2 10:1 11:2 12:0 13:0 14:0 15:2 16:0 17:1 18:0 19:1 20:0 21:0 22:0 23:0 24:0 25:0 26:12 27:0 28:0 29:0 30:0 31:0 32:0 33:0 34:6 35:2 36:21 37:1 38:0 39:29 40:0 41:0 42:0 43:1 44:0 
1 0:0 1:0 2:0 3:0 4:0 5:0 6:0 7:1 8:0 9:0 10:0 11:0 12:0 13:0 14:0 15:0 16:0 17:0 18:0 19:0 20:0 21:0 22:0 23:0 24:0 25:0 26:0 27:1 28:0 29:0 30:0 31:0 32:0 33:0 34:0 35:0 36:0 37:1 38:2 39:0 40:0 41:0 42:0 43:0 44:0 
0.070375309376821571 0:5 1:6 2:3 3:1 4:2 5:1 6:3 7:1 8:0 9:0 10:0 11:5 12:0 13:0 14:0 15:0 16:0 17:2 18:0 19:8 20:2 21:1 22:0 23:1 24:1 25:0 26:0 27:0 28:1 29:1 30:0 31:6 32:0 33:0 34:4 35:0 36:1 37:0 38:0 39:0 40:0 41:0 42:3 43:2 44:18 
0.070026614913777499 0:0 1:0 2:0 3:0 4:1 5:0 6:0 7:0 8:0 9:0 10:0 11:1 12:6 13:0 14:0 15:0 16:11 17:0 18:0 19:22 20:0 21:3 22:0 23:0 24:1 25:0 26:0 27:0 28:0 29:0 30:0 31:1 32:0 33:0 34:1 35:0 36:0 37:0 38:0 39:0 40:0 41:0 42:0 43:0 44:0 
0.10552454616076581 0:1 1:0 2:2 3:2 4:1 5:1 6:3 7:1 8:0 9:0 10:1 11:5 12:0 13:0 14:0 15:0 16:0 17:2 18:0 19:4 20:0 21:1 22:0 23:1 24:1 25:0 26:0 27:0 28:3 29:1 30:6 31:0 32:0 33:0 34:3 35:3 36:2 37:0 38:0 39:0 40:0 41:0 42:3 43:2 44:18 
0.10700260098223867 0:1 1:0 2:2 3:1 4:1 5:1 6:3 7:1 8:0 9:0 10:0 11:5 12:0 13:0 14:0 15:0 16:0 17:2 18:0 19:15 20:0 21:1 22:0 23:1 24:1 25:0 26:1 27:0 28:2 29:3 30:0 31:0 32:0 33:0 34:1 35:0 36:1 37:0 38:6 39:0 40:0 41:0 42:3 43:2 44:18 
0.20888099572775046 0:2 1:0 2:2 3:2 4:1 5:1 6:3 7:2 8:0 9:0 10:0 11:5 12:0 13:0 14:0 15:1 16:0 17:1 18:0 19:0 20:0 21:1 22:0 23:1 24:1 25:0 26:1 27:0 28:1 29:1 30:0 31:0 32:0 33:0 34:0 35:1 36:1 37:0 38:0 39:3 40:0 41:5 42:3 43:2 44:18 
1 0:1 1:1 2:2 3:1 4:1 5:1 6:3 7:2 8:0 9:0 10:1 11:5 12:0 13:0 14:0 15:1 16:0 17:1 18:0 19:0 20:0 21:1 22:0 23:1 24:1 25:0 26:0 27:0 28:1 29:1 30:0 31:0 32:0 33:0 34:0 35:0 36:1 37:0 38:0 39:0 40:0 41:0 42:3 43:2 44:18 
0.012857528938780552 0:4 1:0 2:3 3:1 4:1 5:1 6:3 7:5 8:0 9:0 10:0 11:5 12:0 13:2 14:1 15:0 16:0 17:1 18:3 19:0 20:0 21:12 22:0 23:1 24:5 25:0 26:0 27:0 28:1 29:1 30:0 31:0 32:0 33:0 34:0 35:0 36:1 37:0 38:0 39:0 40:0 41:0 42:3 43:2 44:18 
0.049151512649542504 0:2 1:4 2:0 3:0 4:0 5:0 6:0 7:4 8:0 9:0 10:1 11:7 12:0 13:1 14:0 15:0 16:0 17:5 18:0 19:32 20:0 21:0 22:0 23:0 24:0 25:0 26:0 27:0 28:0 29:0 30:1 31:0 32:0 33:0 34:1 35:0 36:0 37:0 38:0 39:0 40:0 41:0 42:1 43:0 44:4 
1 0:0 1:1 2:0 3:1 4:0 5:0 6:0 7:2 8:0 9:0 10:1 11:0 12:0 13:0 14:0 15:0 16:0 17:0 18:0 19:0 20:0 21:0 22:0 23:0 24:0 25:0 26:1 27:2 28:0 29:0 30:0 31:0 32:0 33:1 34:0 35:1 36:0 37:0 38:0 39:0 40:0 41:0 42:0 43:0 44:0 
1 0:1 1:4 2:3 3:0 4:0 5:0 6:0 7:1 8:0 9:0 10:3 11:0 12:0 13:1 14:0 15:0 16:0 17:0 18:0 19:0 20:0 21:0 22:0 23:0 24:0 25:0 26:0 27:0 28:1 29:0 30:0 31:0 32:0 33:0 34:5 35:0 36:0 37:0 38:0 39:0 40:0 41:0 42:0 43:5 44:0 
1 0:0 1:0 2:0 3:0 4:0 5:0 6:0 7:1 8:0 9:0 10:0 11:0 12:0 13:0 14:0 15:0 16:0 17:0 18:0 19:0 20:0 21:0 22:0 23:0 24:0 25:0 26:1 27:0 28:2 29:0 30:0 31:0 32:0 33:0 34:0 35:0 36:0 37:0 38:0 39:0 40:0 41:0 42:0 43:0 44:0 
1 0:1 1:0 2:0 3:0 4:0 5:0 6:0 7:1 8:0 9:0 10:0 11:0 12:0 13:0 14:0 15:0 16:0 17:0 18:0 19:0 20:0 21:0 22:0 23:0 24:0 25:0 26:4 27:1 28:0 29:0 30:0 31:0 32:0 33:0 34:0 35:0 36:0 37:0 38:0 39:0 40:0 41:0 42:0 43:0 44:0 
-1 0:0 1:0 2:0 3:0 4:0 5:0 6:0 7:1 8:0 9:0 10:3 11:3 12:0 13:0 14:0 15:0 16:0 17:2 18:1 19:1 20:0 21:0 22:0 23:0 24:0 25:0 26:0 27:0 28:0 29:0 30:0 31:0 32:0 33:0 34:0 35:0 36:4 37:0 38:0 39:0 40:0 41:0 42:0 43:0 44:1 
-0.36661892714868055 0:0 1:0 2:2 3:0 4:0 5:1 6:0 7:1 8:0 9:0 10:2 11:1 12:0 13:0 14:0 15:0 16:0 17:1 18:0 19:0 20:0 21:0 22:0 23:0 24:0 25:0 26:0 27:0 28:0 29:0 30:0 31:0 32:0 33:0 34:0 35:0 36:10 37:0 38:0 39:0 40:0 41:0 42:0 43:0 44:0 
-1 0:3 1:0 2:0 3:0 4:1 5:0 6:0 7:0 8:1 9:0 10:0 11:0 12:0 13:0 14:0 15:0 16:0 17:0 18:0 19:0 20:0 21:0 22:0 23:0 24:0 25:0 26:0 27:0 28:0 29:0 30:0 31:0 32:0 33:1 34:0 35:0 36:0 37:0 38:0 39:0 40:0 41:0 42:0 43:0 44:0 
-1 0:0 1:0 2:0 3:0 4:0 5:0 6:0 7:0 8:0 9:0 10:1 11:0 12:0 13:0 14:0 15:0 16:0 17:4 18:0 19:0 20:0 21:0 22:0 23:0 24:0 25:0 26:0 27:0 28:0 29:0 30:0 31:0 32:0 33:0 34:0 35:0 36:2 37:0 38:0 39:0 40:0 41:0 42:0 43:0 44:0 
-1 0:0 1:0 2:1 3:0 4:0 5:2 6:0 7:2 8:0 9:0 10:6 11:2 12:0 13:0 14:0 15:0 16:0 17:0 18:0 19:0 20:0 21:0 22:0 23:0 24:0 25:0 26:0 27:0 28:0 29:0 30:0 31:0 32:0 33:0 34:0 35:0 36:4 37:0 38:0 39:0 40:0 41:0 42:0 43:0 44:0 
-1 0:0 1:0 2:0 3:1 4:0 5:0 6:1 7:7 8:0 9:0 10:0 11:0 12:0 13:0 14:0 15:0 16:0 17:0 18:0 19:0 20:0 21:0 22:0 23:0 24:1 25:14 26:0 27:0 28:0 29:0 30:0 31:0 32:0 33:0 34:0 35:0 36:0 37:0 38:0 39:0 40:0 41:0 42:0 43:0 44:0 
-0.8089066611144986 0:1 1:0 2:1 3:0 4:0 5:0 6:0 7:2 8:0 9:0 10:5 11:2 12:0 13:0 14:0 15:0 16:0 17:2 18:0 19:0 20:0 21:0 22:0 23:0 24:0 25:0 26:0 27:0 28:0 29:0 30:0 31:0 32:1 33:0 34:0 35:0 36:16 37:0 38:0 39:0 40:0 41:0 42:1 43:0 44:2 
-1 0:1 1:0 2:0 3:0 4:0 5:0 6:0 7:2 8:0 9:0 10:4 11:0 12:0 13:0 14:0 15:0 16:0 17:2 18:0 19:0 20:0 21:0 22:0 23:0 24:0 25:0 26:0 27:0 28:0 29:0 30:0 31:0 32:1 33:0 34:0 35:0 36:29 37:0 38:0 39:0 40:0 41:0 42:0 43:0 44:0 
-1 0:1 1:0 2:0 3:0 4:0 5:0 6:0 7:0 8:0 9:0 10:1 11:5 12:0 13:0 14:0 15:0 16:0 17:1 18:0 19:0 20:0 21:0 22:0 23:0 24:5 25:0 26:0 27:0 28:0 29:0 30:0 31:0 32:6 33:0 34:0 35:0 36:0 37:0 38:0 39:0 40:0 41:0 42:0 43:0 44:0 
-1 0:0 1:0 2:0 3:0 4:2 5:1 6:0 7:1 8:0 9:2 10:2 11:0 12:0 13:0 14:0 15:0 16:0 17:0 18:0 19:0 20:0 21:0 22:0 23:0 24:0 25:0 26:0 27:0 28:0 29:0 30:0 31:0 32:0 33:0 34:0 35:0 36:1 37:0 38:0 39:0 40:0 41:0 42:0 43:0 44:0 
-1 0:0 1:0 2:0 3:0 4:0 5:0 6:0 7:0 8:0 9:0 10:0 11:0 12:0 13:0 14:0 15:0 16:0 17:0 18:0 19:0 20:0 21:0 22:0 23:0 24:4 25:0 26:0 27:0 28:0 29:0 30:0 31:0 32:0 33:0 34:0 35:0 36:0 37:0 38:0 39:0 40:0 41:0 42:0 43:0 44:0 
-1 0:1 1:0 2:0 3:0 4:0 5:0 6:0 7:1 8:0 9:0 10:0 11:3 12:0 13:3 14:0 15:0 16:0 17:1 18:0 19:0 20:0 21:0 22:0 23:0 24:0 25:0 26:0 27:0 28:0 29:0 30:0 31:0 32:0 33:0 34:0 35:0 36:0 37:0 38:0 39:0 40:0 41:0 42:0 43:0 44:0 
-1 0:0 1:0 2:0 3:0 4:0 5:0 6:0 7:0 8:0 9:0 10:0 11:0 12:0 13:0 14:0 15:0 16:0 17:0 18:0 19:0 20:0 21:0 22:0 23:0 24:4 25:0 26:0 27:0 28:0 29:0 30:0 31:0 32:0 33:0 34:1 35:0 36:2 37:0 38:0 39:0 40:0 41:0 42:0 43:0 44:0 
-1 0:0 1:0 2:0 3:0 4:0 5:0 6:0 7:0 8:0 9:0 10:0 11:0 12:0 13:0 14:0 15:0 16:0 17:0 18:0 19:0 20:0 21:0 22:0 23:0 24:4 25:0 26:0 27:0 28:0 29:0 30:0 31:0 32:0 33:0 34:0 35:0 36:0 37:0 38:0 39:0 40:0 41:0 42:0 43:0 44:0 
-1 0:0 1:0 2:0 3:0 4:0 5:0 6:1 7:0 8:0 9:0 10:0 11:0 12:0 13:0 14:0 15:0 16:0 17:0 18:0 19:2 20:0 21:0 22:0 23:1 24:0 25:0 26:1 27:0 28:0 29:0 30:0 31:0 32:0 33:0 34:0 35:0 36:5 37:0 38:0 39:0 40:0 41:0 42:0 43:0 44:2 
-0.67856685325034716 0:0 1:1 2:0 3:0 4:0 5:0 6:1 7:3 8:0 9:0 10:5 11:2 12:0 13:0 14:0 15:0 16:0 17:0 18:0 19:0 20:0 21:0 22:0 23:0 24:0 25:0 26:0 27:0 28:0 29:0 30:0 31:0 32:0 33:0 34:0 35:0 36:1 37:0 38:0 39:0 40:0 41:0 42:1 43:12 44:7 
-1 0:0 1:0 2:0 3:0 4:0 5:0 6:0 7:0 8:0 9:0 10:0 11:0 12:0 13:0 14:0 15:0 16:0 17:0 18:0 19:3 20:0 21:0 22:0 23:0 24:4 25:0 26:0 27:0 28:0 29:0 30:0 31:0 32:0 33:0 34:1 35:0 36:0 37:0 38:0 39:0 40:0 41:0 42:0 43:4 44:2 
-1 0:0 1:0 2:0 3:0 4:0 5:0 6:0 7:0 8:0 9:0 10:0 11:0 12:0 13:0 14:0 15:0 16:0 17:0 18:0 19:0 20:0 21:0 22:0 23:0 24:0 25:0 26:0 27:0 28:0 29:0 30:0 31:0 32:0 33:0 34:6 35:0 36:0 37:0 38:0 39:0 40:0 41:0 42:0 43:0 44:0 
-1 0:0 1:0 2:0 3:0 4:0 5:0 6:0 7:0 8:0 9:0 10:0 11:0 12:0 13:0 14:0 15:0 16:0 17:0 18:0 19:0 20:0 21:0 22:0 23:0 24:0 25:0 26:1 27:1 28:0 29:0 30:0 31:0 32:0 33:0 34:0 35:0 36:2 37:0 38:0 39:0 40:0 41:0 42:0 43:0 44:0 
-0.85587698500592024 0:0 1:0 2:0 3:0 4:0 5:0 6:0 7:0 8:0 9:0 10:0 11:0 12:0 13:0 14:3 15:0 16:1 17:2 18:0 19:2 20:0 21:0 22:0 23:0 24:0 25:0 26:0 27:0 28:0 29:0 30:0 31:0 32:1 33:0 34:0 35:0 36:0 37:0 38:0 39:0 40:0 41:0 42:0 43:1 44:0 
-1 0:0 1:0 2:0 3:0 4:0 5:0 6:0 7:0 8:0 9:0 10:0 11:0 12:0 13:0 14:0 15:0 16:0 17:0 18:0 19:0 20:0 21:0 22:0 23:0 24:0 25:0 26:2 27:0 28:0 29:0 30:0 31:0 32:0 33:0 34:0 35:0 36:0 37:0 38:0 39:0 40:0 41:0 42:0 43:0 44:0 
-1 0:1 1:0 2:0 3:0 4:0 5:0 6:0 7:2 8:0 9:0 10:1 11:0 12:0 13:5 14:0 15:0 16:0 17:1 18:0 19:0 20:0 21:0 22:0 23:0 24:0 25:0 26:0 27:0 28:0 29:0 30:0 31:0 32:0 33:0 34:1 35:0 36:0 37:0 38:0 39:0 40:0 41:0 42:0 43:2 44:0 
-1 0:0 1:0 2:0 3:0 4:1 5:0 6:0 7:0 8:0 9:0 10:0 11:0 12:0 13:0 14:0 15:0 16:0 17:0 18:0 19:0 20:0 21:0 22:0 23:0 24:0 25:0 26:0 27:0 28:0 29:0 30:0 31:0 32:0 33:0 34:6 35:0 36:0 37:0 38:0 39:0 40:0 41:0 42:0 43:0 44:0 
-1 0:0 1:0 2:0 3:0 4:0 5:1 6:0 7:0 8:0 9:0 10:0 11:8 12:0 13:0 14:0 15:0 16:0 17:0 18:0 19:0 20:0 21:0 22:0 23:0 24:0 25:0 26:0 27:0 28:0 29:0 30:0 31:0 32:0 33:0 34:0 35:0 36:5 37:0 38:0 39:0 40:0 41:0 42:0 43:0 44:0 
-1 0:0 1:0 2:0 3:0 4:0 5:0 6:0 7:0 8:0 9:0 10:0 11:0 12:0 13:0 14:0 15:0 16:0 17:0 18:2 19:0 20:0 21:4 22:0 23:0 24:0 25:0 26:0 27:0 28:0 29:0 30:0 31:0 32:0 33:0 34:0 35:0 36:0 37:0 38:0 39:0 40:0 41:0 42:0 43:0 44:0 
-0.42593149185293105 0:0 1:1 2:0 3:0 4:0 5:0 6:0 7:0 8:0 9:0 10:0 11:0 12:0 13:0 14:0 15:0 16:0 17:0 18:0 19:0 20:0 21:0 22:0 23:0 24:0 25:0 26:0 27:0 28:0 29:0 30:1 31:0 32:0 33:0 34:0 35:0 36:4 37:0 38:0 39:0 40:0 41:0 42:0 43:0 44:0 
-1 0:0 1:0 2:5 3:0 4:0 5:2 6:0 7:0 8:0 9:0 10:0 11:0 12:0 13:0 14:0 15:0 16:0 17:0 18:0 19:2 20:0 21:0 22:0 23:1 24:0 25:0 26:0 27:0 28:0 29:0 30:0 31:0 32:0 33:0 34:0 35:0 36:1 37:0 38:0 39:0 40:0 41:0 42:0 43:0 44:0 
-0.12103629742392365 0:1 1:0 2:0 3:0 4:0 5:0 6:0 7:1 8:0 9:0 10:0 11:0 12:0 13:0 14:0 15:0 16:0 17:0 18:0 19:0 20:0 21:0 22:0 23:0 24:0 25:0 26:0 27:0 28:0 29:0 30:0 31:0 32:0 33:0 34:0 35:0 36:0 37:8 38:0 39:0 40:0 41:0 42:1 43:1 44:4 
-0.075000208606407368 0:3 1:0 2:1 3:0 4:0 5:0 6:0 7:0 8:0 9:1 10:1 11:0 12:0 13:0 14:0 15:0 16:0 17:0 18:0 19:1 20:0 21:0 22:0 23:0 24:0 25:0 26:0 27:0 28:0 29:0 30:0 31:0 32:0 33:0 34:1 35:0 36:0 37:0 38:0 39:0 40:0 41:0 42:0 43:5 44:1 
-1 0:0 1:0 2:0 3:0 4:0 5:0 6:0 7:0 8:0 9:0 10:1 11:1 12:0 13:0 14:0 15:0 16:0 17:0 18:0 19:2 20:0 21:0 22:0 23:2 24:0 25:0 26:0 27:0 28:0 29:0 30:0 31:0 32:0 33:0 34:0 35:0 36:0 37:0 38:0 39:0 40:0 41:0 42:0 43:0 44:0 
-1 0:0 1:0 2:0 3:0 4:0 5:0 6:0 7:0 8:0 9:0 10:0 11:0 12:1 13:0 14:0 15:0 16:0 17:0 18:0 19:6 20:0 21:0 22:0 23:0 24:0 25:0 26:0 27:0 28:0 29:0 30:0 31:0 32:0 33:0 34:0 35:0 36:0 37:0 38:0 39:0 40:0 41:0 42:0 43:0 44:2 
-0.69456688960593238 0:1 1:0 2:0 3:0 4:0 5:0 6:0 7:0 8:0 9:0 10:0 11:0 12:0 13:0 14:0 15:0 16:0 17:0 18:0 19:1 20:0 21:0 22:0 23:0 24:0 25:0 26:0 27:0 28:0 29:0 30:0 31:0 32:0 33:0 34:1 35:1 36:0 37:0 38:0 39:0 40:0 41:0 42:0 43:11 44:0 
-1 0:0 1:0 2:1 3:0 4:0 5:0 6:0 7:1 8:0 9:0 10:0 11:0 12:0 13:0 14:0 15:0 16:0 17:0 18:0 19:5 20:0 21:0 22:0 23:0 24:0 25:0 26:0 27:0 28:0 29:0 30:0 31:0 32:0 33:0 34:1 35:0 36:0 37:0 38:0 39:0 40:0 41:0 42:0 43:0 44:0 
-0.048613237073591262 0:2 1:0 2:1 3:0 4:0 5:0 6:0 7:1 8:0 9:0 10:0 11:0 12:0 13:0 14:0 15:0 16:0 17:0 18:0 19:0 20:0 21:0 22:0 23:0 24:0 25:0 26:0 27:0 28:0 29:0 30:0 31:0 32:0 33:0 34:0 35:0 36:1 37:0 38:0 39:0 40:0 41:0 42:0 43:0 44:0 
-1 0:0 1:1 2:0 3:0 4:0 5:0 6:0 7:0 8:0 9:0 10:0 11:0 12:0 13:0 14:0 15:0 16:0 17:0 18:0 19:2 20:2 21:0 22:0 23:0 24:0 25:0 26:0 27:0 28:0 29:0 30:0 31:0 32:1 33:0 34:0 35:0 36:1 37:0 38:0 39:0 40:0 41:0 42:0 43:0 44:1 
-1 0:0 1:0 2:0 3:0 4:0 5:0 6:0 7:7 8:0 9:0 10:0 11:0 12:0 13:0 14:0 15:0 16:0 17:1 18:0 19:1 20:0 21:0 22:0 23:0 24:0 25:0 26:1 27:0 28:0 29:0 30:0 31:0 32:0 33:0 34:0 35:0 36:0 37:0 38:0 39:0 40:0 41:0 42:0 43:0 44:0 
-1 0:0 1:0 2:0 3:0 4:0 5:0 6:0 7:0 8:0 9:0 10:0 11:1 12:0 13:0 14:0 15:0 16:3 17:1 18:0 19:3 20:1 21:0 22:0 23:0 24:0 25:0 26:0 27:0 28:0 29:0 30:0 31:0 32:0 33:0 34:0 35:0 36:0 37:0 38:0 39:0 40:0 41:0 42:0 43:0 44:0 
-1 0:0 1:0 2:1 3:0 4:0 5:0 6:0 7:1 8:0 9:0 10:0 11:0 12:0 13:0 14:0 15:0 16:0 17:0 18:0 19:5 20:0 21:0 22:0 23:0 24:0 25:0 26:0 27:0 28:0 29:0 30:0 31:0 32:0 33:0 34:1 35:0 36:0 37:0 38:0 39:0 40:0 41:0 42:0 43:0 44:0 
-1 0:0 1:0 2:1 3:0 4:1 5:0 6:0 7:0 8:0 9:0 10:3 11:1 12:0 13:0 14:0 15:0 16:0 17:0 18:0 19:0 20:5 21:0 22:0 23:0 24:0 25:0 26:0 27:0 28:0 29:0 30:0 31:0 32:0 33:0 34:0 35:0 36:2 37:0 38:0 39:0 40:0 41:0 42:0 43:0 44:0 
-1 0:0 1:0 2:0 3:0 4:0 5:0 6:0 7:0 8:0 9:0 10:0 11:0 12:0 13:0 14:0 15:0 16:0 17:0 18:0 19:0 20:0 21:0 22:0 23:0 24:0 25:0 26:2 27:0 28:0 29:0 30:0 31:0 32:0 33:0 34:0 35:0 36:1 37:0 38:0 39:0 40:0 41:0 42:0 43:0 44:0 
-1 0:0 1:0 2:0 3:0 4:1 5:0 6:0 7:1 8:0 9:0 10:0 11:0 12:0 13:0 14:0 15:0 16:0 17:0 18:0 19:2 20:0 21:0 22:0 23:0 24:0 25:0 26:0 27:0 28:0 29:0 30:0 31:0 32:6 33:0 34:0 35:0 36:1 37:0 38:0 39:0 40:0 41:0 42:0 43:0 44:0 
-1 0:0 1:1 2:0 3:0 4:0 5:0 6:0 7:1 8:0 9:0 10:0 11:2 12:0 13:0 14:0 15:0 16:0 17:0 18:0 19:1 20:1 21:0 22:0 23:0 24:0 25:0 26:0 27:0 28:0 29:0 30:0 31:0 32:0 33:0 34:4 35:0 36:0 37:1 38:0 39:0 40:0 41:0 42:0 43:0 44:0 
-1 0:0 1:0 2:0 3:0 4:0 5:1 6:0 7:1 8:0 9:0 10:0 11:0 12:0 13:0 14:0 15:0 16:0 17:0 18:0 19:0 20:0 21:0 22:0 23:0 24:0 25:0 26:1 27:0 28:0 29:0 30:0 31:0 32:0 33:0 34:0 35:1 36:0 37:0 38:0 39:0 40:0 41:0 42:0 43:0 44:0 
-1 0:0 1:0 2:0 3:0 4:1 5:0 6:0 7:0 8:0 9:0 10:0 11:0 12:0 13:4 14:0 15:0 16:0 17:0 18:0 19:0 20:0 21:0 22:0 23:0 24:0 25:0 26:0 27:0 28:0 29:0 30:0 31:0 32:0 33:0 34:0 35:0 36:1 37:0 38:0 39:0 40:0 41:0 42:0 43:0 44:0 
-1 0:0 1:0 2:1 3:0 4:0 5:0 6:0 7:0 8:0 9:0 10:0 11:0 12:0 13:1 14:0 15:0 16:0 17:0 18:0 19:5 20:0 21:0 22:0 23:0 24:0 25:0 26:0 27:0 28:0 29:0 30:0 31:0 32:0 33:0 34:1 35:0 36:0 37:0 38:0 39:0 40:0 41:0 42:0 43:0 44:0 
-1 0:1 1:0 2:0 3:0 4:0 5:0 6:0 7:0 8:0 9:0 10:0 11:0 12:0 13:0 14:0 15:0 16:0 17:0 18:0 19:0 20:0 21:0 22:0 23:0 24:2 25:0 26:1 27:0 28:0 29:0 30:0 31:0 32:0 33:0 34:0 35:0 36:0 37:0 38:0 39:0 40:0 41:0 42:0 43:0 44:0 
-1 0:1 1:0 2:0 3:0 4:0 5:0 6:0 7:0 8:0 9:0 10:1 11:0 12:0 13:0 14:0 15:0 16:0 17:0 18:0 19:0 20:0 21:0 22:0 23:0 24:0 25:0 26:1 27:0 28:0 29:0 30:0 31:0 32:0 33:0 34:0 35:0 36:0 37:0 38:0 39:0 40:0 41:0 42:0 43:0 44:0 
-1 0:0 1:0 2:0 3:0 4:0 5:1 6:0 7:0 8:0 9:0 10:0 11:8 12:0 13:0 14:0 15:0 16:0 17:1 18:0 19:0 20:0 21:0 22:0 23:0 24:0 25:0 26:1 27:0 28:0 29:0 30:0 31:0 32:0 33:0 34:0 35:0 36:0 37:0 38:0 39:0 40:0 41:0 42:0 43:0 44:0 
-1 0:1 1:0 2:1 3:0 4:0 5:0 6:0 7:0 8:2 9:0 10:0 11:1 12:0 13:0 14:0 15:0 16:0 17:0 18:0 19:0 20:0 21:0 22:0 23:0 24:0 25:0 26:0 27:1 28:0 29:0 30:0 31:0 32:0 33:0 34:0 35:0 36:0 37:0 38:0 39:0 40:0 41:0 42:0 43:0 44:0 
-0.34540431734658511 0:0 1:0 2:0 3:0 4:0 5:0 6:0 7:0 8:0 9:3 10:0 11:1 12:0 13:1 14:0 15:0 16:0 17:0 18:0 19:0 20:0 21:0 22:0 23:0 24:0 25:0 26:0 27:0 28:0 29:0 30:0 31:0 32:0 33:0 34:0 35:0 36:0 37:0 38:0 39:0 40:0 41:0 42:0 43:0 44:1 
-1 0:0 1:0 2:0 3:0 4:1 5:0 6:0 7:0 8:0 9:0 10:0 11:0 12:0 13:4 14:0 15:0 16:0 17:0 18:0 19:0 20:0 21:0 22:0 23:0 24:0 25:0 26:0 27:0 28:0 29:0 30:0 31:0 32:0 33:0 34:0 35:0 36:1 37:0 38:0 39:0 40:0 41:0 42:0 43:0 44:0 
-1 0:1 1:1 2:0 3:0 4:0 5:0 6:0 7:0 8:0 9:0 10:0 11:0 12:0 13:0 14:0 15:0 16:0 17:0 18:0 19:2 20:0 21:0 22:0 23:0 24:0 25:0 26:0 27:0 28:0 29:0 30:1 31:0 32:0 33:0 34:0 35:0 36:0 37:0 38:0 39:0 40:0 41:0 42:0 43:0 44:0 
-1 0:1 1:1 2:0 3:0 4:0 5:0 6:0 7:0 8:0 9:0 10:0 11:0 12:0 13:0 14:0 15:0 16:0 17:0 18:0 19:2 20:0 21:0 22:0 23:0 24:0 25:0 26:0 27:0 28:0 29:0 30:1 31:0 32:0 33:0 34:0 35:0 36:0 37:0 38:0 39:0 40:0 41:0 42:0 43:0 44:0 
-1 0:2 1:0 2:1 3:0 4:0 5:0 6:0 7:1 8:0 9:0 10:0 11:0 12:0 13:0 14:0 15:0 16:0 17:0 18:0 19:5 20:0 21:0 22:0 23:0 24:0 25:0 26:0 27:0 28:0 29:0 30:0 31:0 32:0 33:0 34:1 35:0 36:0 37:0 38:0 39:0 40:0 41:0 42:0 43:1 44:0 
-0.70206780451533246 0:0 1:0 2:0 3:0 4:0 5:0 6:0 7:1 8:0 9:0 10:0 11:0 12:0 13:0 14:0 15:0 16:0 17:0 18:0 19:0 20:0 21:0 22:0 23:0 24:0 25:0 26:0 27:0 28:0 29:0 30:0 31:0 32:0 33:0 34:0 35:0 36:0 37:0 38:0 39:0 40:0 41:0 42:2 43:15 44:9 
-1 0:0 1:0 2:0 3:0 4:0 5:0 6:0 7:2 8:0 9:0 10:0 11:0 12:0 13:0 14:0 15:0 16:0 17:1 18:0 19:1 20:0 21:0 22:0 23:0 24:0 25:0 26:0 27:0 28:0 29:0 30:0 31:0 32:0 33:0 34:0 35:0 36:0 37:0 38:0 39:0 40:0 41:0 42:0 43:0 44:0 
-1 0:0 1:0 2:0 3:0 4:0 5:0 6:0 7:1 8:0 9:0 10:0 11:0 12:0 13:0 14:0 15:0 16:0 17:0 18:0 19:3 20:0 21:0 22:0 23:0 24:0 25:0 26:0 27:0 28:0 29:0 30:0 31:0 32:0 33:0 34:0 35:0 36:0 37:0 38:0 39:0 40:0 41:0 42:0 43:0 44:0 
-1 0:0 1:1 2:0 3:0 4:0 5:0 6:0 7:0 8:0 9:0 10:0 11:0 12:0 13:1 14:0 15:0 16:0 17:0 18:0 19:2 20:0 21:0 22:0 23:0 24:0 25:0 26:0 27:0 28:0 29:1 30:0 31:0 32:0 33:0 34:0 35:0 36:0 37:0 38:0 39:0 40:0 41:0 42:0 43:0 44:0 
-1 0:0 1:0 2:0 3:0 4:0 5:0 6:0 7:0 8:0 9:0 10:0 11:2 12:0 13:0 14:0 15:0 16:0 17:0 18:0 19:3 20:0 21:0 22:0 23:0 24:0 25:0 26:2 27:0 28:0 29:0 30:0 31:0 32:0 33:0 34:0 35:0 36:0 37:0 38:0 39:0 40:0 41:0 42:0 43:0 44:0 
-1 0:0 1:0 2:0 3:0 4:0 5:0 6:0 7:1 8:1 9:0 10:0 11:0 12:0 13:0 14:0 15:0 16:0 17:0 18:0 19:1 20:0 21:0 22:0 23:0 24:0 25:0 26:1 27:0 28:0 29:0 30:0 31:0 32:0 33:0 34:0 35:0 36:0 37:0 38:0 39:0 40:0 41:0 42:0 43:0 44:0 
-0.32276065766473899 0:0 1:0 2:0 3:0 4:0 5:0 6:0 7:0 8:0 9:0 10:0 11:1 12:0 13:0 14:0 15:0 16:0 17:1 18:0 19:1 20:0 21:0 22:0 23:0 24:0 25:0 26:0 27:0 28:0 29:0 30:0 31:0 32:7 33:0 34:0 35:0 36:0 37:0 38:0 39:0 40:0 41:0 42:0 43:0 44:0 
-1 0:0 1:0 2:0 3:0 4:0 5:0 6:0 7:1 8:0 9:0 10:0 11:0 12:0 13:0 14:0 15:0 16:0 17:0 18:0 19:1 20:0 21:0 22:0 23:0 24:0 25:0 26:1 27:0 28:0 29:0 30:0 31:0 32:0 33:0 34:0 35:0 36:0 37:0 38:0 39:0 40:0 41:0 42:0 43:0 44:0 
-1 0:1 1:0 2:0 3:0 4:0 5:0 6:0 7:0 8:0 9:0 10:0 11:0 12:0 13:0 14:0 15:0 16:0 17:0 18:0 19:1 20:0 21:0 22:0 23:0 24:0 25:2 26:3 27:0 28:0 29:0 30:0 31:0 32:0 33:0 34:0 35:0 36:0 37:0 38:0 39:0 40:0 41:0 42:0 43:0 44:0 
-1 0:0 1:0 2:0 3:0 4:0 5:0 6:0 7:0 8:0 9:0 10:0 11:0 12:0 13:1 14:0 15:0 16:0 17:0 18:0 19:7 20:0 21:0 22:0 23:0 24:0 25:0 26:0 27:0 28:0 29:1 30:0 31:0 32:0 33:0 34:0 35:0 36:0 37:0 38:0 39:0 40:0 41:0 42:0 43:0 44:0 
-1 0:1 1:0 2:0 3:0 4:0 5:1 6:0 7:1 8:0 9:0 10:0 11:0 12:0 13:0 14:0 15:0 16:0 17:1 18:0 19:1 20:0 21:0 22:0 23:0 24:0 25:0 26:0 27:0 28:0 29:0 30:0 31:0 32:0 33:0 34:0 35:0 36:0 37:0 38:0 39:0 40:0 41:0 42:0 43:0 44:0 
-1 0:0 1:0 2:0 3:0 4:0 5:0 6:0 7:0 8:0 9:0 10:0 11:0 12:0 13:0 14:0 15:0 16:0 17:0 18:0 19:3 20:0 21:0 22:0 23:0 24:0 25:0 26:0 27:0 28:0 29:0 30:0 31:0 32:0 33:0 34:0 35:0 36:0 37:0 38:0 39:0 40:0 41:0 42:0 43:0 44:0 
-1 0:0 1:0 2:0 3:0 4:0 5:0 6:0 7:1 8:1 9:0 10:0 11:0 12:0 13:0 14:0 15:0 16:3 17:0 18:0 19:5 20:0 21:0 22:0 23:0 24:0 25:0 26:0 27:0 28:0 29:0 30:0 31:0 32:0 33:0 34:0 35:0 36:0 37:0 38:0 39:0 40:0 41:0 42:0 43:0 44:0 
-1 0:0 1:0 2:0 3:0 4:0 5:0 6:0 7:0 8:0 9:0 10:0 11:0 12:0 13:0 14:0 15:0 16:0 17:0 18:0 19:1 20:0 21:0 22:0 23:0 24:1 25:0 26:0 27:0 28:0 29:0 30:0 31:0 32:0 33:0 34:0 35:2 36:0 37:0 38:0 39:0 40:0 41:0 42:0 43:0 44:0 
-1 0:3 1:0 2:0 3:0 4:0 5:0 6:0 7:0 8:0 9:1 10:6 11:0 12:0 13:0 14:0 15:0 16:0 17:3 18:0 19:1 20:0 21:0 22:0 23:0 24:0 25:0 26:0 27:0 28:0 29:0 30:0 31:0 32:0 33:0 34:0 35:0 36:0 37:0 38:0 39:0 40:0 41:0 42:0 43:0 44:2 
-0.26418016240173253 0:1 1:0 2:0 3:0 4:0 5:0 6:0 7:0 8:0 9:2 10:1 11:0 12:0 13:0 14:0 15:0 16:0 17:0 18:0 19:0 20:0 21:0 22:0 23:0 24:0 25:0 26:0 27:0 28:0 29:0 30:0 31:0 32:0 33:0 34:0 35:0 36:0 37:0 38:0 39:0 40:0 41:0 42:0 43:15 44:4 
-0.88110420188467753 0:0 1:0 2:0 3:0 4:0 5:0 6:0 7:1 8:0 9:0 10:1 11:2 12:0 13:0 14:0 15:0 16:0 17:0 18:0 19:0 20:0 21:1 22:0 23:0 24:0 25:0 26:0 27:0 28:0 29:0 30:0 31:0 32:5 33:0 34:0 35:0 36:2 37:0 38:0 39:0 40:0 41:0 42:0 43:0 44:0 
-0.79187598851383179 0:0 1:0 2:0 3:0 4:0 5:0 6:0 7:0 8:0 9:0 10:2 11:0 12:0 13:0 14:0 15:0 16:0 17:0 18:0 19:0 20:0 21:0 22:0 23:0 24:0 25:0 26:0 27:0 28:0 29:0 30:0 31:0 32:0 33:0 34:0 35:0 36:9 37:0 38:0 39:0 40:0 41:0 42:0 43:0 44:0 
-1 0:1 1:2 2:0 3:0 4:0 5:0 6:0 7:0 8:0 9:0 10:0 11:0 12:0 13:0 14:0 15:0 16:0 17:0 18:0 19:0 20:0 21:0 22:0 23:0 24:0 25:0 26:0 27:2 28:0 29:0 30:0 31:0 32:0 33:0 34:0 35:0 36:0 37:0 38:0 39:0 40:0 41:0 42:0 43:0 44:0 
-1 0:0 1:0 2:0 3:1 4:0 5:0 6:0 7:1 8:0 9:0 10:2 11:0 12:0 13:0 14:0 15:0 16:0 17:0 18:0 19:0 20:1 21:0 22:0 23:0 24:0 25:0 26:0 27:0 28:0 29:0 30:0 31:0 32:0 33:0 34:0 35:0 36:9 37:0 38:0 39:0 40:0 41:0 42:0 43:0 44:1 
-1 0:1 1:1 2:0 3:1 4:0 5:0 6:0 7:1 8:0 9:0 10:2 11:0 12:0 13:0 14:0 15:0 16:0 17:1 18:0 19:0 20:0 21:0 22:0 23:0 24:0 25:0 26:0 27:0 28:0 29:0 30:0 31:0 32:2 33:0 34:0 35:0 36:0 37:0 38:0 39:0 40:0 41:0 42:0 43:0 44:0 
-1 0:3 1:0 2:0 3:0 4:0 5:0 6:0 7:0 8:0 9:0 10:0 11:0 12:0 13:0 14:0 15:0 16:0 17:2 18:0 19:0 20:0 21:0 22:0 23:0 24:0 25:0 26:0 27:0 28:0 29:0 30:0 31:0 32:0 33:0 34:0 35:0 36:0 37:0 38:0 39:0 40:0 41:0 42:0 43:0 44:0 
-1 0:0 1:0 2:0 3:0 4:0 5:0 6:0 7:0 8:0 9:0 10:0 11:0 12:0 13:0 14:0 15:0 16:0 17:0 18:0 19:4 20:0 21:0 22:0 23:2 24:0 25:0 26:0 27:0 28:0 29:0 30:0 31:0 32:0 33:0 34:0 35:0 36:0 37:0 38:0 39:0 40:0 41:0 42:0 43:0 44:0 
-0.64447047365930399 0:1 1:0 2:1 3:0 4:0 5:0 6:0 7:0 8:0 9:0 10:1 11:0 12:0 13:0 14:0 15:0 16:0 17:0 18:0 19:0 20:0 21:0 22:0 23:0 24:0 25:0 26:0 27:0 28:0 29:0 30:0 31:0 32:0 33:0 34:0 35:0 36:0 37:0 38:0 39:0 40:0 41:0 42:0 43:0 44:19 
-0.35818947079273272 0:0 1:0 2:3 3:0 4:0 5:0 6:0 7:1 8:0 9:0 10:0 11:1 12:0 13:0 14:0 15:0 16:0 17:0 18:0 19:0 20:0 21:0 22:0 23:0 24:2 25:0 26:0 27:0 28:0 29:0 30:0 31:0 32:0 33:0 34:0 35:0 36:0 37:0 38:0 39:0 40:0 41:0 42:0 43:0 44:0 
-1 0:0 1:0 2:0 3:0 4:0 5:0 6:0 7:0 8:0 9:0 10:0 11:0 12:0 13:0 14:0 15:0 16:0 17:5 18:0 19:0 20:0 21:0 22:0 23:0 24:0 25:0 26:2 27:0 28:0 29:0 30:0 31:0 32:0 33:0 34:0 35:0 36:0 37:0 38:0 39:0 40:0 41:0 42:0 43:0 44:0 
-0.60594839307689696 0:0 1:2 2:1 3:0 4:0 5:0 6:0 7:0 8:0 9:0 10:2 11:0 12:0 13:0 14:0 15:0 16:0 17:0 18:0 19:0 20:0 21:0 22:0 23:0 24:0 25:0 26:4 27:0 28:0 29:0 30:0 31:0 32:0 33:0 34:0 35:0 36:0 37:0 38:0 39:0 40:0 41:0 42:0 43:0 44:16 
-1 0:5 1:0 2:0 3:0 4:0 5:0 6:0 7:1 8:0 9:0 10:0 11:1 12:0 13:0 14:0 15:0 16:0 17:1 18:0 19:0 20:0 21:0 22:0 23:0 24:0 25:0 26:0 27:0 28:0 29:0 30:0 31:0 32:0 33:0 34:1 35:0 36:1 37:0 38:0 39:0 40:0 41:0 42:0 43:0 44:0 
-1 0:0 1:0 2:0 3:0 4:0 5:1 6:0 7:5 8:2 9:0 10:0 11:0 12:0 13:0 14:0 15:0 16:0 17:0 18:0 19:1 20:0 21:0 22:0 23:1 24:0 25:0 26:0 27:0 28:0 29:0 30:0 31:0 32:0 33:0 34:0 35:0 36:0 37:0 38:0 39:0 40:0 41:0 42:0 43:0 44:1 
-1 0:3 1:0 2:0 3:0 4:0 5:0 6:0 7:0 8:0 9:0 10:0 11:0 12:0 13:0 14:0 15:0 16:0 17:0 18:0 19:0 20:3 21:0 22:0 23:0 24:0 25:0 26:0 27:0 28:0 29:0 30:0 31:0 32:0 33:0 34:0 35:0 36:0 37:0 38:0 39:0 40:0 41:0 42:0 43:0 44:0 
-1 0:0 1:3 2:0 3:0 4:0 5:0 6:0 7:2 8:0 9:0 10:0 11:0 12:0 13:0 14:0 15:0 16:0 17:0 18:0 19:0 20:0 21:0 22:0 23:0 24:0 25:0 26:0 27:0 28:0 29:0 30:0 31:0 32:0 33:0 34:0 35:0 36:0 37:0 38:0 39:0 40:0 41:0 42:0 43:0 44:0 
-1 0:1 1:0 2:3 3:0 4:0 5:0 6:0 7:0 8:0 9:0 10:2 11:0 12:0 13:0 14:0 15:0 16:0 17:0 18:0 19:0 20:0 21:0 22:0 23:0 24:0 25:0 26:0 27:0 28:0 29:0 30:0 31:0 32:0 33:0 34:0 35:0 36:2 37:0 38:0 39:0 40:0 41:0 42:0 43:0 44:0 
-1 0:0 1:0 2:0 3:0 4:0 5:0 6:0 7:3 8:0 9:0 10:0 11:0 12:0 13:0 14:5 15:0 16:0 17:0 18:0 19:0 20:0 21:0 22:0 23:0 24:0 25:0 26:1 27:0 28:0 29:0 30:0 31:0 32:0 33:0 34:0 35:0 36:2 37:0 38:0 39:0 40:0 41:0 42:0 43:0 44:0 
-1 0:0 1:0 2:2 3:0 4:0 5:1 6:0 7:4 8:0 9:0 10:0 11:1 12:0 13:0 14:0 15:0 16:0 17:0 18:0 19:0 20:0 21:0 22:0 23:0 24:0 25:0 26:0 27:0 28:0 29:0 30:0 31:0 32:0 33:0 34:0 35:0 36:2 37:0 38:0 39:0 40:0 41:0 42:0 43:0 44:0 
-1 0:0 1:0 2:1 3:0 4:0 5:0 6:0 7:0 8:0 9:0 10:0 11:0 12:0 13:0 14:0 15:0 16:0 17:1 18:0 19:0 20:0 21:0 22:0 23:3 24:0 25:0 26:0 27:0 28:0 29:0 30:0 31:0 32:0 33:0 34:2 35:0 36:4 37:0 38:0 39:0 40:0 41:0 42:0 43:0 44:0 
-0.12318686015604868 0:0 1:0 2:1 3:0 4:0 5:0 6:0 7:0 8:0 9:0 10:3 11:0 12:0 13:1 14:0 15:0 16:0 17:0 18:0 19:0 20:0 21:0 22:0 23:0 24:0 25:0 26:0 27:0 28:0 29:0 30:0 31:0 32:0 33:0 34:0 35:0 36:2 37:0 38:0 39:0 40:0 41:0 42:0 43:0 44:0 
-1 0:0 1:0 2:0 3:0 4:0 5:1 6:0 7:0 8:0 9:0 10:0 11:0 12:0 13:2 14:0 15:0 16:0 17:0 18:0 19:0 20:0 21:0 22:0 23:0 24:0 25:0 26:2 27:0 28:0 29:0 30:0 31:0 32:0 33:0 34:0 35:0 36:2 37:0 38:0 39:0 40:0 41:0 42:0 43:0 44:0 
-1 0:0 1:0 2:0 3:0 4:0 5:0 6:0 7:1 8:0 9:0 10:0 11:0 12:0 13:0 14:0 15:0 16:0 17:0 18:0 19:0 20:0 21:0 22:0 23:0 24:3 25:0 26:0 27:0 28:0 29:0 30:0 31:0 32:4 33:0 34:0 35:0 36:0 37:0 38:0 39:0 40:0 41:0 42:0 43:0 44:0 
-1 0:0 1:0 2:0 3:0 4:0 5:0 6:0 7:1 8:0 9:0 10:0 11:0 12:0 13:0 14:0 15:0 16:2 17:0 18:0 19:5 20:0 21:0 22:0 23:0 24:0 25:0 26:0 27:0 28:0 29:0 30:0 31:0 32:0 33:0 34:0 35:3 36:0 37:0 38:0 39:0 40:0 41:0 42:0 43:0 44:0 
-1 0:0 1:0 2:0 3:0 4:0 5:0 6:0 7:1 8:0 9:0 10:0 11:0 12:0 13:0 14:0 15:0 16:0 17:0 18:0 19:0 20:0 21:0 22:0 23:0 24:0 25:1 26:3 27:0 28:0 29:0 30:0 31:0 32:0 33:0 34:0 35:0 36:0 37:0 38:0 39:0 40:0 41:0 42:0 43:0 44:0 
-1 0:0 1:0 2:0 3:0 4:0 5:0 6:0 7:1 8:0 9:0 10:1 11:0 12:0 13:0 14:0 15:0 16:5 17:0 18:0 19:1 20:0 21:0 22:0 23:0 24:0 25:0 26:0 27:0 28:0 29:0 30:0 31:0 32:0 33:0 34:0 35:0 36:0 37:0 38:0 39:0 40:0 41:0 42:0 43:0 44:0 
-1 0:0 1:0 2:0 3:0 4:0 5:0 6:0 7:0 8:0 9:0 10:0 11:0 12:0 13:0 14:0 15:0 16:0 17:0 18:0 19:2 20:0 21:0 22:0 23:0 24:0 25:0 26:0 27:0 28:2 29:0 30:0 31:0 32:0 33:0 34:0 35:0 36:0 37:0 38:0 39:0 40:0 41:0 42:0 43:0 44:0 
-1 0:0 1:0 2:1 3:0 4:0 5:0 6:0 7:1 8:0 9:0 10:0 11:0 12:0 13:0 14:0 15:0 16:0 17:0 18:0 19:3 20:0 21:0 22:0 23:0 24:0 25:0 26:0 27:0 28:0 29:0 30:0 31:0 32:0 33:0 34:0 35:0 36:0 37:0 38:0 39:0 40:0 41:0 42:0 43:0 44:0 
-1 0:0 1:0 2:0 3:0 4:0 5:0 6:0 7:1 8:0 9:0 10:0 11:0 12:0 13:0 14:0 15:0 16:2 17:0 18:0 19:1 20:0 21:0 22:0 23:0 24:0 25:0 26:0 27:0 28:0 29:0 30:3 31:0 32:0 33:0 34:0 35:0 36:0 37:0 38:0 39:0 40:0 41:0 42:0 43:0 44:0 
-0.96072209728023206 0:0 1:0 2:0 3:0 4:0 5:0 6:0 7:3 8:0 9:0 10:0 11:0 12:0 13:0 14:0 15:0 16:5 17:0 18:0 19:0 20:0 21:0 22:0 23:0 24:0 25:0 26:0 27:0 28:0 29:0 30:0 31:0 32:0 33:0 34:0 35:0 36:0 37:0 38:0 39:0 40:0 41:0 42:0 43:0 44:0 
-1 0:0 1:0 2:0 3:0 4:0 5:0 6:0 7:1 8:0 9:0 10:0 11:0 12:0 13:0 14:0 15:0 16:4 17:0 18:3 19:0 20:0 21:0 22:0 23:0 24:0 25:0 26:0 27:0 28:0 29:0 30:0 31:0 32:0 33:0 34:0 35:0 36:0 37:0 38:0 39:0 40:0 41:0 42:0 43:0 44:0 
-0.39214639790319994 0:2 1:1 2:0 3:0 4:0 5:0 6:0 7:0 8:0 9:0 10:0 11:0 12:0 13:0 14:0 15:0 16:0 17:0 18:0 19:0 20:0 21:0 22:0 23:0 24:0 25:0 26:0 27:0 28:0 29:0 30:0 31:0 32:0 33:0 34:0 35:0 36:0 37:1 38:0 39:0 40:0 41:0 42:4 43:1 44:19 
-1 0:1 1:0 2:0 3:0 4:0 5:0 6:0 7:0 8:0 9:0 10:0 11:0 12:0 13:0 14:0 15:0 16:0 17:0 18:0 19:1 20:0 21:0 22:0 23:0 24:0 25:0 26:0 27:0 28:0 29:0 30:0 31:0 32:0 33:0 34:0 35:0 36:3 37:0 38:0 39:0 40:0 41:0 42:0 43:0 44:0 
-1 0:0 1:3 2:0 3:0 4:0 5:1 6:1 7:0 8:0 9:0 10:0 11:0 12:0 13:0 14:0 15:0 16:0 17:1 18:0 19:2 20:0 21:0 22:0 23:2 24:0 25:0 26:1 27:0 28:0 29:0 30:0 31:0 32:0 33:0 34:0 35:0 36:0 37:2 38:0 39:0 40:0 41:0 42:0 43:0 44:20 
-0.45054701970452044 0:0 1:1 2:0 3:0 4:0 5:0 6:0 7:0 8:0 9:0 10:0 11:1 12:0 13:0 14:0 15:0 16:0 17:0 18:0 19:0 20:0 21:0 22:0 23:0 24:0 25:0 26:1 27:0 28:0 29:0 30:0 31:0 32:0 33:0 34:2 35:0 36:0 37:0 38:0 39:0 40:0 41:0 42:0 43:0 44:0 
-1 0:0 1:1 2:0 3:0 4:0 5:0 6:0 7:0 8:0 9:0 10:0 11:1 12:0 13:1 14:0 15:0 16:0 17:0 18:0 19:0 20:0 21:0 22:0 23:0 24:0 25:0 26:0 27:0 28:0 29:0 30:0 31:0 32:0 33:0 34:2 35:0 36:1 37:7 38:0 39:0 40:0 41:0 42:0 43:0 44:2 
-0.34123175913458403 0:0 1:0 2:0 3:0 4:0 5:0 6:0 7:0 8:0 9:0 10:0 11:0 12:0 13:0 14:0 15:0 16:0 17:1 18:0 19:0 20:0 21:0 22:0 23:0 24:0 25:0 26:0 27:0 28:0 29:0 30:0 31:0 32:0 33:0 34:7 35:0 36:0 37:1 38:0 39:0 40:0 41:0 42:0 43:0 44:9 
-1 0:1 1:2 2:0 3:0 4:0 5:0 6:0 7:0 8:1 9:0 10:0 11:0 12:0 13:1 14:0 15:0 16:0 17:0 18:0 19:0 20:0 21:0 22:0 23:0 24:0 25:0 26:0 27:0 28:0 29:0 30:0 31:0 32:0 33:0 34:1 35:0 36:0 37:2 38:0 39:0 40:0 41:0 42:8 43:6 44:19 
-1 0:0 1:0 2:0 3:0 4:0 5:0 6:0 7:0 8:0 9:0 10:0 11:0 12:0 13:0 14:0 15:0 16:0 17:0 18:0 19:0 20:4 21:0 22:0 23:0 24:2 25:0 26:0 27:0 28:0 29:0 30:0 31:0 32:0 33:0 34:2 35:0 36:0 37:0 38:0 39:0 40:0 41:0 42:0 43:0 44:0 
-1 0:2 1:0 2:0 3:0 4:0 5:0 6:0 7:0 8:0 9:0 10:0 11:0 12:0 13:0 14:0 15:0 16:0 17:0 18:0 19:0 20:0 21:0 22:0 23:0 24:0 25:0 26:5 27:0 28:0 29:0 30:0 31:0 32:0 33:0 34:0 35:0 36:0 37:0 38:0 39:0 40:0 41:0 42:0 43:0 44:0 
-0.68964874415584021 0:0 1:0 2:0 3:0 4:0 5:0 6:0 7:1 8:0 9:0 10:0 11:0 12:0 13:3 14:0 15:0 16:0 17:0 18:0 19:0 20:0 21:0 22:0 23:0 24:0 25:0 26:0 27:0 28:0 29:0 30:0 31:0 32:0 33:0 34:0 35:0 36:0 37:0 38:0 39:0 40:0 41:0 42:0 43:0 44:0 
-1 0:0 1:1 2:0 3:0 4:0 5:0 6:0 7:0 8:0 9:0 10:0 11:0 12:0 13:0 14:0 15:0 16:0 17:0 18:0 19:0 20:0 21:0 22:0 23:0 24:2 25:0 26:1 27:0 28:0 29:0 30:0 31:0 32:0 33:0 34:0 35:0 36:0 37:0 38:0 39:0 40:0 41:0 42:0 43:0 44:0 
