svm_type c_svc
kernel_type rbf
gamma 0.01
nr_class 2
total_sv 276
rho -0.89860313619897281
label 0 1
nr_sv 171 105
SV
0.10085696829993168 0:7 1:0 2:0 3:7 4:6 5:0 6:0 7:0 8:0 9:0 10:2 11:8 12:2 13:1 14:1 15:0 16:7 17:0 18:3 19:38 20:3 21:1 22:1 23:1 24:4 25:63 26:36 27:0 28:4 29:3 30:15 31:1 32:1 33:0 34:3 35:2 36:0 37:0 38:1 39:1 40:0 41:0 42:0 43:0 44:0 
0.062519589729838093 0:8 1:2 2:1 3:0 4:1 5:0 6:1 7:4 8:0 9:0 10:0 11:8 12:0 13:0 14:0 15:0 16:0 17:0 18:0 19:0 20:0 21:2 22:0 23:1 24:2 25:9 26:6 27:10 28:2 29:0 30:0 31:0 32:13 33:0 34:2 35:0 36:2 37:2 38:0 39:0 40:0 41:0 42:0 43:2 44:0 
0.087286663084754537 0:3 1:0 2:0 3:0 4:0 5:0 6:0 7:0 8:2 9:0 10:1 11:3 12:0 13:1 14:0 15:0 16:3 17:1 18:0 19:18 20:0 21:0 22:0 23:1 24:1 25:11 26:7 27:0 28:0 29:13 30:0 31:0 32:0 33:0 34:11 35:0 36:0 37:0 38:0 39:0 40:0 41:0 42:0 43:0 44:0 
0.09991954948882989 0:15 1:2 2:0 3:1 4:0 5:0 6:0 7:0 8:0 9:0 10:1 11:0 12:3 13:0 14:0 15:0 16:1 17:0 18:1 19:26 20:0 21:0 22:1 23:0 24:0 25:28 26:20 27:0 28:0 29:7 30:2 31:0 32:0 33:0 34:1 35:5 36:2 37:0 38:0 39:0 40:0 41:0 42:0 43:0 44:0 
0.097561019320253781 0:10 1:1 2:0 3:1 4:0 5:0 6:0 7:1 8:1 9:4 10:0 11:6 12:3 13:1 14:1 15:0 16:2 17:1 18:0 19:20 20:0 21:0 22:9 23:3 24:5 25:19 26:13 27:1 28:1 29:4 30:0 31:1 32:7 33:2 34:2 35:0 36:0 37:0 38:0 39:0 40:0 41:0 42:0 43:0 44:0 
1 0:3 1:0 2:0 3:0 4:0 5:0 6:0 7:0 8:1 9:0 10:0 11:3 12:0 13:0 14:0 15:0 16:0 17:0 18:0 19:2 20:0 21:0 22:0 23:0 24:0 25:0 26:0 27:0 28:4 29:0 30:0 31:0 32:4 33:0 34:2 35:1 36:0 37:0 38:0 39:0 40:0 41:0 42:0 43:0 44:0 
1 0:2 1:0 2:0 3:0 4:0 5:0 6:0 7:0 8:0 9:0 10:0 11:0 12:0 13:0 14:0 15:0 16:1 17:0 18:0 19:1 20:0 21:0 22:0 23:0 24:0 25:2 26:3 27:0 28:0 29:0 30:0 31:0 32:0 33:0 34:0 35:0 36:0 37:0 38:0 39:0 40:0 41:0 42:0 43:0 44:0 
0.090393482669712824 0:1 1:2 2:1 3:0 4:0 5:0 6:0 7:3 8:1 9:1 10:3 11:17 12:3 13:7 14:0 15:0 16:1 17:0 18:1 19:42 20:2 21:0 22:0 23:0 24:0 25:1 26:3 27:2 28:1 29:1 30:0 31:0 32:0 33:3 34:3 35:0 36:2 37:0 38:0 39:0 40:0 41:0 42:0 43:0 44:0 
0.049366807183858205 0:2 1:0 2:0 3:0 4:2 5:0 6:1 7:0 8:0 9:0 10:0 11:4 12:0 13:1 14:0 15:0 16:1 17:0 18:0 19:30 20:0 21:0 22:0 23:2 24:0 25:2 26:1 27:0 28:1 29:4 30:0 31:8 32:4 33:0 34:1 35:1 36:0 37:0 38:0 39:0 40:0 41:0 42:0 43:0 44:0 
0.070095786619864708 0:4 1:0 2:0 3:0 4:0 5:0 6:0 7:0 8:0 9:0 10:1 11:0 12:1 13:0 14:0 15:0 16:1 17:0 18:0 19:32 20:0 21:0 22:0 23:0 24:0 25:2 26:1 27:0 28:2 29:7 30:9 31:0 32:0 33:0 34:0 35:0 36:0 37:0 38:0 39:0 40:0 41:0 42:0 43:0 44:0 
0.093854754903356166 0:3 1:0 2:0 3:0 4:0 5:1 6:0 7:0 8:0 9:0 10:1 11:4 12:7 13:1 14:0 15:0 16:0 17:0 18:2 19:8 20:0 21:2 22:24 23:0 24:0 25:6 26:3 27:0 28:2 29:7 30:0 31:0 32:0 33:2 34:1 35:0 36:0 37:0 38:0 39:0 40:0 41:0 42:0 43:0 44:0 
0.096115979864350776 0:2 1:0 2:0 3:0 4:0 5:0 6:0 7:0 8:0 9:0 10:0 11:0 12:0 13:0 14:0 15:0 16:11 17:1 18:1 19:15 20:0 21:0 22:0 23:0 24:8 25:0 26:0 27:0 28:0 29:3 30:0 31:22 32:0 33:2 34:0 35:1 36:0 37:0 38:0 39:0 40:0 41:0 42:0 43:0 44:0 
0.083551413157484447 0:7 1:1 2:0 3:0 4:0 5:0 6:0 7:0 8:0 9:0 10:0 11:0 12:0 13:2 14:0 15:0 16:1 17:1 18:1 19:28 20:1 21:0 22:0 23:0 24:0 25:13 26:7 27:0 28:1 29:1 30:0 31:0 32:0 33:0 34:1 35:4 36:0 37:0 38:0 39:0 40:0 41:0 42:0 43:0 44:0 
0.10099188055443244 0:13 1:3 2:0 3:1 4:2 5:1 6:0 7:0 8:1 9:2 10:0 11:13 12:4 13:2 14:2 15:0 16:7 17:0 18:5 19:22 20:0 21:1 22:7 23:0 24:6 25:39 26:20 27:0 28:2 29:4 30:3 31:1 32:8 33:0 34:4 35:0 36:0 37:0 38:0 39:0 40:0 41:0 42:0 43:0 44:0 
0.21112157397033496 0:1 1:0 2:0 3:0 4:0 5:0 6:0 7:0 8:0 9:0 10:0 11:8 12:1 13:0 14:0 15:0 16:0 17:0 18:0 19:1 20:0 21:0 22:4 23:0 24:2 25:9 26:6 27:0 28:0 29:0 30:0 31:0 32:11 33:0 34:1 35:0 36:0 37:0 38:0 39:0 40:0 41:0 42:0 43:0 44:0 
0.10102634984006259 0:1 1:1 2:0 3:7 4:3 5:0 6:0 7:0 8:1 9:0 10:0 11:3 12:2 13:2 14:1 15:0 16:3 17:0 18:5 19:43 20:0 21:1 22:0 23:2 24:3 25:59 26:32 27:1 28:0 29:2 30:4 31:14 32:0 33:0 34:10 35:2 36:0 37:0 38:2 39:0 40:0 41:0 42:0 43:0 44:0 
0.091185353693330959 0:1 1:5 2:0 3:0 4:0 5:0 6:0 7:0 8:0 9:0 10:0 11:5 12:7 13:0 14:0 15:0 16:1 17:0 18:1 19:14 20:25 21:0 22:0 23:0 24:0 25:3 26:8 27:0 28:1 29:4 30:0 31:0 32:0 33:0 34:8 35:0 36:0 37:1 38:0 39:0 40:0 41:0 42:0 43:0 44:0 
0.080065324419750256 0:4 1:3 2:0 3:0 4:0 5:0 6:0 7:2 8:0 9:0 10:2 11:26 12:0 13:3 14:2 15:0 16:0 17:1 18:0 19:4 20:6 21:0 22:0 23:0 24:0 25:1 26:4 27:4 28:1 29:0 30:0 31:0 32:0 33:0 34:0 35:0 36:2 37:0 38:0 39:0 40:0 41:0 42:0 43:0 44:0 
0.10088352370987341 0:9 1:0 2:0 3:0 4:1 5:0 6:0 7:0 8:4 9:0 10:0 11:0 12:0 13:1 14:0 15:0 16:1 17:0 18:1 19:29 20:0 21:0 22:0 23:0 24:0 25:0 26:0 27:0 28:1 29:27 30:2 31:0 32:0 33:0 34:0 35:1 36:0 37:0 38:0 39:1 40:0 41:0 42:0 43:7 44:0 
0.01800825582797845 0:8 1:1 2:0 3:0 4:0 5:0 6:0 7:0 8:0 9:1 10:0 11:2 12:3 13:0 14:0 15:0 16:0 17:1 18:0 19:32 20:0 21:0 22:0 23:0 24:0 25:2 26:1 27:0 28:1 29:4 30:0 31:0 32:0 33:1 34:0 35:0 36:0 37:0 38:4 39:0 40:0 41:0 42:0 43:0 44:0 
0.097991855467507716 0:3 1:1 2:1 3:1 4:0 5:0 6:0 7:1 8:0 9:1 10:0 11:1 12:4 13:0 14:0 15:0 16:8 17:0 18:0 19:60 20:4 21:3 22:2 23:0 24:0 25:5 26:9 27:0 28:2 29:6 30:0 31:0 32:1 33:3 34:0 35:2 36:0 37:0 38:0 39:0 40:0 41:0 42:0 43:0 44:0 
1 0:1 1:0 2:0 3:1 4:0 5:0 6:0 7:0 8:1 9:0 10:0 11:1 12:0 13:0 14:0 15:0 16:2 17:0 18:0 19:0 20:0 21:0 22:0 23:0 24:0 25:3 26:1 27:0 28:0 29:0 30:0 31:0 32:0 33:0 34:0 35:5 36:0 37:0 38:0 39:0 40:0 41:0 42:0 43:0 44:0 
1 0:1 1:1 2:0 3:0 4:0 5:0 6:0 7:4 8:0 9:0 10:0 11:0 12:0 13:1 14:0 15:0 16:0 17:0 18:0 19:5 20:0 21:0 22:0 23:1 24:0 25:0 26:0 27:0 28:0 29:0 30:1 31:0 32:0 33:0 34:1 35:0 36:0 37:0 38:0 39:0 40:0 41:0 42:0 43:0 44:0 
1 0:0 1:0 2:0 3:0 4:0 5:0 6:0 7:0 8:0 9:0 10:0 11:0 12:0 13:0 14:0 15:1 16:0 17:2 18:0 19:0 20:0 21:0 22:0 23:0 24:0 25:0 26:1 27:3 28:0 29:0 30:0 31:0 32:0 33:0 34:0 35:0 36:0 37:0 38:0 39:0 40:0 41:0 42:0 43:0 44:0 
0.091735700778227625 0:3 1:0 2:0 3:0 4:0 5:0 6:0 7:1 8:0 9:6 10:1 11:0 12:0 13:2 14:1 15:0 16:0 17:1 18:0 19:25 20:0 21:0 22:0 23:0 24:0 25:0 26:0 27:0 28:1 29:1 30:0 31:0 32:0 33:4 34:4 35:0 36:0 37:0 38:20 39:0 40:0 41:0 42:0 43:0 44:0 
1 0:0 1:0 2:0 3:0 4:0 5:0 6:0 7:0 8:0 9:0 10:0 11:0 12:0 13:2 14:1 15:0 16:0 17:0 18:0 19:0 20:0 21:0 22:0 23:0 24:1 25:0 26:1 27:0 28:0 29:0 30:0 31:0 32:0 33:0 34:3 35:1 36:1 37:0 38:0 39:0 40:0 41:0 42:0 43:0 44:0 
1 0:0 1:0 2:0 3:0 4:0 5:0 6:0 7:1 8:0 9:2 10:0 11:0 12:0 13:0 14:0 15:1 16:0 17:0 18:0 19:0 20:0 21:0 22:0 23:0 24:0 25:0 26:2 27:0 28:0 29:0 30:0 31:0 32:0 33:0 34:0 35:0 36:0 37:2 38:0 39:0 40:0 41:0 42:0 43:0 44:0 
0.34252260590608485 0:0 1:3 2:1 3:0 4:0 5:0 6:0 7:1 8:0 9:0 10:1 11:0 12:0 13:0 14:0 15:1 16:0 17:0 18:0 19:0 20:0 21:0 22:0 23:0 24:0 25:1 26:4 27:0 28:0 29:0 30:0 31:0 32:0 33:0 34:0 35:0 36:0 37:0 38:0 39:0 40:0 41:0 42:0 43:0 44:0 
0.36141637131358378 0:1 1:4 2:3 3:0 4:0 5:0 6:0 7:1 8:0 9:0 10:3 11:0 12:0 13:2 14:0 15:0 16:0 17:0 18:0 19:0 20:0 21:0 22:0 23:0 24:0 25:0 26:0 27:0 28:1 29:0 30:0 31:0 32:0 33:1 34:7 35:0 36:0 37:0 38:0 39:0 40:0 41:0 42:0 43:3 44:0 
0.07220700725659096 0:5 1:1 2:0 3:0 4:0 5:1 6:2 7:8 8:0 9:1 10:1 11:8 12:2 13:10 14:0 15:0 16:0 17:1 18:0 19:31 20:0 21:0 22:0 23:1 24:1 25:0 26:0 27:0 28:0 29:1 30:2 31:5 32:0 33:0 34:5 35:1 36:1 37:0 38:0 39:0 40:0 41:0 42:0 43:0 44:0 
1 0:1 1:0 2:0 3:0 4:0 5:0 6:0 7:1 8:0 9:0 10:1 11:1 12:0 13:0 14:0 15:0 16:0 17:0 18:0 19:0 20:0 21:0 22:0 23:0 24:1 25:0 26:1 27:2 28:0 29:0 30:0 31:0 32:0 33:0 34:0 35:0 36:0 37:0 38:0 39:0 40:0 41:0 42:0 43:0 44:0 
0.59719494633141179 0:3 1:0 2:0 3:0 4:0 5:0 6:0 7:1 8:0 9:0 10:0 11:0 12:0 13:0 14:0 15:2 16:0 17:1 18:0 19:0 20:0 21:0 22:0 23:0 24:0 25:0 26:0 27:0 28:0 29:0 30:0 31:0 32:0 33:0 34:1 35:0 36:2 37:0 38:0 39:0 40:0 41:3 42:0 43:0 44:0 
0.40677632286269638 0:2 1:0 2:0 3:0 4:0 5:0 6:0 7:3 8:1 9:0 10:0 11:0 12:0 13:0 14:0 15:0 16:0 17:0 18:0 19:6 20:0 21:0 22:0 23:0 24:0 25:0 26:0 27:0 28:1 29:1 30:0 31:0 32:0 33:0 34:0 35:0 36:0 37:0 38:0 39:0 40:0 41:0 42:0 43:0 44:0 
1 0:0 1:0 2:1 3:0 4:0 5:0 6:0 7:4 8:0 9:0 10:0 11:0 12:0 13:1 14:0 15:0 16:0 17:1 18:0 19:5 20:0 21:0 22:0 23:0 24:0 25:0 26:0 27:0 28:0 29:0 30:0 31:0 32:0 33:1 34:0 35:0 36:1 37:0 38:0 39:0 40:0 41:0 42:0 43:0 44:0 
1 0:0 1:0 2:0 3:0 4:0 5:0 6:0 7:3 8:0 9:0 10:0 11:0 12:0 13:2 14:0 15:0 16:1 17:1 18:0 19:5 20:0 21:0 22:0 23:1 24:0 25:0 26:0 27:0 28:0 29:0 30:0 31:0 32:0 33:0 34:1 35:0 36:1 37:0 38:0 39:0 40:0 41:0 42:0 43:0 44:0 
0.04156346026197575 0:0 1:0 2:1 3:0 4:0 5:0 6:0 7:0 8:0 9:0 10:1 11:9 12:0 13:0 14:0 15:0 16:6 17:2 18:0 19:19 20:0 21:0 22:2 23:0 24:2 25:0 26:0 27:0 28:0 29:0 30:1 31:4 32:12 33:0 34:0 35:0 36:0 37:0 38:0 39:0 40:0 41:0 42:0 43:0 44:0 
0.10972301508458041 0:0 1:0 2:1 3:0 4:0 5:0 6:0 7:3 8:0 9:0 10:0 11:1 12:0 13:0 14:0 15:0 16:0 17:3 18:0 19:0 20:0 21:9 22:0 23:0 24:0 25:0 26:0 27:1 28:0 29:0 30:0 31:0 32:4 33:0 34:0 35:1 36:1 37:4 38:0 39:0 40:0 41:0 42:0 43:0 44:0 
1 0:0 1:0 2:0 3:0 4:1 5:0 6:0 7:1 8:0 9:0 10:0 11:3 12:0 13:0 14:0 15:0 16:0 17:0 18:0 19:2 20:0 21:1 22:0 23:0 24:0 25:0 26:1 27:0 28:0 29:0 30:0 31:0 32:0 33:0 34:0 35:0 36:0 37:0 38:0 39:0 40:0 41:0 42:0 43:0 44:0 
1 0:0 1:0 2:0 3:0 4:0 5:0 6:0 7:0 8:0 9:0 10:0 11:2 12:0 13:0 14:0 15:0 16:0 17:0 18:0 19:4 20:0 21:0 22:0 23:0 24:0 25:0 26:0 27:1 28:0 29:0 30:0 31:0 32:0 33:0 34:1 35:0 36:0 37:0 38:1 39:0 40:0 41:0 42:0 43:0 44:0 
0.0025181450672128918 0:1 1:0 2:0 3:0 4:0 5:0 6:0 7:0 8:0 9:0 10:0 11:1 12:4 13:0 14:0 15:0 16:6 17:0 18:0 19:26 20:1 21:0 22:0 23:0 24:0 25:0 26:1 27:0 28:0 29:0 30:0 31:3 32:0 33:1 34:0 35:0 36:0 37:0 38:0 39:0 40:0 41:0 42:0 43:0 44:0 
1 0:1 1:0 2:0 3:1 4:0 5:0 6:0 7:0 8:0 9:0 10:1 11:0 12:0 13:0 14:0 15:0 16:0 17:0 18:2 19:0 20:0 21:1 22:0 23:0 24:0 25:2 26:1 27:0 28:0 29:0 30:0 31:0 32:0 33:0 34:0 35:0 36:0 37:0 38:0 39:0 40:0 41:0 42:0 43:0 44:0 
1 0:0 1:0 2:0 3:2 4:1 5:0 6:0 7:4 8:0 9:0 10:0 11:0 12:0 13:0 14:0 15:0 16:0 17:1 18:0 19:0 20:0 21:0 22:0 23:0 24:0 25:0 26:0 27:2 28:0 29:0 30:0 31:0 32:0 33:0 34:0 35:1 36:0 37:0 38:0 39:0 40:0 41:0 42:0 43:0 44:0 
1 0:0 1:0 2:0 3:0 4:0 5:0 6:0 7:1 8:0 9:0 10:2 11:3 12:1 13:0 14:0 15:0 16:0 17:0 18:0 19:0 20:8 21:0 22:0 23:0 24:0 25:0 26:0 27:0 28:0 29:0 30:0 31:0 32:0 33:0 34:0 35:0 36:0 37:0 38:0 39:0 40:0 41:0 42:0 43:0 44:0 
1 0:0 1:0 2:0 3:0 4:0 5:0 6:0 7:2 8:0 9:0 10:0 11:0 12:1 13:1 14:0 15:0 16:2 17:0 18:0 19:3 20:2 21:0 22:0 23:0 24:0 25:0 26:0 27:0 28:0 29:0 30:0 31:1 32:1 33:0 34:0 35:0 36:1 37:0 38:1 39:0 40:0 41:0 42:0 43:1 44:0 
0.053157098214784412 0:1 1:6 2:0 3:0 4:0 5:0 6:0 7:0 8:0 9:0 10:1 11:12 12:1 13:5 14:0 15:0 16:0 17:0 18:0 19:14 20:16 21:0 22:0 23:0 24:0 25:0 26:1 27:2 28:7 29:7 30:0 31:0 32:0 33:0 34:0 35:0 36:1 37:0 38:0 39:0 40:0 41:0 42:0 43:0 44:0 
1 0:1 1:0 2:0 3:0 4:0 5:0 6:0 7:1 8:1 9:0 10:1 11:0 12:0 13:0 14:0 15:0 16:0 17:0 18:0 19:2 20:0 21:0 22:0 23:0 24:0 25:0 26:5 27:0 28:0 29:0 30:3 31:0 32:0 33:1 34:0 35:0 36:1 37:0 38:0 39:0 40:0 41:0 42:0 43:1 44:2 
0.90942723017404326 0:0 1:2 2:0 3:0 4:0 5:0 6:0 7:2 8:0 9:0 10:1 11:0 12:0 13:0 14:0 15:1 16:0 17:0 18:0 19:5 20:1 21:0 22:0 23:0 24:0 25:0 26:0 27:0 28:0 29:0 30:0 31:0 32:0 33:0 34:0 35:0 36:0 37:0 38:0 39:0 40:0 41:0 42:0 43:0 44:0 
0.5848893987436905 0:0 1:0 2:0 3:0 4:0 5:0 6:0 7:0 8:0 9:0 10:0 11:2 12:1 13:0 14:1 15:0 16:0 17:0 18:0 19:7 20:1 21:1 22:1 23:1 24:0 25:0 26:0 27:0 28:0 29:0 30:0 31:0 32:0 33:0 34:0 35:0 36:1 37:0 38:0 39:0 40:0 41:0 42:0 43:0 44:0 
1 0:0 1:0 2:1 3:0 4:0 5:1 6:0 7:0 8:0 9:0 10:0 11:0 12:0 13:0 14:0 15:3 16:0 17:0 18:0 19:0 20:0 21:0 22:0 23:0 24:0 25:0 26:0 27:0 28:0 29:0 30:0 31:0 32:0 33:0 34:0 35:0 36:4 37:0 38:0 39:0 40:0 41:0 42:0 43:0 44:0 
1 0:1 1:0 2:0 3:0 4:0 5:0 6:0 7:1 8:0 9:0 10:0 11:0 12:0 13:4 14:0 15:0 16:0 17:0 18:0 19:0 20:0 21:0 22:0 23:0 24:0 25:2 26:1 27:0 28:0 29:0 30:0 31:0 32:0 33:0 34:0 35:0 36:5 37:0 38:0 39:0 40:0 41:0 42:0 43:0 44:0 
1 0:0 1:1 2:0 3:0 4:0 5:0 6:0 7:1 8:0 9:0 10:0 11:0 12:0 13:0 14:0 15:0 16:0 17:2 18:0 19:3 20:0 21:0 22:0 23:1 24:0 25:0 26:3 27:0 28:0 29:0 30:0 31:0 32:0 33:0 34:1 35:0 36:0 37:0 38:0 39:0 40:0 41:0 42:0 43:0 44:0 
1 0:0 1:1 2:0 3:0 4:0 5:0 6:0 7:2 8:0 9:0 10:0 11:0 12:0 13:3 14:0 15:0 16:0 17:0 18:0 19:2 20:0 21:0 22:0 23:0 24:0 25:0 26:0 27:1 28:1 29:1 30:0 31:0 32:0 33:0 34:1 35:2 36:0 37:0 38:0 39:0 40:0 41:0 42:0 43:0 44:0 
0.058400324216871476 0:0 1:2 2:0 3:0 4:0 5:0 6:0 7:0 8:0 9:1 10:0 11:23 12:0 13:3 14:1 15:0 16:0 17:0 18:0 19:5 20:2 21:0 22:0 23:0 24:0 25:0 26:0 27:0 28:4 29:7 30:0 31:0 32:0 33:0 34:0 35:3 36:0 37:0 38:0 39:0 40:0 41:0 42:0 43:0 44:0 
1 0:0 1:0 2:0 3:0 4:0 5:0 6:0 7:0 8:0 9:0 10:0 11:0 12:0 13:0 14:0 15:0 16:0 17:3 18:0 19:1 20:0 21:0 22:0 23:0 24:0 25:0 26:0 27:1 28:0 29:0 30:6 31:0 32:0 33:0 34:1 35:0 36:0 37:0 38:0 39:0 40:0 41:0 42:0 43:0 44:0 
1 0:0 1:0 2:0 3:0 4:0 5:0 6:0 7:0 8:0 9:0 10:0 11:0 12:0 13:0 14:0 15:0 16:0 17:1 18:0 19:4 20:2 21:0 22:0 23:1 24:0 25:0 26:1 27:0 28:0 29:0 30:3 31:0 32:0 33:0 34:2 35:0 36:0 37:0 38:0 39:0 40:0 41:0 42:0 43:0 44:0 
1 0:0 1:0 2:0 3:0 4:0 5:0 6:0 7:0 8:0 9:0 10:0 11:0 12:0 13:1 14:0 15:0 16:0 17:1 18:0 19:2 20:0 21:0 22:0 23:0 24:0 25:0 26:0 27:1 28:0 29:0 30:0 31:2 32:0 33:0 34:4 35:0 36:0 37:0 38:0 39:0 40:0 41:0 42:0 43:0 44:0 
0.76542208518740906 0:1 1:0 2:0 3:2 4:0 5:0 6:0 7:0 8:0 9:0 10:0 11:0 12:0 13:0 14:0 15:0 16:9 17:0 18:0 19:6 20:1 21:0 22:0 23:0 24:0 25:0 26:0 27:0 28:1 29:1 30:0 31:0 32:0 33:0 34:0 35:1 36:0 37:0 38:0 39:0 40:0 41:0 42:0 43:0 44:0 
1 0:0 1:0 2:0 3:0 4:0 5:0 6:0 7:1 8:0 9:0 10:0 11:8 12:0 13:0 14:2 15:0 16:0 17:0 18:0 19:2 20:2 21:0 22:0 23:0 24:0 25:0 26:0 27:0 28:1 29:1 30:0 31:0 32:0 33:0 34:0 35:0 36:0 37:0 38:0 39:0 40:0 41:0 42:0 43:0 44:0 
0.084057606890150363 0:0 1:0 2:1 3:0 4:0 5:1 6:0 7:3 8:0 9:0 10:3 11:22 12:1 13:10 14:1 15:0 16:0 17:0 18:0 19:14 20:13 21:0 22:0 23:0 24:0 25:0 26:2 27:1 28:11 29:9 30:0 31:0 32:0 33:0 34:0 35:0 36:0 37:0 38:0 39:0 40:0 41:0 42:0 43:0 44:0 
0.087627278808348724 0:0 1:0 2:0 3:0 4:2 5:3 6:0 7:3 8:0 9:0 10:2 11:10 12:1 13:2 14:1 15:0 16:0 17:1 18:0 19:8 20:28 21:0 22:0 23:0 24:0 25:0 26:1 27:1 28:0 29:0 30:0 31:0 32:1 33:0 34:4 35:0 36:0 37:0 38:0 39:0 40:0 41:0 42:0 43:0 44:0 
1 0:0 1:1 2:1 3:0 4:0 5:0 6:0 7:1 8:0 9:0 10:3 11:0 12:0 13:0 14:0 15:0 16:0 17:2 18:0 19:4 20:4 21:0 22:0 23:0 24:0 25:0 26:0 27:0 28:0 29:0 30:0 31:0 32:0 33:0 34:0 35:0 36:0 37:0 38:0 39:0 40:0 41:0 42:0 43:0 44:0 
0.41734294227002533 0:0 1:0 2:0 3:0 4:0 5:0 6:0 7:1 8:0 9:0 10:0 11:1 12:1 13:2 14:0 15:0 16:0 17:0 18:0 19:5 20:0 21:0 22:0 23:0 24:0 25:0 26:1 27:0 28:0 29:0 30:0 31:1 32:0 33:0 34:0 35:0 36:0 37:0 38:0 39:0 40:0 41:0 42:0 43:0 44:0 
0.24107288082293257 0:0 1:1 2:0 3:0 4:0 5:0 6:0 7:3 8:0 9:0 10:1 11:1 12:0 13:1 14:0 15:0 16:0 17:0 18:0 19:4 20:0 21:0 22:0 23:0 24:0 25:0 26:2 27:0 28:0 29:0 30:0 31:0 32:0 33:0 34:0 35:0 36:0 37:0 38:0 39:0 40:0 41:0 42:0 43:0 44:0 
0.61332746829837814 0:2 1:0 2:0 3:0 4:0 5:0 6:0 7:1 8:0 9:0 10:0 11:0 12:0 13:0 14:2 15:0 16:0 17:0 18:0 19:2 20:3 21:0 22:0 23:0 24:0 25:0 26:0 27:0 28:1 29:1 30:0 31:3 32:0 33:0 34:0 35:0 36:0 37:1 38:0 39:0 40:0 41:0 42:0 43:0 44:0 
1 0:0 1:0 2:0 3:0 4:0 5:0 6:0 7:1 8:0 9:0 10:1 11:0 12:1 13:0 14:0 15:0 16:0 17:1 18:0 19:2 20:1 21:0 22:0 23:0 24:0 25:0 26:0 27:0 28:0 29:0 30:0 31:3 32:1 33:0 34:3 35:0 36:3 37:2 38:0 39:0 40:0 41:0 42:0 43:0 44:1 
1 0:0 1:0 2:0 3:0 4:0 5:0 6:0 7:1 8:0 9:0 10:0 11:0 12:0 13:0 14:0 15:2 16:0 17:0 18:0 19:0 20:0 21:0 22:0 23:0 24:0 25:0 26:0 27:0 28:0 29:0 30:0 31:0 32:0 33:0 34:0 35:0 36:1 37:0 38:0 39:0 40:0 41:0 42:0 43:0 44:0 
1 0:1 1:0 2:0 3:0 4:0 5:2 6:0 7:0 8:0 9:0 10:0 11:0 12:0 13:0 14:0 15:0 16:0 17:1 18:0 19:6 20:1 21:0 22:0 23:4 24:0 25:0 26:0 27:0 28:0 29:0 30:0 31:0 32:0 33:0 34:0 35:0 36:4 37:0 38:0 39:0 40:0 41:0 42:0 43:0 44:0 
0.06041403669775558 0:2 1:0 2:1 3:0 4:0 5:0 6:0 7:1 8:0 9:0 10:3 11:13 12:0 13:4 14:0 15:0 16:3 17:0 18:0 19:23 20:5 21:1 22:0 23:0 24:0 25:0 26:0 27:2 28:6 29:6 30:0 31:0 32:0 33:0 34:0 35:0 36:0 37:0 38:0 39:0 40:0 41:0 42:0 43:0 44:0 
0.013374012186125944 0:0 1:0 2:0 3:0 4:0 5:0 6:0 7:4 8:1 9:1 10:2 11:17 12:0 13:2 14:1 15:0 16:9 17:0 18:0 19:7 20:10 21:0 22:0 23:1 24:0 25:0 26:0 27:0 28:1 29:3 30:0 31:0 32:0 33:0 34:3 35:0 36:1 37:1 38:0 39:0 40:0 41:0 42:0 43:0 44:0 
0.067537242967229516 0:0 1:0 2:1 3:1 4:0 5:1 6:0 7:1 8:0 9:1 10:0 11:0 12:0 13:0 14:0 15:0 16:0 17:8 18:2 19:0 20:0 21:0 22:0 23:0 24:0 25:0 26:2 27:1 28:0 29:0 30:0 31:0 32:0 33:0 34:0 35:1 36:4 37:0 38:0 39:0 40:0 41:0 42:0 43:0 44:0 
0.28434364035815479 0:0 1:0 2:0 3:1 4:0 5:0 6:1 7:2 8:6 9:0 10:0 11:0 12:0 13:0 14:0 15:0 16:0 17:0 18:0 19:2 20:0 21:0 22:0 23:0 24:4 25:0 26:0 27:1 28:0 29:0 30:0 31:0 32:0 33:0 34:0 35:0 36:0 37:0 38:0 39:0 40:0 41:0 42:0 43:0 44:0 
1 0:1 1:0 2:0 3:0 4:0 5:0 6:0 7:2 8:0 9:0 10:0 11:0 12:0 13:0 14:0 15:0 16:0 17:0 18:0 19:0 20:0 21:0 22:0 23:0 24:5 25:0 26:2 27:0 28:0 29:0 30:0 31:0 32:0 33:0 34:0 35:1 36:1 37:0 38:0 39:0 40:0 41:0 42:0 43:0 44:0 
0.31321928893801554 0:1 1:0 2:1 3:0 4:0 5:0 6:0 7:3 8:0 9:0 10:0 11:0 12:0 13:0 14:0 15:1 16:0 17:1 18:0 19:0 20:0 21:0 22:0 23:0 24:0 25:2 26:2 27:0 28:0 29:0 30:0 31:0 32:0 33:0 34:0 35:0 36:0 37:0 38:0 39:2 40:0 41:0 42:0 43:0 44:0 
0.17206593870172435 0:1 1:0 2:0 3:0 4:0 5:2 6:0 7:1 8:3 9:0 10:1 11:0 12:1 13:0 14:1 15:0 16:0 17:0 18:0 19:6 20:0 21:0 22:0 23:1 24:0 25:0 26:0 27:0 28:0 29:0 30:1 31:0 32:0 33:0 34:2 35:0 36:0 37:0 38:0 39:0 40:0 41:0 42:0 43:0 44:0 
1 0:1 1:0 2:0 3:0 4:0 5:0 6:0 7:0 8:0 9:0 10:0 11:0 12:0 13:0 14:0 15:0 16:0 17:0 18:0 19:3 20:0 21:0 22:0 23:0 24:0 25:0 26:2 27:0 28:0 29:1 30:0 31:2 32:0 33:0 34:0 35:0 36:0 37:0 38:0 39:0 40:0 41:0 42:0 43:0 44:0 
1 0:0 1:0 2:0 3:0 4:0 5:1 6:0 7:1 8:6 9:1 10:0 11:1 12:0 13:1 14:1 15:0 16:0 17:1 18:0 19:3 20:0 21:0 22:0 23:0 24:2 25:0 26:0 27:0 28:0 29:0 30:0 31:0 32:1 33:0 34:0 35:0 36:1 37:0 38:0 39:0 40:0 41:0 42:0 43:0 44:0 
0.18977394471377379 0:0 1:0 2:0 3:1 4:0 5:0 6:1 7:1 8:9 9:0 10:0 11:0 12:0 13:0 14:1 15:0 16:0 17:1 18:0 19:3 20:0 21:0 22:0 23:0 24:0 25:0 26:0 27:0 28:0 29:0 30:0 31:0 32:0 33:0 34:0 35:0 36:2 37:0 38:0 39:0 40:0 41:0 42:0 43:0 44:0 
1 0:0 1:0 2:0 3:0 4:1 5:1 6:0 7:0 8:0 9:1 10:0 11:0 12:0 13:0 14:0 15:0 16:0 17:0 18:0 19:0 20:0 21:0 22:0 23:0 24:0 25:0 26:0 27:0 28:0 29:0 30:0 31:0 32:0 33:0 34:0 35:0 36:3 37:0 38:0 39:2 40:2 41:4 42:0 43:0 44:0 
1 0:0 1:0 2:0 3:0 4:0 5:0 6:0 7:0 8:0 9:3 10:1 11:0 12:0 13:0 14:0 15:0 16:0 17:0 18:0 19:0 20:0 21:0 22:0 23:0 24:0 25:0 26:0 27:0 28:0 29:0 30:0 31:0 32:0 33:0 34:0 35:0 36:1 37:0 38:0 39:4 40:1 41:2 42:0 43:0 44:0 
0.25074737104654105 0:2 1:0 2:0 3:0 4:0 5:0 6:1 7:0 8:3 9:0 10:3 11:2 12:0 13:0 14:0 15:0 16:0 17:0 18:0 19:0 20:0 21:0 22:0 23:0 24:0 25:1 26:2 27:2 28:0 29:0 30:0 31:0 32:0 33:1 34:0 35:0 36:1 37:0 38:0 39:0 40:0 41:0 42:0 43:0 44:0 
0.52132694819299885 0:0 1:0 2:0 3:0 4:0 5:0 6:0 7:0 8:0 9:0 10:0 11:0 12:0 13:0 14:0 15:4 16:0 17:0 18:0 19:0 20:0 21:0 22:0 23:0 24:0 25:0 26:0 27:0 28:0 29:0 30:0 31:0 32:0 33:0 34:0 35:0 36:0 37:0 38:0 39:0 40:0 41:0 42:0 43:0 44:0 
1 0:0 1:0 2:0 3:0 4:0 5:0 6:0 7:0 8:0 9:0 10:0 11:0 12:0 13:0 14:0 15:1 16:0 17:0 18:0 19:0 20:0 21:0 22:0 23:0 24:0 25:0 26:0 27:0 28:0 29:0 30:0 31:0 32:0 33:0 34:0 35:0 36:0 37:0 38:0 39:0 40:0 41:0 42:0 43:0 44:0 
0.91005488046729921 0:0 1:3 2:1 3:0 4:0 5:0 6:0 7:1 8:0 9:0 10:1 11:3 12:0 13:0 14:0 15:3 16:0 17:0 18:0 19:0 20:0 21:0 22:0 23:0 24:0 25:0 26:0 27:0 28:0 29:0 30:0 31:0 32:0 33:0 34:0 35:0 36:2 37:0 38:0 39:0 40:0 41:0 42:0 43:0 44:0 
1 0:0 1:0 2:0 3:0 4:0 5:0 6:0 7:0 8:0 9:0 10:0 11:0 12:0 13:0 14:0 15:4 16:0 17:0 18:0 19:0 20:0 21:0 22:0 23:0 24:0 25:0 26:0 27:0 28:0 29:0 30:0 31:0 32:0 33:0 34:0 35:0 36:0 37:0 38:0 39:0 40:0 41:0 42:0 43:0 44:0 
1 0:1 1:0 2:0 3:0 4:0 5:0 6:0 7:0 8:0 9:0 10:0 11:0 12:0 13:0 14:0 15:0 16:0 17:0 18:0 19:0 20:2 21:0 22:0 23:0 24:0 25:0 26:0 27:0 28:0 29:0 30:0 31:0 32:0 33:0 34:0 35:0 36:0 37:0 38:7 39:0 40:0 41:0 42:0 43:0 44:0 
1 0:0 1:0 2:1 3:0 4:0 5:0 6:0 7:0 8:0 9:0 10:1 11:0 12:0 13:0 14:0 15:3 16:0 17:0 18:0 19:0 20:0 21:0 22:0 23:0 24:0 25:0 26:0 27:0 28:0 29:0 30:0 31:0 32:0 33:0 34:0 35:0 36:1 37:0 38:0 39:0 40:0 41:0 42:0 43:0 44:0 
1 0:1 1:0 2:0 3:0 4:0 5:0 6:0 7:0 8:0 9:0 10:0 11:0 12:0 13:0 14:0 15:0 16:0 17:1 18:0 19:0 20:0 21:0 22:0 23:0 24:1 25:0 26:2 27:0 28:0 29:0 30:0 31:0 32:0 33:0 34:0 35:0 36:0 37:0 38:0 39:5 40:0 41:1 42:0 43:0 44:0 
1 0:0 1:1 2:0 3:0 4:0 5:0 6:0 7:1 8:0 9:0 10:0 11:0 12:0 13:0 14:0 15:1 16:0 17:0 18:0 19:0 20:0 21:0 22:0 23:0 24:0 25:0 26:0 27:0 28:0 29:0 30:0 31:0 32:0 33:0 34:0 35:0 36:1 37:0 38:0 39:1 40:0 41:0 42:0 43:0 44:0 
1 0:0 1:2 2:0 3:0 4:0 5:2 6:2 7:1 8:0 9:0 10:1 11:1 12:0 13:0 14:0 15:0 16:0 17:0 18:0 19:0 20:0 21:0 22:0 23:0 24:0 25:0 26:1 27:0 28:0 29:0 30:0 31:0 32:0 33:1 34:7 35:0 36:0 37:0 38:0 39:0 40:0 41:0 42:0 43:2 44:0 
0.1995054805885032 0:0 1:1 2:1 3:0 4:0 5:0 6:0 7:0 8:0 9:2 10:1 11:0 12:0 13:0 14:0 15:0 16:0 17:0 18:0 19:0 20:0 21:0 22:0 23:0 24:0 25:0 26:0 27:0 28:0 29:0 30:0 31:0 32:0 33:0 34:0 35:0 36:1 37:0 38:0 39:5 40:1 41:2 42:0 43:0 44:0 
1 0:0 1:0 2:0 3:0 4:0 5:0 6:0 7:1 8:0 9:1 10:0 11:0 12:0 13:0 14:0 15:0 16:0 17:1 18:0 19:0 20:0 21:0 22:0 23:0 24:0 25:0 26:0 27:0 28:0 29:0 30:0 31:0 32:0 33:0 34:0 35:0 36:1 37:0 38:0 39:0 40:1 41:1 42:0 43:0 44:0 
1 0:0 1:0 2:0 3:0 4:0 5:0 6:0 7:0 8:0 9:1 10:0 11:0 12:0 13:0 14:0 15:2 16:0 17:1 18:0 19:0 20:0 21:0 22:0 23:0 24:0 25:0 26:0 27:0 28:0 29:0 30:0 31:0 32:0 33:0 34:0 35:0 36:6 37:0 38:0 39:0 40:0 41:0 42:0 43:0 44:0 
1 0:1 1:0 2:0 3:0 4:0 5:0 6:0 7:0 8:0 9:0 10:0 11:0 12:0 13:2 14:0 15:0 16:0 17:0 18:0 19:1 20:0 21:0 22:0 23:0 24:0 25:0 26:2 27:1 28:0 29:0 30:0 31:0 32:0 33:0 34:0 35:0 36:1 37:0 38:0 39:0 40:0 41:0 42:0 43:0 44:0 
1 0:2 1:0 2:0 3:0 4:0 5:0 6:0 7:0 8:0 9:0 10:0 11:1 12:0 13:0 14:0 15:0 16:0 17:0 18:0 19:1 20:0 21:0 22:0 23:0 24:2 25:0 26:0 27:0 28:1 29:0 30:0 31:0 32:6 33:0 34:0 35:0 36:0 37:0 38:0 39:0 40:0 41:0 42:0 43:0 44:0 
0.63903876567732676 0:2 1:0 2:0 3:0 4:0 5:0 6:0 7:0 8:0 9:0 10:0 11:2 12:2 13:0 14:0 15:0 16:0 17:0 18:0 19:1 20:7 21:0 22:0 23:0 24:0 25:0 26:1 27:0 28:0 29:0 30:0 31:0 32:0 33:0 34:1 35:0 36:0 37:0 38:0 39:0 40:0 41:0 42:0 43:0 44:0 
1 0:1 1:0 2:0 3:0 4:0 5:0 6:0 7:0 8:0 9:0 10:1 11:0 12:0 13:0 14:0 15:0 16:0 17:0 18:0 19:1 20:0 21:0 22:0 23:0 24:3 25:0 26:0 27:1 28:0 29:0 30:0 31:0 32:0 33:0 34:0 35:1 36:0 37:0 38:0 39:0 40:0 41:0 42:0 43:0 44:0 
1 0:0 1:1 2:1 3:0 4:0 5:0 6:0 7:0 8:0 9:0 10:2 11:0 12:0 13:0 14:1 15:0 16:0 17:0 18:0 19:1 20:0 21:0 22:0 23:0 24:0 25:0 26:0 27:3 28:0 29:0 30:0 31:0 32:0 33:0 34:0 35:0 36:0 37:0 38:1 39:0 40:0 41:0 42:0 43:0 44:0 
0.47039382101190891 0:0 1:0 2:0 3:0 4:0 5:0 6:0 7:0 8:0 9:0 10:0 11:0 12:1 13:0 14:0 15:0 16:0 17:1 18:0 19:1 20:0 21:0 22:2 23:2 24:1 25:1 26:1 27:3 28:0 29:0 30:0 31:0 32:0 33:0 34:0 35:0 36:0 37:0 38:0 39:0 40:0 41:0 42:0 43:0 44:0 
0.36387564686594054 0:1 1:0 2:0 3:0 4:0 5:0 6:0 7:0 8:0 9:0 10:0 11:0 12:0 13:0 14:0 15:0 16:0 17:1 18:1 19:1 20:0 21:4 22:5 23:0 24:0 25:0 26:0 27:2 28:0 29:0 30:0 31:0 32:0 33:0 34:0 35:0 36:1 37:0 38:0 39:0 40:0 41:0 42:0 43:0 44:0 
1 0:0 1:0 2:0 3:0 4:0 5:0 6:0 7:0 8:0 9:0 10:0 11:2 12:1 13:0 14:0 15:0 16:0 17:2 18:0 19:1 20:0 21:0 22:1 23:0 24:0 25:0 26:0 27:2 28:0 29:0 30:0 31:1 32:2 33:0 34:0 35:0 36:1 37:0 38:0 39:0 40:0 41:0 42:0 43:0 44:0 
0.18987640133960074 0:0 1:0 2:0 3:0 4:0 5:0 6:0 7:0 8:0 9:0 10:1 11:3 12:1 13:0 14:0 15:0 16:0 17:0 18:0 19:2 20:0 21:0 22:0 23:0 24:0 25:2 26:2 27:0 28:0 29:0 30:0 31:2 32:0 33:1 34:0 35:0 36:0 37:0 38:0 39:0 40:0 41:0 42:0 43:0 44:0 
1 0:0 1:0 2:0 3:0 4:0 5:0 6:0 7:1 8:0 9:0 10:3 11:1 12:0 13:0 14:0 15:0 16:0 17:0 18:0 19:1 20:0 21:0 22:0 23:0 24:0 25:0 26:0 27:0 28:0 29:0 30:0 31:0 32:0 33:0 34:0 35:1 36:1 37:0 38:0 39:0 40:0 41:0 42:0 43:0 44:0 
1 0:0 1:0 2:0 3:0 4:0 5:0 6:0 7:0 8:0 9:0 10:1 11:0 12:0 13:0 14:0 15:0 16:3 17:0 18:0 19:5 20:0 21:0 22:0 23:0 24:0 25:2 26:1 27:0 28:0 29:1 30:0 31:0 32:0 33:0 34:0 35:1 36:2 37:0 38:0 39:0 40:0 41:0 42:0 43:0 44:0 
0.42121765975166137 0:0 1:0 2:0 3:0 4:0 5:0 6:0 7:0 8:0 9:0 10:0 11:0 12:0 13:0 14:0 15:0 16:0 17:0 18:0 19:1 20:0 21:7 22:0 23:0 24:3 25:2 26:1 27:0 28:0 29:0 30:0 31:0 32:0 33:0 34:0 35:0 36:0 37:0 38:0 39:0 40:0 41:0 42:0 43:0 44:0 
1 0:0 1:0 2:0 3:0 4:0 5:0 6:0 7:0 8:0 9:0 10:1 11:0 12:0 13:4 14:0 15:0 16:0 17:1 18:0 19:2 20:0 21:0 22:0 23:0 24:0 25:0 26:0 27:0 28:0 29:0 30:0 31:1 32:0 33:0 34:0 35:0 36:0 37:0 38:0 39:0 40:0 41:0 42:0 43:0 44:0 
0.21645336914412888 0:0 1:0 2:0 3:0 4:0 5:0 6:0 7:3 8:0 9:0 10:0 11:0 12:0 13:3 14:0 15:2 16:0 17:0 18:0 19:0 20:0 21:0 22:0 23:0 24:0 25:0 26:0 27:0 28:0 29:0 30:0 31:0 32:0 33:0 34:0 35:0 36:4 37:0 38:0 39:1 40:0 41:1 42:0 43:0 44:0 
0.42816316847910402 0:0 1:0 2:0 3:0 4:0 5:0 6:0 7:1 8:0 9:0 10:1 11:0 12:0 13:1 14:2 15:0 16:0 17:0 18:0 19:7 20:2 21:0 22:0 23:0 24:0 25:0 26:0 27:0 28:0 29:0 30:0 31:0 32:0 33:0 34:0 35:0 36:0 37:0 38:0 39:0 40:0 41:0 42:0 43:0 44:0 
1 0:0 1:0 2:0 3:0 4:0 5:0 6:0 7:0 8:0 9:0 10:1 11:2 12:0 13:0 14:0 15:0 16:3 17:0 18:0 19:4 20:0 21:0 22:1 23:0 24:0 25:0 26:0 27:0 28:0 29:0 30:0 31:2 32:6 33:0 34:0 35:0 36:0 37:0 38:0 39:0 40:0 41:0 42:0 43:0 44:0 
1 0:0 1:0 2:0 3:2 4:0 5:0 6:0 7:0 8:0 9:0 10:0 11:0 12:1 13:0 14:0 15:0 16:0 17:0 18:0 19:1 20:0 21:0 22:0 23:3 24:2 25:0 26:3 27:0 28:0 29:0 30:0 31:1 32:0 33:0 34:0 35:0 36:0 37:0 38:0 39:0 40:0 41:0 42:0 43:0 44:0 
1 0:1 1:1 2:0 3:0 4:0 5:0 6:0 7:0 8:0 9:0 10:0 11:0 12:0 13:0 14:0 15:1 16:0 17:0 18:0 19:0 20:0 21:0 22:0 23:0 24:0 25:0 26:0 27:0 28:0 29:0 30:0 31:0 32:0 33:0 34:0 35:0 36:0 37:0 38:0 39:0 40:0 41:0 42:0 43:0 44:0 
1 0:0 1:0 2:0 3:1 4:0 5:0 6:0 7:0 8:0 9:0 10:1 11:0 12:0 13:3 14:0 15:0 16:0 17:0 18:0 19:2 20:0 21:0 22:0 23:0 24:0 25:0 26:0 27:1 28:0 29:0 30:0 31:2 32:0 33:0 34:1 35:0 36:0 37:0 38:0 39:0 40:0 41:0 42:0 43:0 44:0 
1 0:0 1:1 2:0 3:0 4:0 5:0 6:0 7:1 8:0 9:0 10:1 11:0 12:0 13:2 14:0 15:0 16:0 17:0 18:1 19:2 20:0 21:1 22:0 23:1 24:1 25:0 26:0 27:1 28:0 29:0 30:0 31:0 32:0 33:0 34:0 35:0 36:1 37:0 38:0 39:0 40:0 41:0 42:0 43:0 44:0 
1 0:3 1:0 2:2 3:0 4:0 5:0 6:0 7:0 8:0 9:0 10:0 11:0 12:0 13:0 14:0 15:2 16:0 17:4 18:0 19:0 20:0 21:0 22:0 23:0 24:0 25:0 26:0 27:0 28:0 29:0 30:0 31:0 32:0 33:0 34:0 35:0 36:3 37:0 38:0 39:0 40:0 41:0 42:0 43:0 44:0 
1 0:0 1:0 2:0 3:0 4:0 5:0 6:0 7:1 8:0 9:0 10:1 11:0 12:0 13:0 14:0 15:3 16:0 17:0 18:0 19:0 20:0 21:0 22:0 23:0 24:0 25:0 26:0 27:0 28:0 29:0 30:0 31:0 32:0 33:0 34:0 35:0 36:1 37:0 38:0 39:0 40:0 41:0 42:0 43:0 44:0 
0.89750025378025677 0:0 1:0 2:0 3:0 4:0 5:0 6:0 7:0 8:0 9:0 10:0 11:1 12:0 13:0 14:0 15:0 16:0 17:1 18:0 19:4 20:0 21:0 22:0 23:0 24:0 25:0 26:0 27:1 28:2 29:2 30:0 31:1 32:0 33:1 34:0 35:1 36:0 37:0 38:0 39:0 40:0 41:0 42:0 43:0 44:0 
0.52977889036329939 0:0 1:0 2:0 3:0 4:0 5:0 6:0 7:1 8:0 9:0 10:0 11:0 12:0 13:0 14:0 15:0 16:0 17:1 18:2 19:0 20:0 21:5 22:0 23:0 24:2 25:0 26:0 27:2 28:0 29:0 30:0 31:0 32:0 33:0 34:0 35:0 36:0 37:0 38:0 39:0 40:0 41:0 42:0 43:0 44:0 
1 0:0 1:0 2:0 3:0 4:0 5:0 6:0 7:0 8:0 9:0 10:0 11:0 12:2 13:0 14:0 15:0 16:0 17:0 18:0 19:4 20:0 21:0 22:0 23:0 24:1 25:1 26:1 27:0 28:0 29:0 30:0 31:2 32:0 33:0 34:0 35:0 36:0 37:0 38:0 39:0 40:0 41:0 42:0 43:0 44:0 
0.071757679705304347 0:2 1:1 2:1 3:0 4:0 5:0 6:0 7:5 8:0 9:0 10:2 11:1 12:0 13:2 14:0 15:0 16:3 17:2 18:0 19:41 20:2 21:0 22:1 23:1 24:0 25:0 26:3 27:0 28:0 29:0 30:0 31:1 32:0 33:1 34:7 35:0 36:1 37:0 38:0 39:0 40:0 41:0 42:0 43:0 44:1 
1 0:2 1:0 2:0 3:0 4:0 5:0 6:0 7:0 8:0 9:1 10:0 11:0 12:0 13:2 14:0 15:0 16:0 17:2 18:4 19:0 20:0 21:2 22:0 23:0 24:1 25:0 26:0 27:0 28:0 29:0 30:0 31:0 32:0 33:0 34:0 35:0 36:0 37:0 38:0 39:0 40:0 41:0 42:0 43:0 44:0 
1 0:0 1:0 2:0 3:0 4:0 5:0 6:0 7:0 8:0 9:0 10:0 11:0 12:0 13:0 14:0 15:0 16:0 17:0 18:2 19:0 20:0 21:1 22:0 23:1 24:4 25:0 26:1 27:0 28:0 29:0 30:0 31:0 32:0 33:0 34:0 35:0 36:1 37:0 38:0 39:0 40:0 41:0 42:0 43:0 44:0 
1 0:0 1:0 2:0 3:0 4:0 5:1 6:0 7:0 8:0 9:0 10:0 11:0 12:0 13:0 14:0 15:3 16:0 17:0 18:0 19:0 20:0 21:0 22:0 23:0 24:0 25:0 26:0 27:0 28:0 29:0 30:0 31:0 32:0 33:0 34:0 35:0 36:1 37:0 38:0 39:0 40:0 41:0 42:0 43:0 44:0 
1 0:1 1:0 2:0 3:0 4:0 5:0 6:0 7:0 8:0 9:0 10:1 11:0 12:0 13:0 14:0 15:0 16:0 17:0 18:0 19:0 20:0 21:0 22:0 23:0 24:4 25:0 26:2 27:0 28:0 29:0 30:0 31:0 32:1 33:0 34:0 35:2 36:3 37:0 38:0 39:0 40:0 41:0 42:0 43:0 44:0 
0.055445146282381993 0:0 1:0 2:0 3:1 4:0 5:0 6:2 7:5 8:21 9:0 10:4 11:0 12:1 13:0 14:0 15:0 16:0 17:3 18:0 19:17 20:1 21:0 22:0 23:0 24:0 25:0 26:0 27:0 28:0 29:0 30:0 31:0 32:0 33:0 34:1 35:0 36:5 37:0 38:0 39:0 40:0 41:0 42:0 43:0 44:0 
0.07541069626703864 0:2 1:0 2:0 3:1 4:0 5:0 6:1 7:0 8:0 9:0 10:0 11:0 12:0 13:0 14:0 15:0 16:0 17:0 18:0 19:3 20:1 21:0 22:0 23:0 24:0 25:0 26:1 27:0 28:0 29:0 30:0 31:0 32:0 33:0 34:0 35:0 36:2 37:0 38:26 39:1 40:0 41:0 42:0 43:0 44:0 
1 0:0 1:0 2:0 3:0 4:0 5:0 6:0 7:0 8:0 9:1 10:0 11:1 12:0 13:0 14:0 15:1 16:0 17:0 18:0 19:0 20:0 21:0 22:0 23:0 24:0 25:0 26:0 27:0 28:0 29:0 30:0 31:0 32:0 33:0 34:0 35:0 36:4 37:0 38:0 39:0 40:0 41:0 42:0 43:0 44:0 
1 0:0 1:0 2:3 3:0 4:0 5:0 6:0 7:0 8:1 9:0 10:4 11:0 12:0 13:1 14:0 15:0 16:0 17:0 18:0 19:1 20:0 21:0 22:0 23:0 24:1 25:0 26:0 27:0 28:0 29:0 30:0 31:3 32:2 33:0 34:0 35:0 36:0 37:0 38:0 39:0 40:0 41:0 42:0 43:0 44:0 
0.0049177459569443305 0:0 1:0 2:1 3:0 4:1 5:0 6:1 7:0 8:0 9:2 10:0 11:2 12:0 13:0 14:0 15:0 16:0 17:0 18:0 19:1 20:0 21:0 22:0 23:0 24:14 25:0 26:0 27:1 28:1 29:1 30:0 31:0 32:0 33:0 34:0 35:1 36:9 37:0 38:0 39:0 40:0 41:0 42:0 43:0 44:0 
0.08712215848389443 0:2 1:0 2:2 3:1 4:0 5:1 6:0 7:4 8:0 9:7 10:1 11:0 12:0 13:0 14:0 15:3 16:0 17:1 18:0 19:0 20:0 21:0 22:0 23:0 24:0 25:0 26:0 27:0 28:0 29:0 30:1 31:0 32:0 33:0 34:5 35:0 36:25 37:0 38:0 39:30 40:9 41:7 42:0 43:0 44:0 
0.52325898398090254 0:1 1:0 2:1 3:0 4:0 5:3 6:0 7:1 8:0 9:0 10:1 11:0 12:0 13:0 14:0 15:0 16:0 17:0 18:9 19:0 20:0 21:1 22:0 23:0 24:1 25:0 26:0 27:0 28:0 29:0 30:0 31:0 32:0 33:0 34:0 35:0 36:0 37:0 38:0 39:0 40:0 41:0 42:0 43:0 44:0 
0.072896903664038656 0:1 1:0 2:0 3:10 4:1 5:0 6:0 7:2 8:0 9:3 10:1 11:0 12:0 13:0 14:0 15:5 16:0 17:0 18:0 19:0 20:0 21:0 22:0 23:0 24:0 25:0 26:0 27:0 28:0 29:0 30:0 31:0 32:0 33:0 34:0 35:0 36:10 37:0 38:0 39:20 40:2 41:6 42:0 43:0 44:0 
0.067160562704894705 0:6 1:2 2:0 3:0 4:0 5:0 6:0 7:0 8:0 9:0 10:0 11:4 12:0 13:0 14:0 15:0 16:0 17:0 18:0 19:33 20:1 21:0 22:0 23:0 24:0 25:0 26:5 27:3 28:0 29:0 30:0 31:0 32:0 33:2 34:0 35:2 36:4 37:1 38:9 39:0 40:0 41:0 42:0 43:0 44:0 
0.098491214662661933 0:2 1:5 2:0 3:0 4:1 5:0 6:1 7:4 8:0 9:1 10:6 11:15 12:2 13:2 14:1 15:0 16:5 17:6 18:0 19:43 20:2 21:1 22:1 23:1 24:0 25:0 26:18 27:2 28:2 29:0 30:0 31:1 32:3 33:0 34:2 35:0 36:6 37:1 38:0 39:0 40:0 41:0 42:0 43:0 44:0 
0.10019462128623181 0:2 1:0 2:1 3:0 4:0 5:0 6:1 7:0 8:0 9:0 10:0 11:1 12:4 13:3 14:1 15:0 16:2 17:2 18:0 19:67 20:0 21:0 22:1 23:11 24:1 25:3 26:2 27:2 28:9 29:11 30:7 31:4 32:2 33:0 34:1 35:0 36:4 37:0 38:0 39:0 40:0 41:0 42:0 43:0 44:0 
0.030910563312460809 0:0 1:0 2:0 3:0 4:0 5:0 6:0 7:0 8:1 9:0 10:0 11:0 12:0 13:3 14:0 15:0 16:3 17:0 18:0 19:18 20:0 21:0 22:0 23:0 24:0 25:1 26:5 27:0 28:1 29:6 30:0 31:0 32:0 33:1 34:0 35:0 36:0 37:0 38:16 39:0 40:0 41:0 42:0 43:0 44:0 
1 0:1 1:0 2:0 3:1 4:0 5:0 6:1 7:0 8:0 9:1 10:0 11:0 12:0 13:0 14:0 15:0 16:0 17:0 18:0 19:0 20:0 21:0 22:0 23:0 24:0 25:0 26:0 27:0 28:0 29:0 30:0 31:0 32:0 33:0 34:0 35:0 36:3 37:0 38:0 39:2 40:3 41:0 42:0 43:0 44:0 
0.073823113535711721 0:1 1:0 2:0 3:0 4:0 5:0 6:0 7:10 8:20 9:0 10:4 11:1 12:1 13:0 14:0 15:0 16:0 17:0 18:0 19:20 20:1 21:0 22:0 23:0 24:0 25:0 26:1 27:0 28:0 29:0 30:0 31:0 32:0 33:0 34:5 35:0 36:0 37:1 38:0 39:0 40:0 41:0 42:0 43:0 44:0 
0.099194594200594607 0:3 1:1 2:3 3:0 4:0 5:0 6:2 7:1 8:6 9:7 10:5 11:5 12:6 13:4 14:0 15:0 16:10 17:5 18:0 19:67 20:2 21:0 22:0 23:0 24:0 25:0 26:0 27:0 28:1 29:1 30:1 31:0 32:0 33:0 34:4 35:1 36:0 37:0 38:0 39:0 40:0 41:0 42:0 43:0 44:1 
0.012088696014929982 0:0 1:2 2:1 3:0 4:0 5:0 6:0 7:3 8:0 9:0 10:2 11:11 12:2 13:0 14:0 15:0 16:3 17:0 18:0 19:24 20:1 21:0 22:0 23:0 24:0 25:0 26:2 27:0 28:0 29:0 30:0 31:0 32:0 33:0 34:2 35:0 36:0 37:0 38:0 39:0 40:0 41:0 42:0 43:0 44:0 
0.090706148348506863 0:8 1:0 2:0 3:0 4:0 5:0 6:0 7:0 8:0 9:4 10:1 11:1 12:0 13:0 14:0 15:2 16:0 17:2 18:0 19:0 20:1 21:0 22:0 23:0 24:0 25:0 26:0 27:0 28:0 29:0 30:0 31:0 32:0 33:0 34:1 35:0 36:23 37:0 38:0 39:20 40:11 41:11 42:0 43:0 44:0 
0.07162078400075314 0:1 1:0 2:0 3:0 4:0 5:0 6:0 7:1 8:0 9:0 10:0 11:2 12:0 13:0 14:0 15:0 16:0 17:0 18:0 19:0 20:0 21:0 22:0 23:0 24:3 25:4 26:3 27:0 28:0 29:0 30:0 31:0 32:2 33:0 34:0 35:1 36:1 37:0 38:0 39:0 40:0 41:0 42:0 43:0 44:0 
0.1966515024623515 0:0 1:0 2:0 3:0 4:1 5:0 6:0 7:1 8:0 9:0 10:0 11:0 12:0 13:0 14:0 15:0 16:0 17:0 18:0 19:1 20:0 21:0 22:0 23:0 24:1 25:2 26:2 27:1 28:0 29:0 30:0 31:0 32:3 33:0 34:0 35:3 36:2 37:0 38:0 39:0 40:0 41:0 42:0 43:0 44:0 
0.41750694163834629 0:3 1:0 2:0 3:0 4:0 5:0 6:0 7:1 8:0 9:0 10:0 11:0 12:0 13:0 14:0 15:0 16:6 17:0 18:0 19:2 20:0 21:0 22:8 23:0 24:1 25:0 26:0 27:0 28:1 29:4 30:0 31:0 32:0 33:0 34:0 35:0 36:0 37:0 38:0 39:0 40:0 41:0 42:0 43:0 44:0 
0.06652084585165495 0:5 1:0 2:0 3:0 4:1 5:0 6:0 7:1 8:0 9:0 10:0 11:3 12:0 13:0 14:0 15:0 16:2 17:0 18:0 19:17 20:0 21:0 22:0 23:0 24:0 25:4 26:9 27:0 28:1 29:11 30:0 31:0 32:0 33:0 34:0 35:2 36:0 37:0 38:14 39:0 40:0 41:0 42:0 43:0 44:0 
1 0:3 1:0 2:0 3:0 4:0 5:1 6:0 7:1 8:0 9:1 10:0 11:0 12:0 13:2 14:0 15:0 16:0 17:0 18:0 19:1 20:0 21:0 22:0 23:0 24:0 25:0 26:0 27:0 28:0 29:0 30:0 31:0 32:2 33:0 34:0 35:1 36:0 37:0 38:0 39:0 40:0 41:0 42:0 43:0 44:0 
1 0:0 1:0 2:1 3:0 4:0 5:0 6:0 7:1 8:0 9:0 10:0 11:0 12:0 13:0 14:0 15:0 16:2 17:0 18:0 19:1 20:0 21:0 22:0 23:0 24:0 25:2 26:1 27:0 28:0 29:0 30:0 31:0 32:0 33:0 34:0 35:0 36:0 37:0 38:0 39:0 40:0 41:0 42:0 43:0 44:0 
0.71031552865731307 0:4 1:0 2:0 3:0 4:0 5:0 6:1 7:1 8:0 9:0 10:0 11:0 12:0 13:0 14:0 15:0 16:0 17:0 18:4 19:0 20:0 21:2 22:0 23:0 24:1 25:0 26:0 27:0 28:0 29:0 30:0 31:0 32:0 33:1 34:0 35:2 36:0 37:0 38:0 39:0 40:0 41:0 42:0 43:0 44:0 
1 0:1 1:0 2:0 3:0 4:2 5:0 6:0 7:1 8:0 9:0 10:0 11:0 12:0 13:0 14:0 15:0 16:0 17:0 18:0 19:0 20:0 21:0 22:3 23:0 24:4 25:0 26:1 27:1 28:0 29:0 30:0 31:0 32:0 33:0 34:0 35:1 36:2 37:0 38:0 39:0 40:0 41:0 42:0 43:0 44:0 
0.45889849533399019 0:4 1:0 2:0 3:1 4:1 5:0 6:0 7:1 8:0 9:0 10:0 11:0 12:0 13:0 14:0 15:0 16:0 17:0 18:0 19:0 20:0 21:0 22:1 23:0 24:2 25:2 26:2 27:0 28:0 29:1 30:0 31:0 32:0 33:1 34:0 35:1 36:0 37:0 38:0 39:0 40:0 41:0 42:0 43:0 44:0 
0.093191987214575264 0:3 1:1 2:2 3:1 4:1 5:1 6:3 7:1 8:0 9:0 10:0 11:5 12:0 13:0 14:0 15:0 16:0 17:3 18:0 19:3 20:0 21:1 22:0 23:1 24:1 25:0 26:0 27:0 28:1 29:1 30:0 31:5 32:0 33:0 34:2 35:0 36:1 37:0 38:0 39:0 40:0 41:0 42:3 43:2 44:16 
0.025117065001446788 0:0 1:0 2:0 3:0 4:1 5:0 6:0 7:3 8:0 9:0 10:4 11:3 12:2 13:4 14:1 15:0 16:2 17:0 18:0 19:32 20:0 21:0 22:0 23:0 24:1 25:0 26:1 27:2 28:0 29:0 30:0 31:2 32:0 33:0 34:6 35:2 36:3 37:0 38:0 39:0 40:0 41:0 42:0 43:0 44:2 
0.28409022219592511 0:2 1:0 2:2 3:1 4:1 5:1 6:3 7:1 8:0 9:0 10:1 11:5 12:2 13:0 14:0 15:0 16:0 17:3 18:0 19:2 20:0 21:1 22:0 23:1 24:1 25:0 26:2 27:0 28:2 29:2 30:0 31:3 32:0 33:0 34:0 35:0 36:1 37:0 38:0 39:0 40:0 41:0 42:3 43:2 44:16 
1 0:0 1:1 2:0 3:0 4:0 5:0 6:0 7:2 8:0 9:0 10:1 11:2 12:0 13:0 14:0 15:0 16:1 17:2 18:0 19:5 20:0 21:0 22:0 23:0 24:0 25:0 26:1 27:0 28:0 29:0 30:0 31:0 32:0 33:0 34:0 35:0 36:0 37:0 38:0 39:0 40:0 41:0 42:0 43:0 44:0 
0.025018204852164563 0:0 1:0 2:0 3:0 4:0 5:0 6:0 7:2 8:0 9:0 10:1 11:24 12:1 13:6 14:0 15:0 16:0 17:0 18:0 19:6 20:6 21:0 22:0 23:0 24:0 25:0 26:0 27:3 28:7 29:6 30:0 31:0 32:0 33:0 34:0 35:0 36:1 37:0 38:0 39:0 40:0 41:0 42:0 43:0 44:0 
0.029868108715070615 0:3 1:0 2:2 3:1 4:1 5:1 6:3 7:2 8:0 9:0 10:1 11:5 12:0 13:0 14:0 15:1 16:0 17:4 18:0 19:0 20:0 21:1 22:0 23:1 24:1 25:0 26:0 27:2 28:1 29:1 30:0 31:0 32:0 33:0 34:0 35:0 36:1 37:0 38:0 39:1 40:0 41:0 42:3 43:2 44:16 
0.10041323855109596 0:2 1:1 2:0 3:0 4:2 5:0 6:0 7:0 8:0 9:1 10:0 11:2 12:7 13:0 14:0 15:0 16:8 17:1 18:0 19:50 20:0 21:5 22:0 23:3 24:2 25:0 26:0 27:0 28:0 29:0 30:0 31:4 32:0 33:2 34:4 35:0 36:0 37:0 38:16 39:0 40:0 41:0 42:0 43:0 44:0 
0.13648390994904602 0:1 1:0 2:2 3:1 4:1 5:1 6:3 7:1 8:0 9:5 10:0 11:5 12:0 13:0 14:1 15:2 16:0 17:2 18:0 19:0 20:0 21:1 22:0 23:1 24:1 25:0 26:0 27:0 28:1 29:1 30:0 31:0 32:0 33:0 34:0 35:1 36:3 37:0 38:0 39:1 40:1 41:0 42:3 43:2 44:16 
0.097949317455490098 0:3 1:2 2:0 3:2 4:1 5:0 6:0 7:9 8:0 9:2 10:1 11:2 12:0 13:0 14:0 15:2 16:0 17:1 18:0 19:1 20:0 21:0 22:0 23:0 24:0 25:0 26:12 27:0 28:0 29:0 30:0 31:0 32:0 33:0 34:6 35:2 36:21 37:1 38:0 39:29 40:1 41:0 42:0 43:1 44:0 
1 0:0 1:0 2:0 3:0 4:0 5:0 6:0 7:1 8:0 9:0 10:0 11:0 12:0 13:0 14:0 15:0 16:0 17:0 18:0 19:0 20:0 21:0 22:0 23:0 24:0 25:0 26:0 27:1 28:0 29:0 30:0 31:0 32:0 33:0 34:0 35:0 36:0 37:1 38:2 39:0 40:0 41:0 42:0 43:0 44:0 
0.039271669457573002 0:5 1:6 2:3 3:1 4:2 5:1 6:3 7:1 8:0 9:0 10:0 11:5 12:0 13:0 14:0 15:0 16:0 17:2 18:0 19:8 20:2 21:1 22:0 23:1 24:1 25:0 26:0 27:0 28:1 29:1 30:0 31:6 32:0 33:0 34:4 35:0 36:1 37:0 38:0 39:0 40:0 41:0 42:3 43:2 44:16 
0.048713392607998063 0:0 1:0 2:0 3:0 4:1 5:0 6:0 7:0 8:0 9:0 10:0 11:1 12:6 13:0 14:0 15:0 16:12 17:0 18:0 19:22 20:0 21:3 22:0 23:0 24:1 25:0 26:0 27:0 28:0 29:0 30:0 31:1 32:0 33:0 34:1 35:0 36:0 37:0 38:0 39:0 40:0 41:0 42:0 43:0 44:0 
0.03787983830649929 0:1 1:0 2:2 3:2 4:1 5:1 6:3 7:1 8:0 9:0 10:1 11:5 12:0 13:0 14:0 15:0 16:0 17:2 18:0 19:4 20:0 21:1 22:0 23:1 24:1 25:0 26:0 27:0 28:3 29:3 30:6 31:0 32:0 33:0 34:3 35:3 36:2 37:0 38:0 39:0 40:0 41:0 42:3 43:2 44:16 
0.076062756086977337 0:1 1:0 2:2 3:1 4:1 5:1 6:3 7:1 8:0 9:0 10:0 11:5 12:0 13:0 14:0 15:0 16:0 17:2 18:0 19:15 20:0 21:1 22:0 23:1 24:1 25:0 26:1 27:0 28:2 29:4 30:0 31:0 32:0 33:0 34:1 35:0 36:1 37:0 38:6 39:0 40:0 41:0 42:3 43:2 44:16 
0.15401516028432494 0:2 1:0 2:2 3:2 4:1 5:1 6:3 7:2 8:0 9:0 10:0 11:5 12:0 13:0 14:0 15:1 16:0 17:1 18:0 19:0 20:0 21:1 22:0 23:1 24:1 25:0 26:1 27:0 28:1 29:1 30:0 31:0 32:0 33:0 34:0 35:1 36:1 37:0 38:0 39:3 40:0 41:5 42:3 43:2 44:16 
1 0:1 1:1 2:2 3:1 4:1 5:1 6:3 7:2 8:0 9:0 10:1 11:5 12:0 13:0 14:0 15:2 16:0 17:1 18:0 19:0 20:0 21:1 22:0 23:1 24:1 25:0 26:0 27:0 28:1 29:1 30:0 31:0 32:0 33:0 34:0 35:0 36:1 37:0 38:0 39:0 40:0 41:0 42:3 43:2 44:16 
0.023207145983357116 0:4 1:0 2:3 3:1 4:1 5:1 6:3 7:5 8:0 9:0 10:0 11:5 12:0 13:2 14:1 15:0 16:0 17:1 18:7 19:0 20:0 21:12 22:0 23:1 24:5 25:0 26:0 27:0 28:1 29:1 30:0 31:0 32:0 33:0 34:0 35:0 36:1 37:0 38:0 39:0 40:0 41:0 42:3 43:2 44:16 
0.042405726713060012 0:2 1:4 2:0 3:0 4:0 5:0 6:0 7:4 8:0 9:0 10:1 11:7 12:0 13:1 14:0 15:0 16:0 17:5 18:0 19:32 20:0 21:0 22:0 23:0 24:0 25:0 26:0 27:0 28:0 29:0 30:1 31:0 32:0 33:0 34:1 35:0 36:0 37:0 38:0 39:0 40:0 41:0 42:1 43:0 44:4 
1 0:0 1:1 2:0 3:1 4:0 5:0 6:0 7:2 8:0 9:0 10:1 11:0 12:0 13:0 14:0 15:0 16:0 17:0 18:0 19:0 20:0 21:0 22:0 23:0 24:0 25:0 26:1 27:2 28:0 29:0 30:0 31:0 32:0 33:1 34:0 35:1 36:0 37:0 38:0 39:0 40:0 41:0 42:0 43:0 44:0 
1 0:1 1:4 2:3 3:0 4:0 5:0 6:0 7:1 8:0 9:0 10:3 11:0 12:0 13:1 14:0 15:0 16:0 17:0 18:0 19:0 20:0 21:0 22:0 23:0 24:0 25:0 26:0 27:0 28:1 29:0 30:0 31:0 32:0 33:0 34:5 35:0 36:0 37:0 38:0 39:0 40:0 41:0 42:0 43:5 44:0 
1 0:0 1:0 2:0 3:0 4:0 5:0 6:0 7:1 8:0 9:0 10:0 11:0 12:0 13:0 14:0 15:0 16:0 17:0 18:3 19:0 20:0 21:0 22:0 23:0 24:0 25:1 26:1 27:0 28:2 29:0 30:0 31:0 32:0 33:0 34:0 35:0 36:0 37:0 38:0 39:0 40:0 41:0 42:0 43:0 44:0 
1 0:1 1:0 2:0 3:0 4:0 5:0 6:0 7:1 8:0 9:0 10:0 11:0 12:0 13:0 14:0 15:0 16:0 17:0 18:1 19:0 20:0 21:0 22:0 23:0 24:0 25:1 26:4 27:1 28:0 29:0 30:0 31:0 32:0 33:0 34:0 35:0 36:0 37:0 38:0 39:0 40:0 41:0 42:0 43:0 44:0 
0.032978021523414294 0:1 1:0 2:3 3:1 4:0 5:0 6:0 7:0 8:0 9:0 10:0 11:0 12:0 13:0 14:0 15:0 16:0 17:1 18:0 19:0 20:0 21:0 22:0 23:0 24:0 25:0 26:0 27:4 28:0 29:0 30:0 31:0 32:0 33:0 34:0 35:2 36:0 37:0 38:0 39:0 40:0 41:0 42:0 43:0 44:0 
-1 0:0 1:0 2:0 3:0 4:0 5:0 6:0 7:1 8:0 9:0 10:3 11:3 12:0 13:0 14:0 15:0 16:0 17:2 18:1 19:1 20:0 21:0 22:0 23:0 24:0 25:0 26:0 27:0 28:0 29:0 30:0 31:0 32:0 33:0 34:0 35:0 36:4 37:0 38:0 39:0 40:0 41:0 42:0 43:0 44:1 
-0.28465878099247865 0:0 1:0 2:2 3:0 4:0 5:1 6:0 7:1 8:0 9:0 10:2 11:1 12:0 13:0 14:0 15:0 16:0 17:1 18:0 19:0 20:0 21:0 22:0 23:0 24:0 25:0 26:0 27:0 28:0 29:0 30:0 31:0 32:0 33:0 34:0 35:0 36:10 37:0 38:0 39:0 40:0 41:0 42:0 43:0 44:0 
-1 0:3 1:0 2:0 3:0 4:1 5:0 6:0 7:0 8:1 9:0 10:0 11:0 12:0 13:0 14:0 15:0 16:0 17:0 18:0 19:0 20:0 21:0 22:0 23:0 24:0 25:0 26:0 27:0 28:0 29:0 30:0 31:0 32:0 33:1 34:0 35:0 36:0 37:0 38:0 39:0 40:0 41:0 42:0 43:0 44:0 
-1 0:0 1:0 2:0 3:0 4:0 5:0 6:0 7:0 8:0 9:0 10:1 11:0 12:0 13:0 14:0 15:0 16:0 17:4 18:0 19:0 20:0 21:0 22:0 23:0 24:0 25:0 26:0 27:0 28:0 29:0 30:0 31:0 32:0 33:0 34:0 35:0 36:2 37:0 38:0 39:0 40:0 41:0 42:0 43:0 44:0 
-1 0:0 1:0 2:1 3:0 4:0 5:2 6:0 7:2 8:0 9:0 10:6 11:2 12:0 13:0 14:0 15:0 16:0 17:0 18:0 19:0 20:0 21:0 22:0 23:0 24:0 25:0 26:0 27:0 28:0 29:0 30:0 31:0 32:0 33:0 34:0 35:0 36:4 37:0 38:0 39:0 40:0 41:0 42:0 43:0 44:0 
-1 0:0 1:0 2:0 3:1 4:0 5:0 6:1 7:7 8:0 9:0 10:0 11:0 12:0 13:0 14:0 15:0 16:0 17:0 18:0 19:0 20:0 21:0 22:0 23:0 24:1 25:14 26:0 27:0 28:0 29:0 30:0 31:0 32:0 33:0 34:0 35:0 36:0 37:0 38:0 39:0 40:0 41:0 42:0 43:0 44:0 
-0.87184380071664447 0:1 1:0 2:1 3:0 4:0 5:0 6:0 7:2 8:0 9:0 10:5 11:2 12:0 13:0 14:0 15:0 16:0 17:2 18:0 19:0 20:0 21:0 22:0 23:0 24:0 25:0 26:0 27:0 28:0 29:0 30:0 31:0 32:1 33:0 34:0 35:0 36:16 37:0 38:0 39:0 40:0 41:0 42:1 43:0 44:2 
-1 0:1 1:0 2:0 3:0 4:0 5:0 6:0 7:2 8:0 9:0 10:4 11:0 12:0 13:0 14:0 15:0 16:0 17:2 18:0 19:0 20:0 21:0 22:0 23:0 24:0 25:0 26:0 27:0 28:0 29:0 30:0 31:0 32:1 33:0 34:0 35:0 36:29 37:0 38:0 39:0 40:0 41:0 42:0 43:0 44:0 
-1 0:1 1:0 2:0 3:0 4:0 5:0 6:0 7:0 8:0 9:0 10:1 11:5 12:0 13:0 14:0 15:0 16:0 17:1 18:0 19:0 20:0 21:0 22:0 23:0 24:5 25:0 26:0 27:0 28:0 29:0 30:0 31:0 32:11 33:0 34:0 35:0 36:0 37:0 38:0 39:0 40:0 41:0 42:0 43:0 44:0 
-1 0:0 1:0 2:0 3:0 4:2 5:1 6:0 7:1 8:0 9:2 10:2 11:0 12:0 13:0 14:0 15:0 16:0 17:0 18:0 19:0 20:0 21:0 22:0 23:0 24:0 25:0 26:0 27:0 28:0 29:0 30:0 31:0 32:0 33:0 34:0 35:0 36:1 37:0 38:0 39:0 40:0 41:0 42:0 43:0 44:0 
-1 0:0 1:0 2:0 3:0 4:0 5:0 6:0 7:0 8:0 9:0 10:0 11:0 12:0 13:0 14:0 15:0 16:0 17:0 18:0 19:0 20:0 21:0 22:0 23:0 24:4 25:0 26:0 27:0 28:0 29:0 30:0 31:0 32:0 33:0 34:0 35:0 36:0 37:0 38:0 39:0 40:0 41:0 42:0 43:0 44:0 
-1 0:1 1:0 2:0 3:0 4:0 5:0 6:0 7:1 8:0 9:0 10:0 11:3 12:0 13:3 14:0 15:0 16:0 17:1 18:0 19:0 20:0 21:0 22:0 23:0 24:0 25:0 26:0 27:0 28:0 29:0 30:0 31:0 32:0 33:0 34:0 35:0 36:0 37:0 38:0 39:0 40:0 41:0 42:0 43:0 44:0 
-1 0:0 1:0 2:0 3:0 4:0 5:0 6:0 7:0 8:0 9:0 10:0 11:0 12:0 13:0 14:0 15:0 16:0 17:0 18:0 19:0 20:0 21:0 22:0 23:0 24:4 25:0 26:0 27:0 28:0 29:0 30:0 31:0 32:0 33:0 34:1 35:0 36:2 37:0 38:0 39:0 40:0 41:0 42:0 43:0 44:0 
-1 0:0 1:0 2:0 3:0 4:0 5:0 6:0 7:0 8:0 9:0 10:0 11:0 12:0 13:0 14:0 15:0 16:0 17:0 18:0 19:0 20:0 21:0 22:0 23:0 24:4 25:0 26:0 27:0 28:0 29:0 30:0 31:0 32:0 33:0 34:0 35:0 36:0 37:0 38:0 39:0 40:0 41:0 42:0 43:0 44:0 
-1 0:0 1:0 2:0 3:0 4:0 5:0 6:1 7:0 8:0 9:0 10:0 11:0 12:0 13:0 14:0 15:0 16:0 17:0 18:0 19:2 20:0 21:0 22:0 23:1 24:0 25:0 26:1 27:0 28:0 29:0 30:0 31:0 32:0 33:0 34:0 35:0 36:5 37:0 38:0 39:0 40:0 41:0 42:0 43:0 44:2 
-0.64314006806958157 0:0 1:1 2:0 3:0 4:0 5:0 6:1 7:3 8:0 9:0 10:5 11:2 12:0 13:0 14:0 15:0 16:0 17:0 18:0 19:0 20:0 21:0 22:0 23:0 24:0 25:0 26:0 27:0 28:0 29:0 30:0 31:0 32:0 33:0 34:0 35:0 36:1 37:0 38:0 39:0 40:0 41:0 42:1 43:12 44:6 
-1 0:0 1:0 2:0 3:0 4:0 5:0 6:0 7:0 8:0 9:0 10:0 11:0 12:0 13:0 14:0 15:0 16:0 17:0 18:0 19:3 20:0 21:0 22:0 23:0 24:4 25:0 26:0 27:0 28:0 29:0 30:0 31:0 32:0 33:0 34:1 35:0 36:0 37:0 38:0 39:0 40:0 41:0 42:0 43:4 44:2 
-0.71928763684577013 0:0 1:0 2:0 3:0 4:0 5:0 6:0 7:1 8:0 9:0 10:0 11:0 12:0 13:0 14:0 15:0 16:0 17:0 18:0 19:3 20:0 21:0 22:0 23:0 24:0 25:0 26:0 27:0 28:0 29:0 30:1 31:0 32:0 33:0 34:0 35:0 36:1 37:0 38:0 39:0 40:0 41:0 42:0 43:0 44:2 
-1 0:0 1:0 2:0 3:0 4:0 5:0 6:0 7:0 8:0 9:0 10:0 11:0 12:0 13:1 14:0 15:0 16:0 17:0 18:0 19:0 20:0 21:0 22:0 23:0 24:0 25:0 26:0 27:0 28:0 29:0 30:0 31:0 32:0 33:0 34:6 35:0 36:0 37:0 38:0 39:0 40:0 41:0 42:0 43:0 44:0 
-1 0:0 1:0 2:0 3:0 4:0 5:0 6:0 7:0 8:0 9:0 10:0 11:0 12:0 13:0 14:0 15:0 16:0 17:0 18:0 19:0 20:0 21:0 22:0 23:0 24:0 25:0 26:1 27:1 28:0 29:0 30:0 31:0 32:0 33:0 34:0 35:0 36:2 37:0 38:0 39:0 40:0 41:0 42:0 43:0 44:0 
-1 0:0 1:0 2:0 3:0 4:0 5:0 6:0 7:0 8:0 9:0 10:0 11:0 12:0 13:0 14:4 15:0 16:1 17:2 18:0 19:2 20:0 21:0 22:0 23:0 24:0 25:0 26:0 27:0 28:0 29:0 30:0 31:0 32:1 33:0 34:0 35:0 36:0 37:0 38:0 39:0 40:0 41:0 42:0 43:1 44:0 
-1 0:0 1:0 2:0 3:0 4:0 5:0 6:0 7:0 8:0 9:0 10:0 11:0 12:0 13:0 14:0 15:0 16:0 17:0 18:0 19:0 20:0 21:0 22:0 23:0 24:0 25:0 26:2 27:0 28:0 29:0 30:0 31:0 32:0 33:0 34:0 35:0 36:0 37:0 38:0 39:0 40:0 41:0 42:0 43:0 44:0 
-1 0:1 1:0 2:0 3:0 4:0 5:0 6:0 7:2 8:0 9:0 10:1 11:0 12:0 13:5 14:0 15:0 16:0 17:1 18:0 19:0 20:0 21:0 22:0 23:0 24:0 25:0 26:0 27:0 28:0 29:0 30:0 31:0 32:0 33:0 34:1 35:0 36:0 37:0 38:0 39:0 40:0 41:0 42:0 43:2 44:0 
-1 0:0 1:0 2:0 3:0 4:1 5:0 6:0 7:0 8:0 9:0 10:0 11:0 12:0 13:0 14:0 15:0 16:0 17:0 18:0 19:0 20:0 21:0 22:0 23:0 24:0 25:0 26:0 27:0 28:0 29:0 30:0 31:0 32:0 33:0 34:6 35:0 36:0 37:0 38:0 39:0 40:0 41:0 42:0 43:0 44:0 
-1 0:0 1:0 2:0 3:0 4:0 5:1 6:0 7:0 8:0 9:0 10:0 11:8 12:0 13:0 14:0 15:0 16:0 17:0 18:0 19:0 20:0 21:0 22:0 23:0 24:0 25:0 26:0 27:0 28:0 29:0 30:0 31:0 32:0 33:0 34:0 35:0 36:5 37:0 38:0 39:0 40:0 41:0 42:0 43:0 44:0 
-1 0:0 1:0 2:0 3:0 4:0 5:0 6:0 7:0 8:0 9:0 10:0 11:0 12:0 13:0 14:0 15:0 16:0 17:0 18:3 19:0 20:0 21:4 22:0 23:0 24:0 25:0 26:0 27:0 28:0 29:0 30:0 31:0 32:0 33:0 34:0 35:0 36:0 37:0 38:0 39:0 40:0 41:0 42:0 43:0 44:0 
-0.7904811512616472 0:0 1:0 2:2 3:0 4:0 5:2 6:0 7:0 8:0 9:0 10:0 11:0 12:0 13:0 14:0 15:0 16:0 17:0 18:0 19:2 20:0 21:0 22:0 23:1 24:0 25:0 26:0 27:0 28:0 29:0 30:0 31:0 32:0 33:0 34:0 35:0 36:1 37:0 38:0 39:0 40:0 41:0 42:0 43:0 44:0 
-1 0:0 1:0 2:0 3:0 4:0 5:0 6:0 7:0 8:0 9:0 10:1 11:1 12:0 13:0 14:0 15:0 16:0 17:0 18:0 19:2 20:0 21:0 22:0 23:2 24:0 25:0 26:0 27:0 28:0 29:0 30:0 31:0 32:0 33:0 34:0 35:0 36:0 37:0 38:0 39:0 40:0 41:0 42:0 43:0 44:0 
-1 0:0 1:0 2:0 3:0 4:0 5:0 6:0 7:0 8:0 9:0 10:0 11:0 12:1 13:0 14:0 15:0 16:0 17:0 18:0 19:6 20:0 21:0 22:0 23:0 24:0 25:0 26:0 27:0 28:0 29:0 30:0 31:0 32:0 33:0 34:0 35:0 36:0 37:0 38:0 39:0 40:0 41:0 42:0 43:0 44:1 
-0.74371729350473881 0:1 1:0 2:0 3:0 4:0 5:0 6:0 7:0 8:0 9:0 10:0 11:0 12:0 13:1 14:0 15:0 16:0 17:0 18:0 19:1 20:0 21:0 22:0 23:0 24:0 25:0 26:0 27:0 28:0 29:0 30:0 31:0 32:0 33:0 34:1 35:1 36:0 37:0 38:0 39:0 40:0 41:0 42:0 43:11 44:0 
-0.21897383303381432 0:0 1:0 2:0 3:0 4:0 5:0 6:0 7:0 8:0 9:0 10:0 11:0 12:0 13:0 14:0 15:0 16:5 17:0 18:0 19:2 20:0 21:0 22:0 23:0 24:0 25:0 26:0 27:0 28:0 29:0 30:0 31:0 32:0 33:0 34:0 35:0 36:0 37:0 38:0 39:0 40:0 41:0 42:0 43:0 44:0 
-1 0:0 1:0 2:1 3:0 4:0 5:0 6:0 7:1 8:0 9:0 10:0 11:0 12:0 13:0 14:0 15:0 16:0 17:0 18:0 19:5 20:0 21:0 22:0 23:0 24:0 25:0 26:0 27:0 28:0 29:0 30:0 31:0 32:0 33:0 34:1 35:0 36:0 37:0 38:0 39:0 40:0 41:0 42:0 43:0 44:0 
-1 0:0 1:1 2:0 3:0 4:0 5:0 6:0 7:0 8:0 9:0 10:0 11:0 12:0 13:0 14:0 15:0 16:0 17:0 18:0 19:2 20:2 21:0 22:1 23:0 24:0 25:0 26:0 27:0 28:0 29:0 30:0 31:0 32:1 33:0 34:0 35:0 36:1 37:0 38:0 39:0 40:0 41:0 42:0 43:0 44:1 
-1 0:0 1:0 2:0 3:0 4:0 5:0 6:0 7:7 8:0 9:0 10:0 11:0 12:0 13:0 14:0 15:0 16:0 17:1 18:0 19:1 20:0 21:0 22:0 23:0 24:0 25:0 26:1 27:0 28:0 29:0 30:0 31:0 32:0 33:0 34:0 35:0 36:0 37:0 38:0 39:0 40:0 41:0 42:0 43:0 44:0 
-1 0:0 1:0 2:0 3:0 4:0 5:0 6:0 7:0 8:0 9:0 10:0 11:1 12:0 13:0 14:0 15:0 16:4 17:1 18:0 19:3 20:1 21:0 22:0 23:0 24:0 25:0 26:0 27:0 28:0 29:0 30:0 31:0 32:0 33:0 34:0 35:0 36:0 37:0 38:0 39:0 40:0 41:0 42:0 43:0 44:0 
-1 0:0 1:0 2:1 3:0 4:0 5:0 6:0 7:1 8:0 9:0 10:0 11:0 12:0 13:0 14:0 15:0 16:0 17:0 18:0 19:5 20:0 21:0 22:0 23:0 24:0 25:0 26:0 27:0 28:0 29:0 30:0 31:0 32:0 33:0 34:1 35:0 36:0 37:0 38:0 39:0 40:0 41:0 42:0 43:0 44:0 
-1 0:0 1:0 2:1 3:0 4:1 5:0 6:0 7:0 8:0 9:0 10:3 11:1 12:0 13:0 14:0 15:0 16:0 17:0 18:0 19:0 20:5 21:0 22:0 23:0 24:0 25:0 26:0 27:0 28:0 29:0 30:0 31:0 32:0 33:0 34:0 35:0 36:2 37:0 38:0 39:0 40:0 41:0 42:0 43:0 44:0 
-1 0:0 1:0 2:0 3:0 4:0 5:0 6:0 7:0 8:0 9:0 10:0 11:0 12:0 13:0 14:0 15:0 16:0 17:0 18:0 19:0 20:0 21:0 22:0 23:0 24:0 25:0 26:2 27:0 28:0 29:0 30:0 31:0 32:0 33:0 34:0 35:0 36:1 37:0 38:0 39:0 40:0 41:0 42:0 43:0 44:0 
-1 0:0 1:0 2:0 3:0 4:1 5:0 6:0 7:1 8:0 9:0 10:0 11:0 12:0 13:0 14:0 15:0 16:0 17:0 18:0 19:2 20:0 21:0 22:0 23:0 24:0 25:0 26:0 27:0 28:0 29:0 30:0 31:0 32:6 33:0 34:0 35:0 36:1 37:0 38:0 39:0 40:0 41:0 42:0 43:0 44:0 
-1 0:0 1:1 2:0 3:0 4:0 5:0 6:0 7:1 8:0 9:0 10:0 11:2 12:0 13:0 14:0 15:0 16:0 17:0 18:0 19:1 20:1 21:0 22:0 23:0 24:0 25:0 26:0 27:0 28:0 29:0 30:0 31:0 32:0 33:0 34:4 35:0 36:0 37:1 38:0 39:0 40:0 41:0 42:0 43:0 44:0 
-1 0:0 1:0 2:0 3:0 4:0 5:1 6:0 7:1 8:0 9:0 10:0 11:0 12:0 13:0 14:0 15:0 16:0 17:0 18:0 19:0 20:0 21:0 22:0 23:0 24:0 25:0 26:1 27:0 28:0 29:0 30:0 31:0 32:0 33:0 34:0 35:1 36:0 37:0 38:0 39:0 40:0 41:0 42:0 43:0 44:0 
-1 0:0 1:0 2:0 3:0 4:1 5:0 6:0 7:0 8:0 9:0 10:0 11:0 12:0 13:4 14:0 15:0 16:0 17:0 18:0 19:0 20:0 21:0 22:0 23:0 24:0 25:0 26:0 27:0 28:0 29:0 30:0 31:0 32:0 33:0 34:0 35:0 36:1 37:0 38:0 39:0 40:0 41:0 42:0 43:0 44:0 
-1 0:0 1:0 2:1 3:0 4:0 5:0 6:0 7:0 8:0 9:0 10:0 11:0 12:0 13:1 14:0 15:0 16:0 17:0 18:0 19:5 20:0 21:0 22:0 23:0 24:0 25:0 26:0 27:0 28:0 29:0 30:0 31:0 32:0 33:0 34:1 35:0 36:0 37:0 38:0 39:0 40:0 41:0 42:0 43:0 44:0 
-1 0:1 1:0 2:0 3:0 4:0 5:0 6:0 7:0 8:0 9:0 10:0 11:0 12:0 13:0 14:0 15:0 16:0 17:0 18:0 19:0 20:0 21:0 22:0 23:0 24:2 25:0 26:1 27:0 28:0 29:0 30:0 31:0 32:0 33:0 34:0 35:0 36:0 37:0 38:0 39:0 40:0 41:0 42:0 43:0 44:0 
-1 0:0 1:0 2:0 3:0 4:0 5:1 6:0 7:0 8:0 9:0 10:0 11:8 12:0 13:0 14:0 15:0 16:0 17:1 18:0 19:0 20:0 21:0 22:0 23:0 24:0 25:0 26:1 27:0 28:0 29:0 30:0 31:0 32:0 33:0 34:0 35:0 36:0 37:0 38:0 39:0 40:0 41:0 42:0 43:0 44:0 
-1 0:1 1:0 2:1 3:0 4:0 5:0 6:0 7:0 8:2 9:0 10:0 11:1 12:0 13:0 14:0 15:0 16:0 17:0 18:0 19:0 20:0 21:0 22:0 23:0 24:0 25:0 26:0 27:1 28:0 29:0 30:0 31:0 32:0 33:0 34:0 35:0 36:0 37:0 38:0 39:0 40:0 41:0 42:0 43:0 44:0 
-0.022484033294975378 0:0 1:0 2:0 3:0 4:0 5:0 6:0 7:0 8:0 9:3 10:0 11:1 12:0 13:1 14:0 15:0 16:0 17:0 18:0 19:0 20:0 21:0 22:0 23:0 24:0 25:0 26:0 27:0 28:0 29:0 30:0 31:0 32:0 33:0 34:0 35:0 36:0 37:0 38:0 39:0 40:0 41:0 42:0 43:0 44:1 
-1 0:0 1:0 2:0 3:0 4:1 5:0 6:0 7:0 8:0 9:0 10:0 11:0 12:0 13:4 14:0 15:0 16:0 17:0 18:0 19:0 20:0 21:0 22:0 23:0 24:0 25:0 26:0 27:0 28:0 29:0 30:0 31:0 32:0 33:0 34:0 35:0 36:1 37:0 38:0 39:0 40:0 41:0 42:0 43:0 44:0 
-1 0:1 1:1 2:0 3:0 4:0 5:0 6:0 7:0 8:0 9:0 10:0 11:0 12:0 13:0 14:0 15:0 16:0 17:0 18:0 19:2 20:0 21:0 22:0 23:0 24:0 25:0 26:0 27:0 28:0 29:0 30:1 31:0 32:0 33:0 34:0 35:0 36:0 37:0 38:0 39:0 40:0 41:0 42:0 43:0 44:0 
-1 0:1 1:1 2:0 3:0 4:0 5:0 6:0 7:0 8:0 9:0 10:0 11:0 12:0 13:0 14:0 15:0 16:0 17:0 18:0 19:2 20:0 21:0 22:0 23:0 24:0 25:0 26:0 27:0 28:0 29:0 30:1 31:0 32:0 33:0 34:0 35:0 36:0 37:0 38:0 39:0 40:0 41:0 42:0 43:0 44:0 
-1 0:2 1:0 2:1 3:0 4:0 5:0 6:0 7:1 8:0 9:0 10:0 11:0 12:0 13:0 14:0 15:0 16:0 17:0 18:0 19:5 20:0 21:0 22:0 23:0 24:0 25:0 26:0 27:0 28:0 29:0 30:0 31:0 32:0 33:0 34:1 35:0 36:0 37:0 38:0 39:0 40:0 41:0 42:0 43:1 44:0 
-0.66782324266899151 0:0 1:0 2:0 3:0 4:0 5:0 6:0 7:1 8:0 9:0 10:0 11:0 12:0 13:1 14:0 15:0 16:0 17:0 18:0 19:0 20:0 21:0 22:0 23:0 24:0 25:0 26:0 27:0 28:0 29:0 30:0 31:0 32:0 33:0 34:0 35:0 36:0 37:0 38:0 39:0 40:0 41:0 42:2 43:15 44:9 
-1 0:0 1:0 2:0 3:0 4:0 5:0 6:0 7:1 8:0 9:0 10:0 11:0 12:0 13:0 14:0 15:0 16:0 17:0 18:0 19:3 20:0 21:0 22:0 23:0 24:0 25:0 26:0 27:0 28:0 29:0 30:0 31:0 32:0 33:0 34:0 35:0 36:0 37:0 38:0 39:0 40:0 41:0 42:0 43:0 44:0 
-1 0:0 1:1 2:0 3:0 4:0 5:0 6:0 7:0 8:0 9:0 10:0 11:0 12:0 13:1 14:0 15:0 16:0 17:0 18:0 19:2 20:0 21:0 22:0 23:0 24:0 25:0 26:0 27:0 28:0 29:1 30:0 31:0 32:0 33:0 34:0 35:0 36:0 37:0 38:0 39:0 40:0 41:0 42:0 43:0 44:0 
-1 0:0 1:0 2:0 3:0 4:0 5:0 6:0 7:0 8:0 9:0 10:0 11:2 12:0 13:0 14:0 15:0 16:0 17:0 18:0 19:3 20:0 21:0 22:1 23:0 24:0 25:0 26:2 27:0 28:0 29:0 30:0 31:0 32:0 33:0 34:0 35:0 36:0 37:0 38:0 39:0 40:0 41:0 42:0 43:0 44:0 
-1 0:0 1:0 2:0 3:0 4:0 5:0 6:0 7:1 8:1 9:0 10:0 11:0 12:0 13:0 14:0 15:0 16:0 17:0 18:0 19:1 20:0 21:0 22:0 23:0 24:0 25:0 26:1 27:0 28:0 29:0 30:0 31:0 32:0 33:0 34:0 35:0 36:0 37:0 38:0 39:0 40:0 41:0 42:0 43:0 44:0 
-1 0:0 1:0 2:0 3:0 4:0 5:0 6:0 7:0 8:0 9:0 10:0 11:1 12:0 13:0 14:0 15:0 16:0 17:1 18:0 19:1 20:0 21:0 22:0 23:0 24:0 25:0 26:0 27:0 28:0 29:0 30:0 31:0 32:8 33:0 34:0 35:0 36:0 37:0 38:0 39:0 40:0 41:0 42:0 43:0 44:0 
-1 0:0 1:0 2:0 3:0 4:0 5:0 6:0 7:1 8:0 9:0 10:0 11:0 12:0 13:0 14:0 15:0 16:0 17:0 18:0 19:1 20:0 21:0 22:0 23:0 24:0 25:0 26:1 27:0 28:0 29:0 30:0 31:0 32:0 33:0 34:0 35:0 36:0 37:0 38:0 39:0 40:0 41:0 42:0 43:0 44:0 
-1 0:1 1:0 2:0 3:0 4:0 5:0 6:0 7:0 8:0 9:0 10:0 11:0 12:0 13:0 14:0 15:0 16:0 17:0 18:0 19:1 20:0 21:0 22:0 23:0 24:0 25:3 26:3 27:0 28:0 29:0 30:0 31:0 32:0 33:0 34:0 35:0 36:0 37:0 38:0 39:0 40:0 41:0 42:0 43:0 44:0 
-1 0:0 1:0 2:0 3:0 4:0 5:0 6:0 7:0 8:0 9:0 10:0 11:0 12:0 13:1 14:0 15:0 16:0 17:0 18:0 19:7 20:0 21:0 22:0 23:0 24:0 25:0 26:0 27:0 28:0 29:1 30:0 31:0 32:0 33:0 34:0 35:0 36:0 37:0 38:0 39:0 40:0 41:0 42:0 43:0 44:0 
-1 0:0 1:0 2:0 3:0 4:0 5:0 6:0 7:0 8:0 9:0 10:0 11:0 12:0 13:0 14:0 15:0 16:0 17:0 18:0 19:3 20:0 21:0 22:0 23:0 24:0 25:0 26:0 27:0 28:0 29:0 30:0 31:0 32:0 33:0 34:0 35:0 36:0 37:0 38:0 39:0 40:0 41:0 42:0 43:0 44:0 
-1 0:0 1:0 2:0 3:0 4:0 5:0 6:0 7:1 8:1 9:0 10:0 11:0 12:0 13:0 14:0 15:0 16:3 17:0 18:0 19:5 20:0 21:0 22:0 23:0 24:0 25:0 26:0 27:0 28:0 29:0 30:0 31:0 32:0 33:0 34:0 35:0 36:0 37:0 38:0 39:0 40:0 41:0 42:0 43:0 44:0 
-1 0:0 1:0 2:0 3:0 4:0 5:0 6:0 7:0 8:0 9:0 10:0 11:0 12:0 13:0 14:0 15:0 16:0 17:0 18:0 19:1 20:0 21:0 22:0 23:0 24:1 25:0 26:0 27:0 28:0 29:0 30:0 31:0 32:0 33:0 34:0 35:2 36:0 37:0 38:0 39:0 40:0 41:0 42:0 43:0 44:0 
-1 0:3 1:0 2:0 3:0 4:0 5:0 6:0 7:0 8:0 9:1 10:6 11:0 12:0 13:0 14:0 15:0 16:0 17:3 18:0 19:1 20:0 21:0 22:0 23:0 24:0 25:0 26:0 27:0 28:0 29:0 30:0 31:0 32:0 33:0 34:0 35:0 36:0 37:0 38:0 39:0 40:0 41:0 42:0 43:0 44:2 
-0.27375844673567801 0:1 1:0 2:0 3:0 4:0 5:0 6:0 7:0 8:0 9:2 10:1 11:0 12:0 13:0 14:0 15:0 16:0 17:0 18:0 19:0 20:0 21:0 22:0 23:0 24:0 25:0 26:0 27:0 28:0 29:0 30:0 31:0 32:0 33:0 34:0 35:0 36:0 37:0 38:0 39:0 40:0 41:0 42:0 43:15 44:4 
-0.89918480334312123 0:0 1:0 2:0 3:0 4:0 5:0 6:0 7:1 8:0 9:0 10:1 11:2 12:0 13:0 14:0 15:0 16:0 17:0 18:0 19:0 20:0 21:1 22:0 23:0 24:0 25:0 26:0 27:0 28:0 29:0 30:0 31:0 32:6 33:0 34:0 35:0 36:2 37:0 38:0 39:0 40:0 41:0 42:0 43:0 44:0 
-0.78168316746228217 0:0 1:0 2:0 3:0 4:0 5:0 6:0 7:0 8:0 9:0 10:2 11:0 12:0 13:0 14:0 15:0 16:0 17:0 18:0 19:0 20:0 21:0 22:0 23:0 24:0 25:0 26:0 27:0 28:0 29:0 30:0 31:0 32:0 33:0 34:0 35:0 36:9 37:0 38:0 39:0 40:0 41:0 42:0 43:0 44:0 
-1 0:1 1:2 2:0 3:0 4:0 5:0 6:0 7:0 8:0 9:0 10:0 11:0 12:0 13:0 14:0 15:0 16:0 17:0 18:0 19:0 20:0 21:0 22:0 23:0 24:0 25:0 26:0 27:2 28:0 29:0 30:0 31:0 32:0 33:0 34:0 35:0 36:0 37:0 38:0 39:0 40:0 41:0 42:0 43:0 44:0 
-1 0:0 1:0 2:0 3:1 4:0 5:0 6:0 7:1 8:0 9:0 10:2 11:0 12:0 13:0 14:0 15:0 16:0 17:0 18:0 19:0 20:1 21:0 22:0 23:0 24:0 25:0 26:0 27:0 28:0 29:0 30:0 31:0 32:0 33:0 34:0 35:0 36:9 37:0 38:0 39:0 40:0 41:0 42:0 43:0 44:1 
-1 0:1 1:1 2:0 3:1 4:0 5:0 6:0 7:1 8:0 9:0 10:2 11:0 12:0 13:0 14:0 15:0 16:0 17:1 18:0 19:0 20:0 21:0 22:0 23:0 24:0 25:0 26:0 27:0 28:0 29:0 30:0 31:0 32:2 33:0 34:0 35:0 36:0 37:0 38:0 39:0 40:0 41:0 42:0 43:0 44:0 
-1 0:3 1:0 2:0 3:0 4:0 5:0 6:0 7:0 8:0 9:0 10:0 11:0 12:0 13:0 14:0 15:0 16:0 17:3 18:0 19:0 20:0 21:0 22:0 23:0 24:0 25:0 26:0 27:0 28:0 29:0 30:0 31:0 32:0 33:0 34:0 35:0 36:0 37:0 38:0 39:0 40:0 41:0 42:0 43:0 44:0 
-1 0:0 1:0 2:0 3:0 4:0 5:0 6:0 7:0 8:0 9:0 10:0 11:0 12:0 13:0 14:0 15:0 16:0 17:0 18:0 19:4 20:0 21:0 22:0 23:2 24:0 25:0 26:0 27:0 28:0 29:0 30:0 31:0 32:0 33:0 34:0 35:0 36:0 37:0 38:0 39:0 40:0 41:0 42:0 43:0 44:0 
-1 0:0 1:0 2:0 3:0 4:0 5:0 6:0 7:0 8:0 9:0 10:0 11:0 12:0 13:0 14:0 15:0 16:0 17:5 18:0 19:0 20:0 21:0 22:0 23:0 24:0 25:0 26:2 27:0 28:0 29:0 30:0 31:0 32:0 33:0 34:0 35:0 36:0 37:0 38:0 39:0 40:0 41:0 42:0 43:0 44:0 
-0.99453602829071508 0:0 1:2 2:1 3:0 4:0 5:0 6:0 7:0 8:0 9:0 10:2 11:0 12:0 13:0 14:0 15:0 16:0 17:0 18:0 19:0 20:0 21:0 22:0 23:0 24:0 25:0 26:4 27:0 28:0 29:0 30:0 31:0 32:0 33:0 34:0 35:0 36:0 37:0 38:0 39:0 40:0 41:0 42:0 43:0 44:14 
-1 0:5 1:0 2:0 3:0 4:0 5:0 6:0 7:1 8:0 9:0 10:0 11:1 12:0 13:0 14:0 15:0 16:0 17:1 18:0 19:0 20:0 21:0 22:0 23:0 24:0 25:0 26:0 27:0 28:0 29:0 30:0 31:0 32:0 33:0 34:1 35:0 36:1 37:0 38:0 39:0 40:0 41:0 42:0 43:0 44:0 
-1 0:0 1:0 2:0 3:0 4:0 5:1 6:0 7:5 8:2 9:0 10:0 11:0 12:0 13:0 14:0 15:0 16:0 17:0 18:0 19:1 20:0 21:0 22:0 23:1 24:0 25:0 26:0 27:0 28:0 29:0 30:0 31:0 32:0 33:0 34:0 35:0 36:0 37:0 38:0 39:0 40:0 41:0 42:0 43:0 44:1 
-1 0:3 1:0 2:0 3:0 4:0 5:0 6:0 7:0 8:0 9:0 10:0 11:0 12:0 13:0 14:0 15:0 16:0 17:0 18:0 19:0 20:3 21:0 22:0 23:0 24:0 25:0 26:0 27:0 28:0 29:0 30:0 31:0 32:0 33:0 34:0 35:0 36:0 37:0 38:0 39:0 40:0 41:0 42:0 43:0 44:0 
-1 0:0 1:3 2:0 3:0 4:0 5:0 6:0 7:2 8:0 9:0 10:0 11:0 12:0 13:0 14:0 15:0 16:0 17:0 18:0 19:0 20:0 21:0 22:0 23:0 24:0 25:0 26:0 27:0 28:0 29:0 30:0 31:0 32:0 33:0 34:0 35:0 36:0 37:0 38:0 39:0 40:0 41:0 42:0 43:0 44:0 
-1 0:1 1:0 2:3 3:0 4:0 5:0 6:0 7:0 8:0 9:0 10:2 11:0 12:0 13:0 14:0 15:0 16:0 17:0 18:0 19:0 20:0 21:0 22:0 23:0 24:0 25:0 26:0 27:0 28:0 29:0 30:0 31:0 32:0 33:0 34:0 35:0 36:2 37:0 38:0 39:0 40:0 41:0 42:0 43:0 44:0 
-1 0:0 1:0 2:0 3:0 4:0 5:0 6:0 7:3 8:0 9:0 10:0 11:0 12:0 13:0 14:5 15:0 16:0 17:0 18:0 19:0 20:0 21:0 22:0 23:0 24:0 25:0 26:1 27:0 28:0 29:0 30:0 31:0 32:0 33:0 34:0 35:0 36:2 37:0 38:0 39:0 40:0 41:0 42:0 43:0 44:0 
-1 0:0 1:0 2:1 3:0 4:0 5:1 6:0 7:4 8:0 9:0 10:0 11:1 12:0 13:0 14:0 15:0 16:0 17:0 18:0 19:0 20:0 21:0 22:0 23:0 24:0 25:0 26:0 27:0 28:0 29:0 30:0 31:0 32:0 33:0 34:0 35:0 36:2 37:0 38:0 39:0 40:0 41:0 42:0 43:0 44:0 
-1 0:0 1:0 2:1 3:0 4:0 5:0 6:0 7:0 8:0 9:0 10:0 11:0 12:0 13:0 14:0 15:0 16:0 17:1 18:0 19:0 20:0 21:0 22:0 23:3 24:0 25:0 26:0 27:0 28:0 29:0 30:0 31:0 32:0 33:0 34:2 35:0 36:4 37:0 38:0 39:0 40:0 41:0 42:0 43:0 44:0 
-1 0:0 1:0 2:0 3:0 4:0 5:0 6:0 7:0 8:0 9:0 10:0 11:0 12:0 13:0 14:0 15:0 16:0 17:0 18:4 19:0 20:0 21:0 22:0 23:0 24:1 25:0 26:0 27:0 28:0 29:0 30:0 31:0 32:0 33:0 34:0 35:0 36:0 37:1 38:0 39:0 40:0 41:0 42:0 43:0 44:0 
-0.2779857603877372 0:0 1:0 2:1 3:0 4:0 5:0 6:0 7:0 8:0 9:0 10:3 11:0 12:0 13:1 14:0 15:0 16:0 17:0 18:0 19:0 20:0 21:0 22:0 23:0 24:0 25:0 26:0 27:0 28:0 29:0 30:0 31:0 32:0 33:0 34:0 35:0 36:2 37:0 38:0 39:0 40:0 41:0 42:0 43:0 44:0 
-1 0:0 1:0 2:0 3:0 4:0 5:1 6:0 7:0 8:0 9:0 10:0 11:0 12:0 13:2 14:0 15:0 16:0 17:0 18:0 19:0 20:0 21:0 22:0 23:0 24:0 25:0 26:2 27:0 28:0 29:0 30:0 31:0 32:0 33:0 34:0 35:0 36:2 37:0 38:0 39:0 40:0 41:0 42:0 43:0 44:0 
-0.60297778403376834 0:0 1:0 2:0 3:0 4:0 5:0 6:0 7:1 8:0 9:0 10:0 11:0 12:0 13:0 14:0 15:0 16:0 17:0 18:0 19:0 20:0 21:0 22:0 23:0 24:3 25:0 26:0 27:0 28:0 29:0 30:0 31:0 32:4 33:0 34:0 35:0 36:0 37:0 38:0 39:0 40:0 41:0 42:0 43:0 44:0 
-1 0:0 1:0 2:0 3:0 4:0 5:0 6:0 7:1 8:0 9:0 10:0 11:0 12:0 13:0 14:0 15:0 16:2 17:0 18:0 19:5 20:0 21:0 22:0 23:0 24:0 25:0 26:0 27:0 28:0 29:0 30:0 31:0 32:0 33:0 34:0 35:3 36:0 37:0 38:0 39:0 40:0 41:0 42:0 43:0 44:0 
-1 0:0 1:0 2:0 3:0 4:0 5:0 6:0 7:1 8:0 9:0 10:0 11:0 12:0 13:0 14:0 15:0 16:0 17:0 18:0 19:0 20:0 21:0 22:0 23:0 24:0 25:4 26:3 27:0 28:0 29:0 30:0 31:0 32:0 33:0 34:0 35:0 36:0 37:0 38:0 39:0 40:0 41:0 42:0 43:0 44:0 
-0.4327509572666331 0:0 1:0 2:0 3:0 4:0 5:0 6:0 7:1 8:0 9:0 10:1 11:0 12:0 13:0 14:0 15:0 16:5 17:0 18:0 19:1 20:0 21:0 22:0 23:0 24:0 25:0 26:0 27:0 28:0 29:0 30:0 31:0 32:0 33:0 34:0 35:0 36:0 37:0 38:0 39:0 40:0 41:0 42:0 43:0 44:0 
-1 0:0 1:0 2:0 3:0 4:0 5:0 6:0 7:0 8:0 9:0 10:0 11:0 12:0 13:0 14:0 15:0 16:0 17:0 18:0 19:2 20:0 21:0 22:0 23:0 24:0 25:0 26:0 27:0 28:2 29:2 30:0 31:0 32:0 33:0 34:0 35:0 36:0 37:0 38:0 39:0 40:0 41:0 42:0 43:0 44:0 
-1 0:1 1:0 2:0 3:0 4:0 5:0 6:0 7:1 8:0 9:0 10:0 11:0 12:0 13:0 14:0 15:0 16:0 17:0 18:0 19:0 20:0 21:0 22:3 23:0 24:1 25:0 26:0 27:0 28:0 29:0 30:0 31:0 32:0 33:0 34:0 35:0 36:0 37:0 38:0 39:0 40:0 41:0 42:0 43:0 44:0 
-1 0:0 1:0 2:1 3:0 4:0 5:0 6:0 7:1 8:0 9:0 10:0 11:0 12:0 13:0 14:0 15:0 16:0 17:0 18:0 19:3 20:0 21:0 22:0 23:0 24:0 25:0 26:0 27:0 28:0 29:0 30:0 31:0 32:0 33:0 34:0 35:0 36:0 37:0 38:0 39:0 40:0 41:0 42:0 43:0 44:0 
-1 0:0 1:0 2:0 3:0 4:0 5:0 6:0 7:1 8:0 9:0 10:0 11:0 12:0 13:0 14:0 15:0 16:2 17:0 18:0 19:1 20:0 21:0 22:0 23:0 24:0 25:0 26:0 27:0 28:0 29:0 30:3 31:0 32:0 33:0 34:0 35:0 36:0 37:0 38:0 39:0 40:0 41:0 42:0 43:0 44:0 
-0.40561109650780736 0:0 1:0 2:0 3:0 4:0 5:0 6:0 7:3 8:0 9:0 10:0 11:0 12:0 13:0 14:0 15:0 16:5 17:0 18:0 19:0 20:0 21:0 22:0 23:0 24:0 25:0 26:0 27:0 28:0 29:0 30:0 31:0 32:0 33:0 34:0 35:0 36:0 37:0 38:0 39:0 40:0 41:0 42:0 43:0 44:0 
-1 0:0 1:0 2:0 3:0 4:0 5:0 6:0 7:1 8:0 9:0 10:0 11:0 12:0 13:0 14:0 15:0 16:4 17:0 18:3 19:0 20:0 21:0 22:0 23:0 24:0 25:0 26:0 27:0 28:0 29:0 30:0 31:0 32:0 33:0 34:0 35:0 36:0 37:0 38:0 39:0 40:0 41:0 42:0 43:0 44:0 
-0.32327243469419942 0:2 1:1 2:0 3:0 4:0 5:0 6:0 7:0 8:0 9:0 10:0 11:0 12:0 13:0 14:0 15:0 16:0 17:0 18:0 19:0 20:0 21:0 22:0 23:0 24:0 25:0 26:0 27:0 28:0 29:0 30:0 31:0 32:0 33:0 34:0 35:0 36:0 37:1 38:0 39:0 40:0 41:0 42:4 43:1 44:15 
-0.3750938283367698 0:1 1:0 2:0 3:0 4:0 5:0 6:0 7:0 8:0 9:0 10:0 11:0 12:0 13:0 14:0 15:0 16:0 17:0 18:0 19:1 20:0 21:0 22:0 23:0 24:0 25:0 26:0 27:0 28:0 29:0 30:0 31:0 32:0 33:0 34:0 35:0 36:3 37:0 38:0 39:0 40:0 41:0 42:0 43:0 44:0 
-1 0:0 1:3 2:0 3:0 4:0 5:1 6:1 7:0 8:0 9:0 10:0 11:0 12:0 13:0 14:0 15:0 16:0 17:1 18:0 19:2 20:0 21:0 22:0 23:2 24:0 25:0 26:1 27:0 28:0 29:0 30:0 31:0 32:0 33:0 34:0 35:0 36:0 37:2 38:0 39:0 40:0 41:0 42:0 43:0 44:19 
-1 0:0 1:1 2:0 3:0 4:0 5:0 6:0 7:0 8:0 9:0 10:0 11:1 12:0 13:1 14:0 15:0 16:0 17:0 18:0 19:0 20:0 21:0 22:0 23:0 24:0 25:0 26:0 27:0 28:0 29:0 30:0 31:0 32:0 33:0 34:2 35:0 36:1 37:7 38:0 39:0 40:0 41:0 42:0 43:0 44:2 
-0.1642255171339829 0:0 1:0 2:0 3:0 4:0 5:0 6:0 7:0 8:0 9:0 10:0 11:0 12:0 13:0 14:0 15:0 16:0 17:1 18:0 19:0 20:0 21:0 22:0 23:0 24:0 25:0 26:0 27:0 28:0 29:0 30:0 31:0 32:0 33:0 34:7 35:0 36:0 37:1 38:0 39:0 40:0 41:0 42:0 43:0 44:7 
-1 0:1 1:2 2:0 3:0 4:0 5:0 6:0 7:0 8:1 9:0 10:0 11:0 12:0 13:2 14:0 15:0 16:0 17:0 18:0 19:0 20:0 21:0 22:0 23:0 24:0 25:0 26:0 27:0 28:0 29:0 30:0 31:0 32:0 33:0 34:1 35:0 36:0 37:2 38:0 39:0 40:0 41:0 42:8 43:6 44:14 
-1 0:0 1:0 2:0 3:0 4:0 5:0 6:0 7:0 8:0 9:0 10:0 11:0 12:0 13:0 14:0 15:0 16:0 17:0 18:0 19:0 20:4 21:0 22:0 23:0 24:2 25:0 26:0 27:0 28:0 29:0 30:0 31:0 32:0 33:0 34:2 35:0 36:0 37:0 38:0 39:0 40:0 41:0 42:0 43:0 44:0 
-1 0:2 1:0 2:0 3:0 4:0 5:0 6:0 7:0 8:0 9:0 10:0 11:0 12:0 13:0 14:0 15:0 16:0 17:0 18:0 19:0 20:0 21:0 22:0 23:0 24:0 25:1 26:5 27:0 28:0 29:0 30:0 31:0 32:0 33:0 34:0 35:0 36:0 37:0 38:0 39:0 40:0 41:0 42:0 43:0 44:0 
-0.84990780823344092 0:0 1:0 2:0 3:0 4:0 5:0 6:0 7:1 8:0 9:0 10:0 11:0 12:0 13:3 14:0 15:0 16:0 17:0 18:0 19:0 20:0 21:0 22:0 23:0 24:0 25:0 26:0 27:0 28:0 29:0 30:0 31:0 32:0 33:0 34:0 35:0 36:0 37:0 38:0 39:0 40:0 41:0 42:0 43:0 44:0 
-1 0:0 1:1 2:0 3:0 4:0 5:0 6:0 7:0 8:0 9:0 10:0 11:0 12:0 13:0 14:0 15:0 16:0 17:0 18:0 19:0 20:0 21:0 22:0 23:0 24:2 25:0 26:1 27:0 28:0 29:0 30:0 31:0 32:0 33:0 34:0 35:0 36:0 37:0 38:0 39:0 40:0 41:0 42:0 43:0 44:0 
