FANN_FLO_2.1
num_layers=7
learning_rate=0.700000
connection_rate=1.000000
network_type=0
learning_momentum=0.000000
training_algorithm=2
train_error_function=1
train_stop_function=0
cascade_output_change_fraction=0.010000
quickprop_decay=-0.000100
quickprop_mu=1.750000
rprop_increase_factor=1.200000
rprop_decrease_factor=0.500000
rprop_delta_min=0.000000
rprop_delta_max=50.000000
rprop_delta_zero=0.100000
cascade_output_stagnation_epochs=12
cascade_candidate_change_fraction=0.010000
cascade_candidate_stagnation_epochs=12
cascade_max_out_epochs=150
cascade_min_out_epochs=50
cascade_max_cand_epochs=150
cascade_min_cand_epochs=50
cascade_num_candidate_groups=2
bit_fail_limit=3.49999999999999977796e-01
cascade_candidate_limit=1.00000000000000000000e+03
cascade_weight_multiplier=4.00000000000000022204e-01
cascade_activation_functions_count=10
cascade_activation_functions=3 5 7 8 10 11 14 15 16 17 
cascade_activation_steepnesses_count=4
cascade_activation_steepnesses=2.50000000000000000000e-01 5.00000000000000000000e-01 7.50000000000000000000e-01 1.00000000000000000000e+00 
layer_sizes=46 3 9 5 4 5 2 
scale_included=0
neurons (num_inputs, activation_function, activation_steepness)=(0, 0, 0.00000000000000000000e+00) (0, 0, 0.00000000000000000000e+00) (0, 0, 0.00000000000000000000e+00) (0, 0, 0.00000000000000000000e+00) (0, 0, 0.00000000000000000000e+00) (0, 0, 0.00000000000000000000e+00) (0, 0, 0.00000000000000000000e+00) (0, 0, 0.00000000000000000000e+00) (0, 0, 0.00000000000000000000e+00) (0, 0, 0.00000000000000000000e+00) (0, 0, 0.00000000000000000000e+00) (0, 0, 0.00000000000000000000e+00) (0, 0, 0.00000000000000000000e+00) (0, 0, 0.00000000000000000000e+00) (0, 0, 0.00000000000000000000e+00) (0, 0, 0.00000000000000000000e+00) (0, 0, 0.00000000000000000000e+00) (0, 0, 0.00000000000000000000e+00) (0, 0, 0.00000000000000000000e+00) (0, 0, 0.00000000000000000000e+00) (0, 0, 0.00000000000000000000e+00) (0, 0, 0.00000000000000000000e+00) (0, 0, 0.00000000000000000000e+00) (0, 0, 0.00000000000000000000e+00) (0, 0, 0.00000000000000000000e+00) (0, 0, 0.00000000000000000000e+00) (0, 0, 0.00000000000000000000e+00) (0, 0, 0.00000000000000000000e+00) (0, 0, 0.00000000000000000000e+00) (0, 0, 0.00000000000000000000e+00) (0, 0, 0.00000000000000000000e+00) (0, 0, 0.00000000000000000000e+00) (0, 0, 0.00000000000000000000e+00) (0, 0, 0.00000000000000000000e+00) (0, 0, 0.00000000000000000000e+00) (0, 0, 0.00000000000000000000e+00) (0, 0, 0.00000000000000000000e+00) (0, 0, 0.00000000000000000000e+00) (0, 0, 0.00000000000000000000e+00) (0, 0, 0.00000000000000000000e+00) (0, 0, 0.00000000000000000000e+00) (0, 0, 0.00000000000000000000e+00) (0, 0, 0.00000000000000000000e+00) (0, 0, 0.00000000000000000000e+00) (0, 0, 0.00000000000000000000e+00) (0, 0, 0.00000000000000000000e+00) (46, 4, 5.00000000000000000000e-01) (46, 4, 5.00000000000000000000e-01) (0, 0, 0.00000000000000000000e+00) (3, 4, 5.00000000000000000000e-01) (3, 4, 5.00000000000000000000e-01) (3, 4, 5.00000000000000000000e-01) (3, 4, 5.00000000000000000000e-01) (3, 4, 5.00000000000000000000e-01) (3, 4, 5.00000000000000000000e-01) (3, 4, 5.00000000000000000000e-01) (3, 4, 5.00000000000000000000e-01) (0, 0, 0.00000000000000000000e+00) (9, 4, 5.00000000000000000000e-01) (9, 4, 5.00000000000000000000e-01) (9, 4, 5.00000000000000000000e-01) (9, 4, 5.00000000000000000000e-01) (0, 0, 0.00000000000000000000e+00) (5, 4, 5.00000000000000000000e-01) (5, 4, 5.00000000000000000000e-01) (5, 4, 5.00000000000000000000e-01) (0, 0, 0.00000000000000000000e+00) (4, 4, 5.00000000000000000000e-01) (4, 4, 5.00000000000000000000e-01) (4, 4, 5.00000000000000000000e-01) (4, 4, 5.00000000000000000000e-01) (0, 0, 0.00000000000000000000e+00) (5, 4, 5.00000000000000000000e-01) (0, 0, 0.00000000000000000000e+00) 
connections (connected_to_neuron, weight)=(0, -1.75909105688142941570e-01) (1, 9.93532413540566400334e-02) (2, 6.58996525079287631677e-01) (3, -8.35385401567616625584e+00) (4, -1.83984253386330398605e-01) (5, 8.78036208436751675066e-01) (6, 3.09789992037320521812e-02) (7, 1.04016506989113999282e+00) (8, -5.63893904146879454409e-01) (9, -5.77889168048664281230e+00) (10, -1.41199021119953721515e-01) (11, -7.57914349452867952550e-01) (12, -1.97778072045896848863e+01) (13, -9.76338265012006600863e-01) (14, 2.82872556929032015205e-01) (15, -1.96640948714469274705e+01) (16, 2.72561535617456351943e+00) (17, -1.55142900190898214152e-01) (18, -1.13267016863214831091e+00) (19, -2.56152425739460953835e+00) (20, -9.39019668699871634665e-01) (21, -1.29764450399492190513e+01) (22, -1.96211605431292852586e+01) (23, -3.78275872001197477346e+00) (24, -9.07016769314013981962e-01) (25, -1.96459680409882864183e+01) (26, -2.46191002914317191852e+00) (27, -3.43499172008856445970e+00) (28, -1.11417516452616762734e+01) (29, -8.53153231760659380711e+00) (30, -8.98471561030402021686e+00) (31, -1.97318812297437986558e+01) (32, 1.01791061813400807168e+00) (33, -1.46092185438215782511e+00) (34, 4.14417222997809586715e-01) (35, -8.53492414971985979832e+00) (36, 3.22857312843660704260e-01) (37, 2.70303338177513596818e+00) (38, -1.97337532924269041246e+01) (39, -1.97328167991493543809e+01) (40, -1.97734079049681028550e+01) (41, -1.96289578588460287278e+01) (42, -1.51599544336300784408e+00) (43, 1.79080471539630394773e+01) (44, 1.47853547455834055668e+00) (45, 9.01564165530335870358e+00) (0, 1.37588178222102741621e+00) (1, 1.99048706962870514126e+00) (2, -1.09661658199958478299e+00) (3, 6.49712339704250751993e+00) (4, 1.13180302341419736223e+00) (5, -3.67748893551651856448e-01) (6, 3.20759970356419510384e-01) (7, -7.91238116039336025764e-01) (8, 9.37681343246967058391e-01) (9, 2.44849697604131621986e+00) (10, 2.40364235588567176638e-01) (11, 1.95338700142578280960e+00) (12, 1.98887252683256470220e+01) (13, 1.96688656491769675583e+00) (14, -1.16638852988384145171e+00) (15, 1.98104156280372940557e+01) (16, 1.62612928611674973922e+01) (17, 6.83589384420638768169e-01) (18, 1.20282711652199991725e+00) (19, 3.36182318082795861258e+00) (20, 1.98192590760503613012e+01) (21, 1.49130230809039758810e+01) (22, 1.99605488876317345159e+01) (23, 3.06564030276240018225e+00) (24, 8.59227845926294531154e-01) (25, 1.97933673585270248907e+01) (26, 1.46883954746610756459e+00) (27, 8.58874064332961317803e+00) (28, 1.63122074393072793441e+01) (29, 6.98435064703689612031e+00) (30, 1.13943805863193912131e+01) (31, 1.98579741443012558477e+01) (32, -1.10882439520465170268e+00) (33, 1.23874104808714768922e+00) (34, 7.43314370918068512140e-01) (35, 6.86466870755420721650e+00) (36, -3.67626311169956143665e-01) (37, -2.23774237906797601738e+00) (38, 1.99646037916158043402e+01) (39, 1.98193388494168125646e+01) (40, 1.98566753665421806829e+01) (41, 1.98534130925749146002e+01) (42, 1.48467015330700768949e+00) (43, -2.99459335708071217041e+00) (44, -2.04416741488359798851e+00) (45, -8.65538286495022113343e+00) (46, -8.00219026322845650157e+00) (47, 1.06416695079562497739e+01) (48, -4.22602682378792593454e+00) (46, -1.29024780227158473167e+01) (47, 6.68320595120339699946e+00) (48, 3.57864621893643319872e-01) (46, -1.28842666058156893882e+01) (47, 6.66472843681721993647e+00) (48, 3.64194962390357729332e-02) (46, -1.29926456196520732078e+01) (47, 6.67906940375714608393e+00) (48, 1.26393772960513295356e-01) (46, -1.29358531145666049156e+01) (47, 6.55464800094514199458e+00) (48, 1.03102118075698023780e-01) (46, -7.92608414705280495127e+00) (47, 1.00418718900829464502e+01) (48, -2.75277752163801769925e+00) (46, -1.28075600100968287620e+01) (47, 6.73218176161198922358e+00) (48, 3.07820703701256581653e-01) (46, -7.94321061785701942881e+00) (47, 1.07344625851867032651e+01) (48, -4.25026067536973783945e+00) (49, 6.14331791556909090346e-01) (50, 1.75685076838800691146e-01) (51, 2.61315889893252495391e-01) (52, 4.57085484517189888365e-01) (53, 1.43245689807612680555e-01) (54, 7.69333644366215541055e-01) (55, 1.61457768505880616683e-01) (56, 5.22199163592889203933e-01) (57, 5.23531276313444648984e-01) (49, 3.51797933479704449944e-01) (50, 3.15692056545681110080e+00) (51, 3.17395433613723865207e+00) (52, 3.22434261271423450168e+00) (53, 1.53162889670157231770e+00) (54, 6.63854689390726782072e-01) (55, 3.05235785821146121677e+00) (56, 3.33033344497837613396e-01) (57, -3.24609320529214206985e-01) (49, 1.56351921238742663789e+00) (50, 6.60865867798542439004e+00) (51, 6.51072811995958744546e+00) (52, 6.72566570032982813387e+00) (53, 3.07573724904557010973e+00) (54, 1.55145411469779803681e+00) (55, 6.52239760672068058511e+00) (56, 1.44513056703649378498e+00) (57, -1.88074626178477579685e+01) (49, 1.78797161862223186191e+00) (50, 3.76602356726965714628e+00) (51, 3.73204640890202332670e+00) (52, 4.03724831709637932420e+00) (53, 3.68405271167597581083e+00) (54, 1.76493154004185237582e+00) (55, 3.75097072715601731474e+00) (56, 1.85103773608772792514e+00) (57, -1.88383288682435328099e+01) (58, -6.59495521646991100795e-01) (59, -1.40794533056733683907e+00) (60, 7.97952125621322849724e+00) (61, 7.89481800449375370476e+00) (62, -2.96149107456384363957e+00) (58, -3.14686584527517243526e-01) (59, 3.09950256207948637854e-01) (60, 3.73972738725243480928e+00) (61, 3.78242174354492100008e+00) (62, -2.76252524736700655339e+00) (58, 2.78256710662436679282e-01) (59, -2.64198683742021156462e-01) (60, -3.34268193276582659124e+00) (61, -3.39123919935880602239e+00) (62, 2.76911064046533139660e+00) (63, -4.70949233598101031362e+01) (64, -4.71400503008651625692e+01) (65, 6.17495090608455932113e+00) (66, -5.64987440704010879244e+00) (63, 7.09649128480504032268e+00) (64, 4.24505681095754461296e+00) (65, -8.58892920844168372696e+00) (66, -4.77065200622747986881e-01) (63, -3.83509777695635367678e+00) (64, -3.85160730988482047366e+00) (65, 2.92991856745473722157e+00) (66, 1.50720945126649663592e+00) (63, -3.76592258904096777172e+00) (64, -2.20672498179424403375e+00) (65, 3.12883227574967204276e+00) (66, 7.53101327912290896549e-01) (67, 3.24882749168366213866e+00) (68, -5.85091596792715162856e-01) (69, 1.39734752668596096115e+00) (70, 1.40222962393022365646e+00) (71, -2.24543471911961167731e-01) 
